5.000000000000000888e+00 nan nan nan nan nan nan
5.072969607143110515e+00 nan nan nan nan nan nan
5.147004126999543239e+00 nan nan nan nan nan nan
5.222119100821768001e+00 nan nan nan nan nan nan
5.298330296670065387e+00 nan nan nan nan nan nan
5.375653712722556321e+00 nan nan nan nan nan nan
5.454105580633507699e+00 nan nan nan nan nan nan
5.533702368940682348e+00 nan nan nan nan nan nan
5.614460786522380786e+00 nan nan nan nan nan nan
5.696397786104967054e+00 nan nan nan nan nan nan
5.779530567821558051e+00 nan nan nan nan nan nan
5.863876582822665107e+00 nan nan nan nan nan nan
5.949453536939516063e+00 nan nan nan nan nan nan
6.036279394400846599e+00 nan nan nan nan nan nan
6.124372381603941484e+00 nan nan nan nan nan nan
6.213750990940691388e+00 nan nan nan nan nan nan
6.304433984679502778e+00 nan nan nan nan nan nan
6.396440398903847857e+00 nan nan nan nan nan nan
6.489789547508314271e+00 nan nan nan nan nan nan
6.584501026252941536e+00 nan nan nan nan nan nan
6.680594716876757211e+00 nan nan nan nan nan nan
6.778090791271322857e+00 nan nan nan nan nan nan
6.877009715715202809e+00 nan nan nan nan nan nan
6.977372255170219084e+00 nan nan nan nan nan nan
7.079199477640419680e+00 nan nan nan nan nan nan
7.182512758594646662e+00 nan nan nan nan nan nan
7.287333785453649959e+00 nan nan nan nan nan nan
7.393684562142700756e+00 nan nan nan nan nan nan
7.501587413710627317e+00 nan nan nan nan nan nan
7.611064991016259995e+00 nan nan nan nan nan nan
7.722140275483284633e+00 nan nan nan nan nan nan
7.834836583924485787e+00 nan nan nan nan nan nan
7.949177573436370992e+00 nan nan nan nan nan nan
8.065187246365265850e+00 nan nan nan nan nan nan
8.182889955345842736e+00 nan nan nan nan nan nan
8.302310408413219989e+00 nan nan nan nan nan nan
8.423473674189629889e+00 nan nan nan nan nan nan
8.546405187146820737e+00 nan nan nan nan nan nan
8.671130752945208187e+00 nan nan nan nan nan nan
8.797676553850996228e+00 nan nan nan nan nan nan
8.926069154232326497e+00 nan nan nan nan nan nan
9.056335506135638980e+00 nan nan nan nan nan nan
9.188502954943421841e+00 nan nan nan nan nan nan
9.322599245114524535e+00 nan nan nan nan nan nan
9.458652526008254569e+00 nan nan nan nan nan nan
9.596691357793456945e+00 -5.010144764733149847e-01 1.275694988111419903e+00 3.221585627169038513e-01 -9.824657048925269920e-02 2.248125491854970071e-03 -8.406293576114919237e-04
9.736744717443830410e+00 -5.010132615610212170e-01 1.275693459657995632e+00 3.221598922829667644e-01 -9.824756204721916963e-02 2.248970935794001192e-03 -8.414992685157604091e-04
9.878842004820755918e+00 -5.010120294458051404e-01 1.275691907525238866e+00 3.221612395387460914e-01 -9.824856471276645353e-02 2.249825728805738851e-03 -8.423786342187920308e-04
1.002301304884488076e+01 -5.010107797804655982e-01 1.275690331146864587e+00 3.221626047997099840e-01 -9.824957859016267281e-02 2.250689955368932130e-03 -8.432675313148407315e-04
1.016928811375777109e+01 -5.010095122059927686e-01 1.275688729934838062e+00 3.221639883909263591e-01 -9.825060378387978632e-02 2.251563700004486496e-03 -8.441660358969275014e-04
1.031769790547497223e+01 -5.010082263510292622e-01 1.275687103278346557e+00 3.221653906474848394e-01 -9.825164039854929199e-02 2.252447047230311545e-03 -8.450742234828487838e-04
1.046827357803173086e+01 -5.010069218312889205e-01 1.275685450542695110e+00 3.221668119149291853e-01 -9.825268853891136467e-02 2.253340081513757493e-03 -8.459921689372798016e-04
1.062104674012284100e+01 -5.010055982489584059e-01 1.275683771068171213e+00 3.221682525497227001e-01 -9.825374830976628393e-02 2.254242887221206710e-03 -8.469199463895940930e-04
1.077604946173791589e+01 -5.010042551920553811e-01 1.275682064168831564e+00 3.221697129197224063e-01 -9.825481981591643876e-02 2.255155548564993784e-03 -8.478576291473751856e-04
1.093331428089346247e+01 -5.010028922337722568e-01 1.275680329131253510e+00 3.221711934046894155e-01 -9.825590316211157971e-02 2.256078149547269870e-03 -8.488052896052659859e-04
1.109287421046325228e+01 -5.010015089317554349e-01 1.275678565213176796e+00 3.221726943968136192e-01 -9.825699845298602186e-02 2.257010773900917141e-03 -8.497629991490982014e-04
1.125476274510834074e+01 -5.010001048273744484e-01 1.275676771642120233e+00 3.221742163012804028e-01 -9.825810579299829040e-02 2.257953505027236220e-03 -8.507308280550053775e-04
1.141901386830822851e+01 -5.009986794449375891e-01 1.275674947613903987e+00 3.221757595368496263e-01 -9.825922528636264752e-02 2.258906425930313783e-03 -8.517088453832917560e-04
1.158566205949466443e+01 -5.009972322908710085e-01 1.275673092291100597e+00 3.221773245364678018e-01 -9.826035703697771906e-02 2.259869619147949343e-03 -8.526971188668718829e-04
1.175474230128949671e+01 -5.009957628528389773e-01 1.275671204801384073e+00 3.221789117479279541e-01 -9.826150114835846550e-02 2.260843166678952552e-03 -8.536957147940156618e-04
1.192629008684821379e+01 -5.009942705988533751e-01 1.275669284235853462e+00 3.221805216345315914e-01 -9.826265772355355366e-02 2.261827149906677457e-03 -8.547046978851194528e-04
1.210034142731063156e+01 -5.009927549762939192e-01 1.275667329647193426e+00 3.221821546758128485e-01 -9.826382686506858477e-02 2.262821649518717820e-03 -8.557241311633410202e-04
1.227693285936029532e+01 -5.009912154108941973e-01 1.275665340047788199e+00 3.221838113682848892e-01 -9.826500867478127343e-02 2.263826745422437350e-03 -8.567540758187082352e-04
1.245610145289426818e+01 -5.009896513056880663e-01 1.275663314407723847e+00 3.221854922262276100e-01 -9.826620325385407306e-02 2.264842516656353534e-03 -8.577945910655278413e-04
1.263788481880475167e+01 -5.009880620398637907e-01 1.275661251652687067e+00 3.221871977825144784e-01 -9.826741070264105593e-02 2.265869041297023309e-03 -8.588457339927209940e-04
1.282232111687435605e+01 -5.009864469675853194e-01 1.275659150661739405e+00 3.221889285894858901e-01 -9.826863112059487648e-02 2.266906396361477016e-03 -8.599075594068777322e-04
1.300944906378658139e+01 -5.009848054167475029e-01 1.275657010265014879e+00 3.221906852198603843e-01 -9.826986460616504715e-02 2.267954657704778203e-03 -8.609801196676401770e-04
1.319930794125314222e+01 -5.009831366876398295e-01 1.275654829241239074e+00 3.221924682676984286e-01 -9.827111125669511782e-02 2.269013899912690219e-03 -8.620634645151338668e-04
1.339193760425997759e+01 -5.009814400515688604e-01 1.275652606315173188e+00 3.221942783494096685e-01 -9.827237116831412378e-02 2.270084196189228395e-03 -8.631576408891245694e-04
1.358737848943355608e+01 -5.009797147493887381e-01 1.275650340154897533e+00 3.221961161048143563e-01 -9.827364443582281561e-02 2.271165618238848473e-03 -8.642626927395500496e-04
1.378567162352929110e+01 -5.009779599899359948e-01 1.275648029368931846e+00 3.221979821982690617e-01 -9.827493115258066625e-02 2.272258236143149396e-03 -8.653786608280653178e-04
1.398685863204386237e+01 -5.009761749484343829e-01 1.275645672503275208e+00 3.221998773198262445e-01 -9.827623141037913901e-02 2.273362118231782563e-03 -8.665055825202280706e-04
1.419098174795315259e+01 -5.009743587647155216e-01 1.275643268038171962e+00 3.222018021864873072e-01 -9.827754529932240801e-02 2.274477330947566669e-03 -8.676434915680557650e-04
1.439808382057779035e+01 -5.009725105414684077e-01 1.275640814384857435e+00 3.222037575434774648e-01 -9.827887290768831663e-02 2.275603938705174963e-03 -8.687924178823005529e-04
1.460820832457801721e+01 -5.009706293422638845e-01 1.275638309881982790e+00 3.222057441656334675e-01 -9.828021432180193695e-02 2.276742003743778293e-03 -8.699523872944173565e-04
1.482139936907984179e+01 -5.009687141895703411e-01 1.275635752791969946e+00 3.222077628588266296e-01 -9.828156962589035262e-02 2.277891585972924467e-03 -8.711234213075534204e-04
1.503770170693442232e+01 -5.009667640626088714e-01 1.275633141297103590e+00 3.222098144614685689e-01 -9.828293890193783022e-02 2.279052742811514716e-03 -8.723055368360899901e-04
1.525716074411247725e+01 -5.009647778950798713e-01 1.275630473495418915e+00 3.222118998461162009e-01 -9.828432222954155972e-02 2.280225529019991315e-03 -8.734987459336329002e-04
1.547982254923590340e+01 -5.009627545728172482e-01 1.275627747396429035e+00 3.222140199211239731e-01 -9.828571968575226803e-02 2.281409996524998238e-03 -8.747030555086043359e-04
1.570573386324846332e+01 -5.009606929312659940e-01 1.275624960916568629e+00 3.222161756324049553e-01 -9.828713134491741388e-02 2.282606194236626307e-03 -8.759184670272446207e-04
1.593494210922755983e+01 -5.009585917528320831e-01 1.275622111874412656e+00 3.222183679652848021e-01 -9.828855727851973367e-02 2.283814167857992593e-03 -8.771449762035195535e-04
1.616749540233926652e+01 -5.009564497640690561e-01 1.275619197985624620e+00 3.222205979464408121e-01 -9.828999755500814062e-02 2.285033959686693077e-03 -8.783825726753207190e-04
1.640344255993861466e+01 -5.009542656327687915e-01 1.275616216857710539e+00 3.222228666459400759e-01 -9.829145223962425237e-02 2.286265608408113385e-03 -8.796312396666537865e-04
1.664283311181726432e+01 -5.009520379647909305e-01 1.275613165984371244e+00 3.222251751794045216e-01 -9.829292139422991792e-02 2.287509148880307892e-03 -8.808909536351821647e-04
1.688571731060079273e+01 -5.009497653008269102e-01 1.275610042739688366e+00 3.222275247102552309e-01 -9.829440507712157438e-02 2.288764611910028279e-03 -8.821616839046364945e-04
1.713214614229762489e+01 -5.009474461128631262e-01 1.275606844371864002e+00 3.222299164521143511e-01 -9.829590334285245867e-02 2.290032024019973949e-03 -8.834433922816267021e-04
1.738217133700197792e+01 -5.009450788005568311e-01 1.275603567996758336e+00 3.222323516712863878e-01 -9.829741624203748585e-02 2.291311407206904349e-03 -8.847360326563932223e-04
1.763584537975303945e+01 -5.009426616873559057e-01 1.275600210591012251e+00 3.222348316894069753e-01 -9.829894382116620422e-02 2.292602778690093230e-03 -8.860395505866452102e-04
1.789322152155246926e+01 -5.009401930163533967e-01 1.275596768984757601e+00 3.222373578862174903e-01 -9.830048612240889494e-02 2.293906150650451819e-03 -8.873538828643772131e-04
1.815435379054293463e+01 -5.009376709460294785e-01 1.275593239854074579e+00 3.222399317024783882e-01 -9.830204318341885517e-02 2.295221529959673868e-03 -8.886789570648316334e-04
1.841929700334952713e+01 -5.009350935456391429e-01 1.275589619712919953e+00 3.222425546430237042e-01 -9.830361503712838067e-02 2.296548917899200043e-03 -8.900146910770803882e-04
1.868810677658685293e+01 -5.009324587903826176e-01 1.275585904904658063e+00 3.222452282800301604e-01 -9.830520171155882059e-02 2.297888309869321709e-03 -8.913609926158619053e-04
1.896083953853406712e+01 -5.009297645563176582e-01 1.275582091593179035e+00 3.222479542563710386e-01 -9.830680322960641537e-02 2.299239695087323867e-03 -8.927177587138329824e-04
1.923755254098013623e+01 -5.009270086149602008e-01 1.275578175753496968e+00 3.222507342892302340e-01 -9.830841960884968700e-02 2.300603056275446999e-03 -8.940848751939079733e-04
1.951830387124218547e+01 -5.009241886276091238e-01 1.275574153161894708e+00 3.222535701738383773e-01 -9.831005086133974558e-02 2.301978369337770534e-03 -8.954622161210451861e-04
1.980315246435906218e+01 -5.009213021392724396e-01 1.275570019385422915e+00 3.222564637874630877e-01 -9.831169699340716606e-02 2.303365603026405646e-03 -8.968496432329271188e-04
2.009215811546293295e+01 -5.009183465723583417e-01 1.275565769771007218e+00 3.222594170935609292e-01 -9.831335800545794312e-02 2.304764718596479574e-03 -8.982470053489581682e-04
2.038538149233144736e+01 -5.009153192199536919e-01 1.275561399433873921e+00 3.222624321461640684e-01 -9.831503389177684293e-02 2.306175669450016407e-03 -8.996541377571985005e-04
2.068288414812301923e+01 -5.009122172386369920e-01 1.275556903245267826e+00 3.222655110945211732e-01 -9.831672464034300896e-02 2.307598400768738189e-03 -9.010708615784564918e-04
2.098472853429800722e+01 -5.009090376410930689e-01 1.275552275819766601e+00 3.222686561879325451e-01 -9.831843023263475700e-02 2.309032849135417721e-03 -9.024969831073221399e-04
2.129097801372852672e+01 -5.009057772880413095e-01 1.275547511501593068e+00 3.222718697808913402e-01 -9.832015064345910049e-02 2.310478942144189411e-03 -9.039322931294082025e-04
2.160169687399938709e+01 -5.009024328799248638e-01 1.275542604350452969e+00 3.222751543384639317e-01 -9.832188584077834748e-02 2.311936597999509832e-03 -9.053765662144878934e-04
2.191695034090344407e+01 -5.008990009480144279e-01 1.275537548126491227e+00 3.222785124419543235e-01 -9.832363578554877137e-02 2.313405725104059410e-03 -9.068295599850742083e-04
2.223680459213359839e+01 -5.008954778449824508e-01 1.275532336274395107e+00 3.222819467948856986e-01 -9.832540043157585175e-02 2.314886221635644240e-03 -9.082910143599578654e-04
2.256132677117480512e+01 -5.008918597350598967e-01 1.275526961906819245e+00 3.222854602292773984e-01 -9.832717972537964590e-02 2.316377975113237658e-03 -9.097606507724269580e-04
2.289058500139880792e+01 -5.008881425834602608e-01 1.275521417786676714e+00 3.222890557122716215e-01 -9.832897360608000570e-02 2.317880861952444776e-03 -9.112381713627450445e-04
2.322464840036440492e+01 -5.008843221453495032e-01 1.275515696308700431e+00 3.222927363530760370e-01 -9.833078200529453416e-02 2.319394747010895645e-03 -9.127232581449145656e-04
2.356358709432669585e+01 -5.008803939540803496e-01 1.275509789479848388e+00 3.222965054103270055e-01 -9.833260484707070925e-02 2.320919483123410048e-03 -9.142155721469231696e-04
2.390747223295779023e+01 -5.008763533087665643e-01 1.275503688898703025e+00 3.223003662997946384e-01 -9.833444204783245435e-02 2.322454910628069750e-03 -9.157147525250076752e-04
2.425637600428252583e+01 -5.008721952612276151e-01 1.275497385733854516e+00 3.223043226024941421e-01 -9.833629351635403415e-02 2.324000856883274083e-03 -9.172204156514123267e-04
2.461037164983213898e+01 -5.008679146020541539e-01 1.275490870700954238e+00 3.223083780732783898e-01 -9.833815915377928929e-02 2.325557135776701312e-03 -9.187321541757861908e-04
2.496953348001897410e+01 -5.008635058459318667e-01 1.275484134038602502e+00 3.223125366498279520e-01 -9.834003885366558728e-02 2.327123547226580842e-03 -9.202495360602561255e-04
2.533393688973570690e+01 -5.008589632161479788e-01 1.275477165482993058e+00 3.223168024621345107e-01 -9.834193250206715864e-02 2.328699876676829268e-03 -9.217721035886448878e-04
2.570365837418219002e+01 -5.008542806281517379e-01 1.275469954241093884e+00 3.223211798424899799e-01 -9.834383997767101593e-02 2.330285894586145694e-03 -9.232993723496752195e-04
2.607877554492313266e+01 -5.008494516721868628e-01 1.275462488962429308e+00 3.223256733360226889e-01 -9.834576115198297164e-02 2.331881355913283278e-03 -9.248308301952093110e-04
2.645936714618041208e+01 -5.008444695949153536e-01 1.275454757709308717e+00 3.223302877117442122e-01 -9.834769588956215891e-02 2.333485999598491813e-03 -9.263659361733864910e-04
2.684551307136283071e+01 -5.008393272800094609e-01 1.275446747925504720e+00 3.223350279742226432e-01 -9.834964404832449714e-02 2.335099548044149761e-03 -9.279041194382713510e-04
2.723729437983732993e+01 -5.008340172275411728e-01 1.275438446403128090e+00 3.223398993758684328e-01 -9.835160547991553259e-02 2.336721706594937012e-03 -9.294447781361210494e-04
2.763479331394493954e+01 -5.008285315322988929e-01 1.275429839247855801e+00 3.223449074298481709e-01 -9.835358003015534645e-02 2.338352163020045952e-03 -9.309872782699712837e-04
2.803809331626484536e+01 -5.008228618606980209e-01 1.275420911842100713e+00 3.223500579237111308e-01 -9.835556753957062914e-02 2.339990586999642595e-03 -9.325309525436000857e-04
2.844727904713078814e+01 -5.008169994265334601e-01 1.275411648806404674e+00 3.223553569337154201e-01 -9.835756784401687713e-02 2.341636629617297339e-03 -9.340750991864183329e-04
2.886243640240270025e+01 -5.008109349651393982e-01 1.275402033958505266e+00 3.223608108399451111e-01 -9.835958077541080702e-02 2.343289922861736384e-03 -9.356189807612828825e-04
2.928365253149794967e+01 -5.008046587062232602e-01 1.275392050270421684e+00 3.223664263421787690e-01 -9.836160616255924805e-02 2.344950079140023253e-03 -9.371618229570957475e-04
2.971101585568569803e+01 -5.007981603450074592e-01 1.275381679823039294e+00 3.223722104766563179e-01 -9.836364383212654883e-02 2.346616690806236152e-03 -9.387028133689495841e-04
3.014461608664811720e+01 -5.007914290117514433e-01 1.275370903758349161e+00 3.223781706336860675e-01 -9.836569360972459430e-02 2.348289329708196007e-03 -9.402411002681312262e-04
3.058454424531262106e+01 -5.007844532394838399e-01 1.275359702229015291e+00 3.223843145762438356e-01 -9.836775532116615040e-02 2.349967546756897684e-03 -9.417757913653766050e-04
3.103089268095894226e+01 -5.007772209299105048e-01 1.275348054345327498e+00 3.223906504594882261e-01 -9.836982879385597345e-02 2.351650871522442156e-03 -9.433059525709041769e-04
3.148375509060484134e+01 -5.007697193172552241e-01 1.275335938119147361e+00 3.223971868513881289e-01 -9.837191385838581215e-02 2.353338811861692415e-03 -9.448306067550744794e-04
3.194322653867510553e+01 -5.007619349301510869e-01 1.275323330405000899e+00 3.224039327543765654e-01 -9.837401035029556817e-02 2.355030853582106183e-03 -9.463487325141444612e-04
3.240940347695720192e+01 -5.007538535511658617e-01 1.275310206837821703e+00 3.224108976282065719e-01 -9.837611811206260770e-02 2.356726460147942279e-03 -9.478592629459661138e-04
3.288238376484841297e+01 -5.007454601741228029e-01 1.275296541767449998e+00 3.224180914139880838e-01 -9.837823699530991173e-02 2.358425072435086940e-03 -9.493610844415853629e-04
3.336226668989841926e+01 -5.007367389588501805e-01 1.275282308189538361e+00 3.224255245595455954e-01 -9.838036686327557290e-02 2.360126108540991016e-03 -9.508530354981602770e-04
3.384915298865151101e+01 -5.007276731833538719e-01 1.275267477672735295e+00 3.224332080460557415e-01 -9.838250759353289743e-02 2.361828963657360350e-03 -9.523339055608026453e-04
3.434314486779329911e+01 -5.007182451933178680e-01 1.275252020282069854e+00 3.224411534161534254e-01 -9.838465908101926005e-02 2.363533010013519221e-03 -9.538024339002135156e-04
3.484434602560565963e+01 -5.007084363484920475e-01 1.275235904497985073e+00 3.224493728035322526e-01 -9.838682124138824203e-02 2.365237596899762325e-03 -9.552573085349135929e-04
3.535286167373504895e+01 -5.006982269661712781e-01 1.275219097131212065e+00 3.224578789640869525e-01 -9.838899401469976269e-02 2.366942050779768329e-03 -9.566971652070342018e-04
3.586879855927848126e+01 -5.006875962613471787e-01 1.275201563233024027e+00 3.224666853087285734e-01 -9.839117736948713167e-02 2.368645675503204540e-03 -9.581205864219167990e-04
3.639226498719165903e+01 -5.006765222834418383e-01 1.275183266000674553e+00 3.224758059379451147e-01 -9.839337130724339076e-02 2.370347752629243295e-03 -9.595261005624294110e-04
3.692337084302430839e+01 -5.006649818493346116e-01 1.275164166677696720e+00 3.224852556781944712e-01 -9.839557586733915784e-02 2.372047541874429833e-03 -9.609121810906057996e-04
3.746222761598729534e+01 -5.006529504726390245e-01 1.275144224448977459e+00 3.224950501202427100e-01 -9.839779113243449227e-02 2.373744281697545179e-03 -9.622772458497258746e-04
3.800894842235614846e+01 -5.006404022889415772e-01 1.275123396330272385e+00 3.225052056595099081e-01 -9.840001723439327497e-02 2.375437190036910028e-03 -9.636196564816264156e-04
3.856364802921655865e+01 -5.006273099766110901e-01 1.275101637051557324e+00 3.225157395385893633e-01 -9.840225436077676413e-02 2.377125465215265080e-03 -9.649377179751928834e-04
3.912644287855598435e+01 -5.006136446733616685e-01 1.275078898934625560e+00 3.225266698920097319e-01 -9.840450276193918322e-02 2.378808287030823206e-03 -9.662296783641093328e-04
3.969745111170707474e+01 -5.005993758876929878e-01 1.275055131763622507e+00 3.225380157933944170e-01 -9.840676275878557089e-02 2.380484818051913087e-03 -9.674937285922165491e-04
4.027679259414791346e+01 -5.005844714057972045e-01 1.275030282649395108e+00 3.225497973050798217e-01 -9.840903475123689848e-02 2.382154205136753113e-03 -9.687280025682925557e-04
4.086458894066379344e+01 -5.005688971926087749e-01 1.275004295885910910e+00 3.225620355303917552e-01 -9.841131922745932625e-02 2.383815581199595027e-03 -9.699305774326105484e-04
4.146096354087677582e+01 -5.005526172878645985e-01 1.274977112799893453e+00 3.225747526687320343e-01 -9.841361677394885876e-02 2.385468067247654891e-03 -9.710994740600283276e-04
4.206604158514728908e+01 -5.005355936957677221e-01 1.274948671591851657e+00 3.225879720735170264e-01 -9.841592808648422230e-02 2.387110774714859551e-03 -9.722326578274425408e-04
4.267995009085405655e+01 -5.005177862688436896e-01 1.274918907169227067e+00 3.226017183132302568e-01 -9.841825398206242859e-02 2.388742808119280383e-03 -9.733280396738193266e-04
4.330281792905748972e+01 -5.004991525851377743e-01 1.274887750970724598e+00 3.226160172357043221e-01 -9.842059541187943295e-02 2.390363268076575211e-03 -9.743834774865113742e-04
4.393477585155207521e+01 -5.004796478185811193e-01 1.274855130781373802e+00 3.226308960357825995e-01 -9.842295347542794060e-02 2.391971254699205851e-03 -9.753967778464216155e-04
4.457595651831372408e+01 -5.004592246022474544e-01 1.274820970538236731e+00 3.226463833265706405e-01 -9.842532943580985239e-02 2.393565871419913935e-03 -9.763656981721746762e-04
4.522649452534768955e+01 -5.004378328838078316e-01 1.274785190125707013e+00 3.226625092145057327e-01 -9.842772473637913244e-02 2.395146229275750202e-03 -9.772879493024982326e-04
4.588652643294259548e+01 -5.004154197734376197e-01 1.274747705160774736e+00 3.226793053782791576e-01 -9.843014101874882071e-02 2.396711451693346075e-03 -9.781611985617208460e-04
4.655619079433734697e+01 -5.003919293829690584e-01 1.274708426766822944e+00 3.226968051520437974e-01 -9.843258014236473674e-02 2.398260679821768038e-03 -9.789830733568541214e-04
4.723562818480584014e+01 -5.003673026566104465e-01 1.274667261336238422e+00 3.227150436129567201e-01 -9.843504420568228996e-02 2.399793078459407699e-03 -9.797511653581373985e-04
4.792498123116647690e+01 -5.003414771923624382e-01 1.274624110280872413e+00 3.227340576732758981e-01 -9.843753556909057290e-02 2.401307842626584487e-03 -9.804630353190764338e-04
4.862439464172232562e+01 -5.003143870538340199e-01 1.274578869769902978e+00 3.227538861774635337e-01 -9.844005687977791519e-02 2.402804204840884843e-03 -9.811162185978906328e-04
4.933401523663791011e+01 -5.002859625721124415e-01 1.274531430454805436e+00 3.227745700041518284e-01 -9.844261109855284575e-02 2.404281443153285635e-03 -9.817082314455629916e-04
5.005399197875981798e+01 -5.002561301369045088e-01 1.274481677180195227e+00 3.227961521737729989e-01 -9.844520152894049858e-02 2.405738890011846487e-03 -9.822365781322873156e-04
5.078447600488674141e+01 -5.002248119769965307e-01 1.274429488680979272e+00 3.228186779615353497e-01 -9.844783184855311620e-02 2.407175942020654304e-03 -9.826987589896998138e-04
5.152562065749577158e+01 -5.001919259290245057e-01 1.274374737264338586e+00 3.228421950165026866e-01 -9.845050614303060832e-02 2.408592070670418500e-03 -9.830922794513722793e-04
5.227758151693227262e+01 -5.001573851944250970e-01 1.274317288476342291e+00 3.228667534868190914e-01 -9.845322894267140301e-02 2.409986834120864639e-03 -9.834146601827699428e-04
5.304051643406873495e+01 -5.001210980837130782e-01 1.274257000752407221e+00 3.228924061515814903e-01 -9.845600526200666558e-02 2.411359890122137094e-03 -9.836634483967616333e-04
5.381458556344104238e+01 -5.000829677483293878e-01 1.274193725051693038e+00 3.229192085593861061e-01 -9.845884064245803702e-02 2.412711010167462901e-03 -9.838362304599643487e-04
5.459995139686778742e+01 -5.000428918983949034e-01 1.274127304473426481e+00 3.229472191742894238e-01 -9.846174119839343208e-02 2.414040094979685250e-03 -9.839306459031920901e-04
5.539677879756023060e+01 -5.000007625070949091e-01 1.274057573856159920e+00 3.229764995292095930e-01 -9.846471366675671466e-02 2.415347191437392828e-03 -9.839444029570633844e-04
5.620523503473060600e+01 -4.999564655002724511e-01 1.273984359358168783e+00 3.230071143873800010e-01 -9.846776546059142488e-02 2.416632511058768810e-03 -9.838752957453647703e-04
5.702548981870466349e+01 -4.999098804310474486e-01 1.273907478018706518e+00 3.230391319121480587e-01 -9.847090472670963490e-02 2.417896450166765517e-03 -9.837212232765648896e-04
5.785771533654749987e+01 -4.998608801394830992e-01 1.273826737300382872e+00 3.230726238453690002e-01 -9.847414040775101518e-02 2.419139611870498550e-03 -9.834802103872279395e-04
5.870208628820867602e+01 -4.998093303959284528e-01 1.273741934610564952e+00 3.231076656952506232e-01 -9.847748230910061129e-02 2.420362830005584782e-03 -9.831504308002007603e-04
5.955877992319495462e+01 -4.997550895283576211e-01 1.273652856802864886e+00 3.231443369335963434e-01 -9.848094117082832610e-02 2.421567195190785313e-03 -9.827302324757420174e-04
6.042797607777862368e+01 -4.996980080327395046e-01 1.273559279656809595e+00 3.231827212033813179e-01 -9.848452874517241162e-02 2.422754083165055191e-03 -9.822181654455669486e-04
6.130985721274840472e+01 -4.996379281665783156e-01 1.273460967336427219e+00 3.232229065367596132e-01 -9.848825787985349134e-02 2.423925185583449601e-03 -9.816130123339930885e-04
6.220460845171125897e+01 -4.995746835251611007e-01 1.273357671826958581e+00 3.232649855841567277e-01 -9.849214260764116435e-02 2.425082543464495474e-03 -9.809138217873889301e-04
6.311241761995376010e+01 -4.995080985997744083e-01 1.273249132348837742e+00 3.233090558552249583e-01 -9.849619824272901059e-02 2.426228583495210374e-03 -9.801199450492593338e-04
6.403347528386970566e+01 -4.994379883183112101e-01 1.273135074749366602e+00 3.233552199716988040e-01 -9.850044148422541779e-02 2.427366157410904002e-03 -9.792310759341984940e-04
6.496797479096407812e+01 -4.993641575679548805e-01 1.273015210871969671e+00 3.234035859331694795e-01 -9.850489052739441753e-02 2.428498584691411461e-03 -9.782472944770415069e-04
6.591611231044014119e+01 -4.992864006999532256e-01 1.272889237902721904e+00 3.234542673960528192e-01 -9.850956518310025056e-02 2.429629698822631263e-03 -9.771691145496570405e-04
6.687808687437889432e+01 -4.992045010156641038e-01 1.272756837693292731e+00 3.235073839669194706e-01 -9.851448700619411247e-02 2.430763897401410842e-03 -9.759975357640814694e-04
6.785410041952017934e+01 -4.991182302359287726e-01 1.272617676062906433e+00 3.235630615098079033e-01 -9.851967943314993148e-02 2.431906196366928966e-03 -9.747340999986361032e-04
6.884435782965243789e+01 -4.990273479521182831e-01 1.272471402076958968e+00 3.236214324693563182e-01 -9.852516792996281192e-02 2.433062288682276159e-03 -9.733809529167467391e-04
6.984906697862228953e+01 -4.989316010604086804e-01 1.272317647304665122e+00 3.236826362095497900e-01 -9.853098015073166738e-02 2.434238607793212054e-03 -9.719409108669144681e-04
7.086843877397089386e+01 -4.988307231800058750e-01 1.272156025055902751e+00 3.237468193692989993e-01 -9.853714610783666228e-02 2.435442396227384138e-03 -9.704175335874172005e-04
7.190268720120729995e+01 -4.987244340552665633e-01 1.271986129597903803e+00 3.238141362351568686e-01 -9.854369835435941583e-02 2.436681779717776893e-03 -9.688152031657745007e-04
7.295202936872847488e+01 -4.986124389431522141e-01 1.271807535352686536e+00 3.238847491328377126e-01 -9.855067217989298134e-02 2.437965847266469494e-03 -9.671392097414803664e-04
7.401668555339425382e+01 -4.984944279882891904e-01 1.271619796078644171e+00 3.239588288365924384e-01 -9.855810582007890064e-02 2.439304737585582666e-03 -9.653958444695696526e-04
7.509687924676747173e+01 -4.983700755854476028e-01 1.271422444035597454e+00 3.240365549992730854e-01 -9.856604068151016140e-02 2.440709732393113712e-03 -9.635925003054772627e-04
7.619283720202955124e+01 -4.982390397319487185e-01 1.271214989135993179e+00 3.241181166026679827e-01 -9.857452158257075381e-02 2.442193357072144910e-03 -9.617377812127196742e-04
7.730478948157971786e+01 -4.981009613727858110e-01 1.270996918086383376e+00 3.242037124289525174e-01 -9.858359701136000519e-02 2.443769489230210746e-03 -9.598416204320902667e-04
7.843296950533002132e+01 -4.979554637399934425e-01 1.270767693519921027e+00 3.242935515549238978e-01 -9.859331940209213607e-02 2.445453475750161698e-03 -9.579154085075548700e-04
7.957761409970434840e+01 -4.978021516897719878e-01 1.270526753124661790e+00 3.243878538688443336e-01 -9.860374543087296884e-02 2.447262258946371252e-03 -9.559721318059270952e-04
8.073896354735259706e+01 -4.976406110395162896e-01 1.270273508769726778e+00 3.244868506122338125e-01 -9.861493633259826863e-02 2.449214512499086043e-03 -9.540265223228982204e-04
8.191726163759108204e+01 -4.974704079096097797e-01 1.270007345635389973e+00 3.245907849459124250e-01 -9.862695823994689637e-02 2.451330787880768268e-03 -9.520952196313468797e-04
8.311275571757791170e+01 -4.972910880744235151e-01 1.269727621351986802e+00 3.246999125425365507e-01 -9.863988254624207752e-02 2.453633672032042631e-03 -9.501969458772884349e-04
8.432569674423646688e+01 -4.971021763246030178e-01 1.269433665149891199e+00 3.248145022062207121e-01 -9.865378629382538789e-02 2.456147957114146289e-03 -9.483526948065704220e-04
8.555633933693569304e+01 -4.969031758492296613e-01 1.269124777031303664e+00 3.249348365199500877e-01 -9.866875258935567383e-02 2.458900823206960906e-03 -9.465859358698427810e-04
8.680494183093941274e+01 -4.966935676405542233e-01 1.268800226965834943e+00 3.250612125227510529e-01 -9.868487104838274959e-02 2.461922034889967286e-03 -9.449228345259592455e-04
8.807176633163621204e+01 -4.964728099300070863e-01 1.268459254121668822e+00 3.251939424159911440e-01 -9.870223827040434939e-02 2.465244152709108495e-03 -9.433924899535671210e-04
8.935707876956010409e+01 -4.962403376598762961e-01 1.268101066135630672e+00 3.253333543024780061e-01 -9.872095834739993969e-02 2.468902760604246068e-03 -9.420271914577820404e-04
9.066114895621420544e+01 -4.959955620007124866e-01 1.267724838435741797e+00 3.254797929567193049e-01 -9.874114340724812755e-02 2.472936710435876592e-03 -9.408626949551935357e-04
9.198425064070984547e+01 -4.957378699193862870e-01 1.267329713620645171e+00 3.256336206299296765e-01 -9.876291419502972180e-02 2.477388384847693716e-03 -9.399385210214063289e-04
9.332666156723098538e+01 -4.954666238111388732e-01 1.266914800912966044e+00 3.257952178887667527e-01 -9.878640069423924586e-02 2.482303979771023801e-03 -9.392982760898448656e-04
9.468866353333871189e+01 -4.951811611982467332e-01 1.266479175688378200e+00 3.259649844917191785e-01 -9.881174279133099481e-02 2.487733807979831263e-03 -9.389899985017480721e-04
9.607054244912552576e+01 -4.948807945137367326e-01 1.266021879104346493e+00 3.261433403010605137e-01 -9.883909098560955675e-02 2.493732625191421876e-03 -9.390665312339910526e-04
9.747258839723311041e+01 -4.945648109713646767e-01 1.265541917827499141e+00 3.263307262354606109e-01 -9.886860714864222077e-02 2.500359980328233263e-03 -9.395859232594558092e-04
9.889509569374679643e+01 -4.942324725411877950e-01 1.265038263885383651e+00 3.265276052615594393e-01 -9.890046533575161392e-02 2.507680591652040273e-03 -9.406118616347836471e-04
1.003383629499773377e+02 -4.938830160366349808e-01 1.264509854648647957e+00 3.267344634275527460e-01 -9.893485265359315550e-02 2.515764750609581629e-03 -9.422141365620829599e-04
1.018026931351458160e+02 -4.935156533288571068e-01 1.263955592963162289e+00 3.269518109397563932e-01 -9.897197018757851461e-02 2.524688755357541465e-03 -9.444691418305430509e-04
1.032883936399823028e+02 -4.931295716967153409e-01 1.263374347442732804e+00 3.271801832847718861e-01 -9.901203399365421376e-02 2.534535376074125053e-03 -9.474604132231401795e-04
1.047957763412527328e+02 -4.927239343297952767e-01 1.262764952944474439e+00 3.274201423970108937e-01 -9.905527615833703559e-02 2.545394354290782778e-03 -9.512792076455248765e-04
1.063251576672283676e+02 -4.922978809934103195e-01 1.262126211237785789e+00 3.276722778754593279e-01 -9.910194593253630890e-02 2.557362938672755933e-03 -9.560251259578226180e-04
1.078768586641098040e+02 -4.918505288703911016e-01 1.261456891886931997e+00 3.279372082502658992e-01 -9.915231094389156952e-02 2.570546459802424809e-03 -9.618067826745929421e-04
1.094512050634203177e+02 -4.913809735897190500e-01 1.260755733360499287e+00 3.282155823022268049e-01 -9.920665849379300960e-02 2.585058946734717852e-03 -9.687425259613733882e-04
1.110485273503839352e+02 -4.908882904597615671e-01 1.260021444391682399e+00 3.285080804359313822e-01 -9.926529694449805208e-02 2.601023788259353674e-03 -9.769612115761603863e-04
1.126691608332995571e+02 -4.903715359102814864e-01 1.259252705595859334e+00 3.288154161108634010e-01 -9.932855720375358133e-02 2.618574442037005772e-03 -9.866030346960454750e-04
1.143134457139294540e+02 -4.898297491596141917e-01 1.258448171370055269e+00 3.291383373322076533e-01 -9.939679431378367624e-02 2.637855194973329296e-03 -9.978204238381843411e-04
1.159817271589136425e+02 -4.892619541155756036e-01 1.257606472087081873e+00 3.294776282035585258e-01 -9.947038915207692678e-02 2.659021978445197821e-03 -1.010779001409180776e-03
1.176743553722266427e+02 -4.886671615186875539e-01 1.256726216600105861e+00 3.298341105447745170e-01 -9.954975025269149902e-02 2.682243242252827127e-03 -1.025658615747374568e-03
1.193916856686927304e+02 -4.880443713316316434e-01 1.255805995066383574e+00 3.302086455816414801e-01 -9.963531575798345585e-02 2.707700891434745849e-03 -1.042654449883194129e-03
1.211340785485723046e+02 -4.873925753862095589e-01 1.254844382112913603e+00 3.306021357044837128e-01 -9.972755550892292709e-02 2.735591290387498226e-03 -1.061978212647460501e-03
1.229018997732386254e+02 -4.867107602855544890e-01 1.253839940344730897e+00 3.310155263067800502e-01 -9.982697328679879245e-02 2.766126339024219550e-03 -1.083859418155238685e-03
1.246955204419577115e+02 -4.859979105655370391e-01 1.252791224213070098e+00 3.314498077033373735e-01 -9.993410921675414949e-02 2.799534626097948016e-03 -1.108546760196794153e-03
1.265153170697887077e+02 -4.852530121096804705e-01 1.251696784244092697e+00 3.319060171356484346e-01 -1.000495423467004097e-01 2.836062665112648422e-03 -1.136309588514039428e-03
1.283616716666223283e+02 -4.844750558184073297e-01 1.250555171641199559e+00 3.323852408684505599e-01 -1.001738934153903193e-01 2.875976218698097966e-03 -1.167439494530835269e-03
1.302349718173716724e+02 -4.837076555082569507e-01 1.249394721286738230e+00 3.328800960401753217e-01 -1.002865141842084057e-01 2.904350077501134404e-03 -1.184997711930403218e-03
1.321356107633331192e+02 -4.829588504570108132e-01 1.248219301272427417e+00 3.333898313434409677e-01 -1.003829510955678850e-01 2.917790867649322148e-03 -1.185121931013021152e-03
1.340639874847362591e+02 -4.821827068579986331e-01 1.246997054168977215e+00 3.339241488126124535e-01 -1.004849399004162508e-01 2.931590453971029582e-03 -1.185146677129967100e-03
1.360205067844962059e+02 -4.813786810862580867e-01 1.245726614718150715e+00 3.344842000505237056e-01 -1.005928179954410223e-01 2.945759193792346371e-03 -1.185074880788580028e-03
1.380055793731904146e+02 -4.805462519861536941e-01 1.244406610718195250e+00 3.350711876266290190e-01 -1.007069436050207073e-01 2.960307545990033696e-03 -1.184910299632605576e-03
1.400196219552742889e+02 -4.796849229975921891e-01 1.243035664469106960e+00 3.356863671914310787e-01 -1.008276971035016178e-01 2.975246043996463991e-03 -1.184657603488448001e-03
1.420630573165548469e+02 -4.787942241869356241e-01 1.241612394139347986e+00 3.363310496738134980e-01 -1.009554824249081773e-01 2.990585264813060834e-03 -1.184322466147642427e-03
1.441363144129425393e+02 -4.778737141466005700e-01 1.240135415016136999e+00 3.370066035678651040e-01 -1.010907285666339528e-01 3.006335793587010079e-03 -1.183911664325345333e-03
1.462398284604961134e+02 -4.769229817381038239e-01 1.238603340622850713e+00 3.377144573087768054e-01 -1.012338911926066731e-01 3.022508183315338742e-03 -1.183433184290698598e-03
1.483740410267836580e+02 -4.759416476515773153e-01 1.237014783680825181e+00 3.384561017408698191e-01 -1.013854543424468901e-01 3.039112909135320041e-03 -1.182896336668144222e-03
1.505394001235757742e+02 -4.749293657443787731e-01 1.235368356878566498e+00 3.392330926836527039e-01 -1.015459322545422260e-01 3.056160316687401603e-03 -1.182311879964824007e-03
1.527363603008910502e+02 -4.738858241477714728e-01 1.233662673453261194e+00 3.400470535926534699e-01 -1.017158713085942329e-01 3.073660563908420587e-03 -1.181692153390474613e-03
1.549653827424158692e+02 -4.728107461032006742e-01 1.231896347544343184e+00 3.408996783189536250e-01 -1.018958520961468911e-01 3.091623555628137190e-03 -1.181051219586653784e-03
1.572269353623151176e+02 -4.717038905091014978e-01 1.230067994311649038e+00 3.417927339732295122e-01 -1.020864916280997958e-01 3.110058870218905796e-03 -1.180405017898000612e-03
1.595214929034556803e+02 -4.705650521694941801e-01 1.228176229821431598e+00 3.427280638835449311e-01 -1.022884456841052503e-01 3.128975677553232256e-03 -1.179771528902252538e-03
1.618495370370652893e+02 -4.693940617112666858e-01 1.226219670670495532e+00 3.437075906619939114e-01 -1.025024113177081808e-01 3.148382647367740927e-03 -1.179170950882282853e-03
1.642115564638429817e+02 -4.681907851763220108e-01 1.224196933372718288e+00 3.447333193674522178e-01 -1.027291295219289052e-01 3.168287847135482522e-03 -1.178625889045851029e-03
1.666080470165479426e+02 -4.669551232711313671e-01 1.222106633498056816e+00 3.458073407708396885e-01 -1.029693880678782120e-01 3.188698628435909874e-03 -1.178161558298313231e-03
1.690395117640836986e+02 -4.656870102835652947e-01 1.219947384591592243e+00 3.469318347172482553e-01 -1.032240245254056471e-01 3.209621500690600700e-03 -1.177806000434075294e-03
1.715064611171012530e+02 -4.643864126647019863e-01 1.217717796882656689e+00 3.481090735846708584e-01 -1.034939294769046392e-01 3.231061991074409955e-03 -1.177590316662585970e-03
1.740094129351453489e+02 -4.630533272906436348e-01 1.215416475818027031e+00 3.493414258364306302e-01 -1.037800499366699075e-01 3.253024489323470391e-03 -1.177548916454223540e-03
1.765488926353613977e+02 -4.616877794276442182e-01 1.213042020460706860e+00 3.506313596610780570e-01 -1.040833929863569512e-01 3.275512075975922557e-03 -1.177719783743891649e-03
1.791254333027920040e+02 -4.602898204175318586e-01 1.210593021788839208e+00 3.519814466992409741e-01 -1.044050296414904544e-01 3.298526332523241556e-03 -1.178144761567362668e-03
1.817395758022809105e+02 -4.588595251223961946e-01 1.208068060960657553e+00 3.533943658475544036e-01 -1.047460989612811894e-01 3.322067131791898303e-03 -1.178869856335871928e-03
1.843918688920103932e+02 -4.573969891631688989e-01 1.205465707599717717e+00 3.548729071372739297e-01 -1.051078124175282985e-01 3.346132406717112172e-03 -1.179945562949590541e-03
1.870828693386970656e+02 -4.559023259947480589e-01 1.202784518168144912e+00 3.564199756823854259e-01 -1.054914585392708187e-01 3.370717895536990121e-03 -1.181427212104384054e-03
1.898131420344672904e+02 -4.543756638757090460e-01 1.200023034520544263e+00 3.580385956830647309e-01 -1.058984078479635188e-01 3.395816861210514646e-03 -1.183375341153352928e-03
1.925832601154380654e+02 -4.528171427713152397e-01 1.197179782694732131e+00 3.597319144895637089e-01 -1.063301181055911204e-01 3.421419782758667542e-03 -1.185856090042395304e-03
1.953938050820307524e+02 -4.512269112671397076e-01 1.194253272060702642e+00 3.615032067065807042e-01 -1.067881398920320218e-01 3.447514015938117626e-03 -1.188941623902609480e-03
1.982453669210372880e+02 -4.496051235379616151e-01 1.191241994895445133e+00 3.633558783439366224e-01 -1.072741225379307828e-01 3.474083420458604771e-03 -1.192710583955854846e-03
2.011385442294711368e+02 -4.479519364512747903e-01 1.188144426507495410e+00 3.652934709948030267e-01 -1.077898204332636833e-01 3.501107950754416432e-03 -1.197248568576535395e-03
2.040739443402235622e+02 -4.462675068579514126e-01 1.184959025991385362e+00 3.673196660478617592e-01 -1.083370997418092313e-01 3.528563206967726563e-03 -1.202648646384675991e-03
2.070521834495536666e+02 -4.445519891517529798e-01 1.181684237742218757e+00 3.694382889176451301e-01 -1.089179455473197472e-01 3.556419942577680304e-03 -1.209011903448953523e-03
2.100738867464411896e+02 -4.428055331502652736e-01 1.178318493818812929e+00 3.716533133008441125e-01 -1.095344694672419766e-01 3.584643524773864758e-03 -1.216448026770704975e-03
2.131396885438238655e+02 -4.410282823736444424e-01 1.174860217275135899e+00 3.739688654472603235e-01 -1.101889177656960178e-01 3.613193343267381320e-03 -1.225075926398162341e-03
2.162502324117533021e+02 -4.392203727784111944e-01 1.171307826564244259e+00 3.763892284598736593e-01 -1.108836800099995135e-01 3.642022162954939440e-03 -1.235024398685658636e-03
2.194061713124917787e+02 -4.373819320131899224e-01 1.167659741127413886e+00 3.789188466121747867e-01 -1.116212983083261362e-01 3.671075415281012909e-03 -1.246432833387514389e-03
2.226081677375809420e+02 -4.355130792514024241e-01 1.163914388270382627e+00 3.815623297100060318e-01 -1.124044771841836710e-01 3.700290422787302740e-03 -1.259451967480382456e-03
2.258568938469126124e+02 -4.336139256513483753e-01 1.160070211426493803e+00 3.843244575000682173e-01 -1.132360941371520352e-01 3.729595550833149972e-03 -1.274244688875054770e-03
2.291530316098271953e+02 -4.316845755050208733e-01 1.156125679924285166e+00 3.872101841462867733e-01 -1.141192109519155312e-01 3.758909279756201226e-03 -1.290986893355708463e-03
2.324972729482714158e+02 -4.297251281077260621e-01 1.152079300334774459e+00 3.902246428059512606e-01 -1.150570858248039091e-01 3.788139190282125823e-03 -1.309868398416456567e-03
2.358903198820474927e+02 -4.277356804034253002e-01 1.147929629517247196e+00 3.933731503311697075e-01 -1.160531863812763603e-01 3.817180854214021011e-03 -1.331093917994163097e-03
2.393328846761784803e+02 -4.257163304204704124e-01 1.143675289416513641e+00 3.966612121588755646e-01 -1.171112036741826373e-01 3.845916621642171337e-03 -1.354884102370825568e-03
2.428256899904279749e+02 -4.236671815585492662e-01 1.139314983749710741e+00 4.000945274118716810e-01 -1.182350672501554650e-01 3.874214295073363269e-03 -1.381476647985502683e-03
2.463694690309993121e+02 -4.215883477213406283e-01 1.134847516605930640e+00 4.036789943199803332e-01 -1.194289614021842444e-01 3.901925679945492369e-03 -1.411127482312597714e-03
2.499649657044489288e+02 -4.194799593408300442e-01 1.130271813079734899e+00 4.074207160099924119e-01 -1.206973427193403919e-01 3.928884999901086951e-03 -1.444112029470790391e-03
2.536129347738479680e+02 -4.173421702935836697e-01 1.125586941980318834e+00 4.113260067887091753e-01 -1.220449590767150178e-01 3.954907163897323358e-03 -1.480726562731322178e-03
2.573141420172196376e+02 -4.151751657336751888e-01 1.120792140701367234e+00 4.154013990267245160e-01 -1.234768702147536756e-01 3.979785871153386848e-03 -1.521289650904491869e-03
2.610693643882920583e+02 -4.129791708432564712e-01 1.115886842299784076e+00 4.196536507946459493e-01 -1.249984700831228979e-01 4.003291538023399238e-03 -1.566143706087926284e-03
2.648793901795952479e+02 -4.107544605094640700e-01 1.110870704846596224e+00 4.240897544175689093e-01 -1.266155111430179170e-01 4.025169029591703536e-03 -1.615656641306052353e-03
2.687450191879374302e+02 -4.085013699354522743e-01 1.105743643103799689e+00 4.287169461527244874e-01 -1.283341308502629619e-01 4.045135176508425981e-03 -1.670223647371380654e-03
2.726670628822995468e+02 -4.062203061744492638e-01 1.100505862565530624e+00 4.335427172189603717e-01 -1.301608805662561319e-01 4.062876055668265991e-03 -1.730269099505403257e-03
2.766463445741771352e+02 -4.038529595012643747e-01 1.094432042955506335e+00 4.386558329243822052e-01 -1.316099046999183730e-01 4.119409185228171434e-03 -1.744420863941283529e-03
2.806836995904080254e+02 -4.014314284886178474e-01 1.088137519602513148e+00 4.439858257061665148e-01 -1.331124925039419149e-01 4.179044946886674786e-03 -1.758469263009624630e-03
2.847799754485254766e+02 -3.989543251724071427e-01 1.081625663171660534e+00 4.495383763499858354e-01 -1.346777826685657820e-01 4.241298450925185329e-03 -1.773230131567789204e-03
2.889360320346660274e+02 -3.964195091184541941e-01 1.074889316635317948e+00 4.553203931709814412e-01 -1.363077276949430094e-01 4.306290379521133214e-03 -1.788763372424244944e-03
2.931527417840776479e+02 -3.938248196594787975e-01 1.067921328474903619e+00 4.613387469894211779e-01 -1.380042685161858296e-01 4.374146140247622307e-03 -1.805133428839110921e-03
2.974309898642597432e+02 -3.911680880472471200e-01 1.060714586257334835e+00 4.676002412511669482e-01 -1.397693258503870106e-01 4.444995980471555704e-03 -1.822409591203134503e-03
3.017716743607758190e+02 -3.884471504195921576e-01 1.053262052865074017e+00 4.741115795998798732e-01 -1.416047908245174625e-01 4.518975102528989367e-03 -1.840666323466997895e-03
3.061757064657808769e+02 -3.856598615670407959e-01 1.045556805386994359e+00 4.808793308733947947e-01 -1.435125148629557146e-01 4.596223780309839288e-03 -1.859983610671914027e-03
3.106440106692951417e+02 -3.828041094724578541e-01 1.037592076644683114e+00 4.879098915226600108e-01 -1.454942988438920615e-01 4.676887478153536962e-03 -1.880447329163468552e-03
3.151775249532747125e+02 -3.798778305889747853e-01 1.029361299309593525e+00 4.952094454831109105e-01 -1.475518815358130564e-01 4.761116973252286187e-03 -1.902149641173682187e-03
3.197772009885105149e+02 -3.768790258251951131e-01 1.020858152540242481e+00 5.027839215515923499e-01 -1.496869273337511907e-01 4.849068482763006435e-03 -1.925189415550517501e-03
3.244440043344013134e+02 -3.738057771737371415e-01 1.012076611003153381e+00 5.106389483834973264e-01 -1.519010133337430346e-01 4.940903797581856424e-03 -1.949672676767809929e-03
3.291789146416448943e+02 -3.706562649398890130e-01 1.003010996155160539e+00 5.187798072310009223e-01 -1.541956157865561616e-01 5.036790424553024871e-03 -1.975713084308190239e-03
3.339829258578843110e+02 -3.674287854914952689e-01 9.936560295757526085e-01 5.272113826140979453e-01 -1.565720959929605971e-01 5.136901739605974695e-03 -2.003432444917231832e-03
3.388570464363554038e+02 -3.641217694441400421e-01 9.840068881046567517e-01 5.359381111622075755e-01 -1.590316857169040421e-01 5.241417154513779326e-03 -2.032961260306829273e-03
3.438022995475826633e+02 -3.607338001922749671e-01 9.740592605065494514e-01 5.449639289055328017e-01 -1.615754722071222893e-01 5.350522300397289426e-03 -2.064439313185193869e-03
3.488197232941594734e+02 -3.572636326689459518e-01 9.638094053126717853e-01 5.542922173533768593e-01 -1.642043829339397132e-01 5.464409231565194904e-03 -2.098016294747488426e-03
3.539103709286679305e+02 -3.537102122146409955e-01 9.532542094493583473e-01 5.639257487569067084e-01 -1.669191701683323259e-01 5.583276653653203477e-03 -2.133852476982158082e-03
3.590753110747755841e+02 -3.500726934025973902e-01 9.423912471860099727e-01 5.738666310189656228e-01 -1.697203955494515637e-01 5.707330180518534191e-03 -2.172119433446308492e-03
3.643156279515586675e+02 -3.463504586751102177e-01 9.312188389127498134e-01 5.841162527487653300e-01 -1.726084147987850259e-01 5.836782624767705013e-03 -2.213000812458793942e-03
3.696324216011029762e+02 -3.425431366102224540e-01 9.197361091715859915e-01 5.946752290433573451e-01 -1.755833627650612294e-01 5.971854327253178947e-03 -2.256693166944827474e-03
3.750268081194205934e+02 -3.386506196328694096e-01 9.079430433276902690e-01 6.055433486146948319e-01 -1.786451389953571667e-01 6.112773531282539828e-03 -2.303406845459903506e-03
3.804999198907420919e+02 -3.346722380975497013e-01 8.958320291679791048e-01 6.167137082892792943e-01 -1.817810861657766508e-01 6.251364896276955137e-03 -2.343778090234283507e-03
3.860529058252247410e+02 -3.306074916789473739e-01 8.833987718685492041e-01 6.281796075952575942e-01 -1.849815629419825913e-01 6.381795769403955480e-03 -2.371120612325249965e-03
3.916869316001291281e+02 -3.264581805600535458e-01 8.706582989502988923e-01 6.399459787314383252e-01 -1.882630548803738979e-01 6.516256709957950720e-03 -2.399298951280646065e-03
3.974031799045192201e+02 -3.222253648771565837e-01 8.576144410719955813e-01 6.520085072179835350e-01 -1.916240359864092579e-01 6.654800594106150338e-03 -2.428348020530822146e-03
4.032028506875305425e+02 -3.179104416648870779e-01 8.442721308466647478e-01 6.643617997497131000e-01 -1.950626599193258925e-01 6.797475699457647923e-03 -2.458304711597233527e-03
4.090871614102605349e+02 -3.135151548819916090e-01 8.306374369328652918e-01 6.769993521408607107e-01 -1.985767515648581283e-01 6.944325491465055608e-03 -2.489208118334905375e-03
4.150573473013400871e+02 -3.090416033319854927e-01 8.167175915493628535e-01 6.899135238505585965e-01 -2.021638007208563792e-01 7.095388443782635855e-03 -2.521099790864913225e-03
4.211146616162279201e+02 -3.044922462560047949e-01 8.025210106504810925e-01 7.030955198752911750e-01 -2.058209581447230929e-01 7.250697896494345297e-03 -2.554024021549609978e-03
4.272603759002956849e+02 -2.998699063897085071e-01 7.880573060391040663e-01 7.165353807636498651e-01 -2.095450342035951874e-01 7.410281955892749836e-03 -2.588028165368168407e-03
4.334957802557483433e+02 -2.951777703003806708e-01 7.733372887646648985e-01 7.302219814415099597e-01 -2.133325003476334025e-01 7.574163438691935285e-03 -2.623162996829613274e-03
4.398221836124396873e+02 -2.904193858370989756e-01 7.583729632129471154e-01 7.441430394795184311e-01 -2.171794936129627096e-01 7.742359863078428044e-03 -2.659483105511207656e-03
4.462409140026448426e+02 -2.855953106801398800e-01 7.431650928264283973e-01 7.582813497229502486e-01 -2.210707522344510234e-01 7.915844669425456046e-03 -2.696224304178205730e-03
4.527533188398356856e+02 -2.806983963089299539e-01 7.276864167215147949e-01 7.726076590252469733e-01 -2.249630167102499301e-01 8.097986417284418550e-03 -2.730649144828181923e-03
4.593607652015318195e+02 -2.757462371413195168e-01 7.120012117284438835e-01 7.871193544948557053e-01 -2.288934510120849974e-01 8.285141061817142757e-03 -2.766019131728284300e-03
4.660646401162749157e+02 -2.707436819243200787e-01 6.961258747541491099e-01 8.017990147641587129e-01 -2.328561983513158518e-01 8.477371582562698640e-03 -2.802380825270173962e-03
4.728663508547905963e+02 -2.656958839011484552e-01 6.800778278152922462e-01 8.166281762578883052e-01 -2.368450763150499183e-01 8.674742133519087323e-03 -2.839785990463858118e-03
4.797673252254043632e+02 -2.606082797248111538e-01 6.638754515886523544e-01 8.315873990780283664e-01 -2.408535974941938829e-01 8.877318803161012017e-03 -2.878292250820902853e-03
4.867690118737643274e+02 -2.554865653826594585e-01 6.475380089609559242e-01 8.466563430951877800e-01 -2.448749933281658964e-01 9.085170448568762047e-03 -2.917963793886140834e-03
4.938728805869377538e+02 -2.503366692991162434e-01 6.310855590820451111e-01 8.618138537857528148e-01 -2.489022410393715024e-01 9.298369599162931848e-03 -2.958872128514020584e-03
5.010804226019504881e+02 -2.451647228399196077e-01 6.145388626045420466e-01 8.770380571861786656e-01 -2.529280934814553405e-01 9.516993424192590409e-03 -3.001096893533786863e-03
5.083931509188242899e+02 -2.399770284871583781e-01 5.979192789513332329e-01 8.923064631724239026e-01 -2.569451116763489806e-01 9.741124756777496882e-03 -3.044726717066580362e-03
5.158126006181829553e+02 -2.347800259969729519e-01 5.812486565971020092e-01 9.075960761318782044e-01 -2.609456997726907757e-01 9.970853165839392573e-03 -3.089860125173910996e-03
5.233403291834981701e+02 -2.295802568922214459e-01 5.645492174851535205e-01 9.228835119566155543e-01 -2.649221421174143276e-01 1.020627606603934090e-02 -3.136606498193342165e-03
5.309779168280310842e+02 -2.243843276734969194e-01 5.478434368163721535e-01 9.381451201734261058e-01 -2.688666420984239802e-01 1.044749985462410831e-02 -3.185087072548315953e-03
5.387269668265524842e+02 -2.191988721606028534e-01 5.311539195384046286e-01 9.533571099325527376e-01 -2.727713623878240123e-01 1.069464106295929876e-02 -3.235435985476689882e-03
5.465891058518992622e+02 -2.140305133906570401e-01 5.145032749275323392e-01 9.684956785101107579e-01 -2.766284661969506953e-01 1.094782750959862223e-02 -3.287801359671120062e-03
5.545659843164423819e+02 -2.088858255211658577e-01 4.979139907224283679e-01 9.835371409150179822e-01 -2.804301591327138521e-01 1.120719944081170066e-02 -3.342346424424005435e-03
5.626592767185426283e+02 -2.037712961655214761e-01 4.814083082238084232e-01 9.984580592268539334e-01 -2.841687312596130610e-01 1.147291064399477353e-02 -3.399250669555170350e-03
5.708706819940587138e+02 -1.986932896114339542e-01 4.650080998399166998e-01 1.013235370231129195e+00 -2.878365989502691402e-01 1.174512951863689036e-02 -3.458711028023566704e-03
5.792019238729835706e+02 -1.936580113310879814e-01 4.487347504422107280e-01 1.027846510024058801e+00 -2.914263461415229073e-01 1.202404008933320896e-02 -3.520943082873006103e-03
5.876547512412928427e+02 -1.886714741847894117e-01 4.326090438689952911e-01 1.042269534287548316e+00 -2.949307646229785140e-01 1.230984294499060452e-02 -3.586182293854226367e-03
5.962309385080643551e+02 -1.837394666776869523e-01 4.166510557858773556e-01 1.056483233065034222e+00 -2.983428930227867704e-01 1.260275608833659813e-02 -3.654685238858581316e-03
6.049322859779642840e+02 -1.788625931430203320e-01 4.008644124794278896e-01 1.070446893680092160e+00 -3.016287834262394441e-01 1.290539871865400284e-02 -3.725328308945975546e-03
6.137606202291638056e+02 -1.740493764325150017e-01 3.852781309762996487e-01 1.084151921949403574e+00 -3.047980185373821982e-01 1.321664464279717795e-02 -3.799302598552575620e-03
6.227177944967701251e+02 -1.693060737519369030e-01 3.699138107336306658e-01 1.097584573675614239e+00 -3.078512096694923095e-01 1.353619589496460676e-02 -3.877296882796509633e-03
6.318056890618611305e+02 -1.646373098815592795e-01 3.547878214662824603e-01 1.110727079978699017e+00 -3.107823212703582638e-01 1.386438838157516562e-02 -3.959658674624450501e-03
6.410262116461859705e+02 -1.600473675167662646e-01 3.399154218281659756e-01 1.123562828310643136e+00 -3.135857010700731640e-01 1.420158147977714641e-02 -4.046763031725512938e-03
6.503812978126372855e+02 -1.555401730497485424e-01 3.253107084680678107e-01 1.136076424678095886e+00 -3.162561045828150008e-01 1.454815831977047599e-02 -4.139013833383083443e-03
6.598729113715604626e+02 -1.511192856915818672e-01 3.109865759562876475e-01 1.148253745926432590e+00 -3.187887170436811135e-01 1.490452589087280615e-02 -4.236845038350430838e-03
6.695030447929927959e+02 -1.467878899130824200e-01 2.969546875575123090e-01 1.160081982127561417e+00 -3.211791728122185829e-01 1.527111495746175107e-02 -4.340721917281170801e-03
6.792737196249245244e+02 -1.425487911469422164e-01 2.832254566920763827e-01 1.171549669254466908e+00 -3.234235723176657751e-01 1.564837977116496914e-02 -4.451142253119559113e-03
6.891869869176588281e+02 -1.384024608364434472e-01 2.698021324801175846e-01 1.182624878156674386e+00 -3.254946556524769274e-01 1.602244780070300259e-02 -4.552341948590004836e-03
6.992449276543635506e+02 -1.343502918425042991e-01 2.566909575010734579e-01 1.193288782310076401e+00 -3.273792082256954394e-01 1.638771395785093565e-02 -4.637953700798147158e-03
7.094496531879142367e+02 -1.303963543326326913e-01 2.439059869867187813e-01 1.203559349764082409e+00 -3.291028132634327696e-01 1.676159689576683584e-02 -4.727766050490179311e-03
7.198033056841013604e+02 -1.265419559084280388e-01 2.314526923988267926e-01 1.213430125618994992e+00 -3.306631198233512259e-01 1.714438149088874999e-02 -4.822123776951842480e-03
7.303080585713171331e+02 -1.227880471770216725e-01 2.193353487083662401e-01 1.222896006077405673e+00 -3.320582722347462101e-01 1.753635698562054993e-02 -4.921392359642728920e-03
7.409661169967968135e+02 -1.191352335132749990e-01 2.075570692300463815e-01 1.231953222624907474e+00 -3.332869149544140930e-01 1.793781470398766315e-02 -5.025958091264617900e-03
7.517797182895188826e+02 -1.155837887120623603e-01 1.961198468317341403e-01 1.240599320891303758e+00 -3.343481963957695702e-01 1.834904547134662625e-02 -5.136228086546062478e-03
7.627511324298681075e+02 -1.121336702685222508e-01 1.850246006653880892e-01 1.248833135078914136e+00 -3.352417720222987119e-01 1.877033672374628717e-02 -5.252630177271670753e-03
7.738826625261416439e+02 -1.087845360246244841e-01 1.742712275699192792e-01 1.256654758828117391e+00 -3.359678069812692680e-01 1.920196929126012295e-02 -5.375612683416026993e-03
7.851766452980205031e+02 -1.055357619239979811e-01 1.638586572985153422e-01 1.264065513403699992e+00 -3.365269785673866698e-01 1.964421383908660293e-02 -5.505644049942991225e-03
7.966354515670892624e+02 -1.023693736899120299e-01 1.537407238601824488e-01 1.270883094237390321e+00 -3.367324398330880930e-01 2.011518004328436207e-02 -5.637184617850609161e-03
8.082614867545138395e+02 -9.929018646621237676e-02 1.439318512269422423e-01 1.277152104141193512e+00 -3.366320840417966198e-01 2.061106380823989059e-02 -5.772748668378948830e-03
8.200571913859899951e+02 -9.630697565586933406e-02 1.344552680908262243e-01 1.282978681192324499e+00 -3.363328409492188364e-01 2.112230598475281496e-02 -5.916438662858614778e-03
8.320250416040539676e+02 -9.341817140988648016e-02 1.253068623506369550e-01 1.288365227224664622e+00 -3.358345699030762521e-01 2.164947995362474092e-02 -6.068828215937046959e-03
8.441675496878690410e+02 -9.062201702252643820e-02 1.164818688611234665e-01 1.293314988578666780e+00 -3.351374829805431887e-01 2.219315692272380569e-02 -6.230514359466457833e-03
8.564872645806066203e+02 -8.791658846265050509e-02 1.079749320297673787e-01 1.297832013868412071e+00 -3.342421426761624237e-01 2.275390210808632407e-02 -6.402116867459922700e-03
8.689867724245109457e+02 -8.529981359153467058e-02 9.978016752802758293e-02 1.301921113521884443e+00 -3.331494606125255387e-01 2.333227055391485019e-02 -6.584277399731007334e-03
8.816686971037855756e+02 -8.276949092496715954e-02 9.189122264081529823e-02 1.305587821586568609e+00 -3.318606974243328289e-01 2.392880257325546295e-02 -6.777658451314912298e-03
8.945357007953942912e+02 -8.032330782996038865e-02 8.430133488350692594e-02 1.308838360164643388e+00 -3.303774639144790304e-01 2.454401879117570559e-02 -6.982942094886732814e-03
9.075904845278990933e+02 -7.795885805492631937e-02 7.700338854631197383e-02 1.311679606811495313e+00 -3.287017235714120300e-01 2.517841477229114389e-02 -7.200828503826949174e-03
9.208357887484646653e+02 -7.567365851271974642e-02 6.998996889321518200e-02 1.314119065169022660e+00 -3.268357965202889903e-01 2.583245521508971410e-02 -7.432034244367916216e-03
9.342743938981225256e+02 -7.346516525452867485e-02 6.325341380534907354e-02 1.316164839019064781e+00 -3.247823649397637014e-01 2.650656769585137476e-02 -7.677290325968820321e-03
9.479091209954447095e+02 -7.133078858456649851e-02 5.678586270004316178e-02 1.317825609910167284e+00 -3.225444799715087574e-01 2.720113594650061181e-02 -7.937340000642865295e-03
9.617428322287267974e+02 -6.926790728104076367e-02 5.057930260855144494e-02 1.319110618446219352e+00 -3.201255701221659145e-01 2.791649265164471844e-02 -8.212936303226853890e-03
9.757784315568127340e+02 -6.727348641597716283e-02 4.462498368069101745e-02 1.320019093933237908e+00 -3.175195145611170444e-01 2.864693323130165087e-02 -8.498009868123747312e-03
9.900188653186963847e+02 -6.534410951795248390e-02 3.891363394022409605e-02 1.320539033951523944e+00 -3.147097124717914141e-01 2.938009631945614000e-02 -8.778942221466133275e-03
1.004467122852011471e+03 -6.347826050120736197e-02 3.343890875888305692e-02 1.320710088379908553e+00 -3.117280461858659701e-01 3.013247820308443889e-02 -9.075168654801181803e-03
1.019126237120547216e+03 -6.167331549393006290e-02 2.819260153101185370e-02 1.320543399509470861e+00 -3.085793897339340619e-01 3.090400872733492510e-02 -9.387304539955303520e-03
1.033999285350932269e+03 -5.992577618490809582e-02 2.316507757984680518e-02 1.320029581255058870e+00 -3.052498351242747820e-01 3.169664870536396256e-02 -9.715696231081063367e-03
1.049089389678594443e+03 -5.820784011490066912e-02 1.830910540843199222e-02 1.318565193287867698e+00 -3.011851830188849721e-01 3.257281069211092478e-02 -1.005408625462438782e-02
1.064399717803164322e+03 -5.654230477964843071e-02 1.365974344321927575e-02 1.316727675813448739e+00 -2.969099049175480398e-01 3.347552294224827307e-02 -1.041073250172967757e-02
1.079933483653431722e+03 -5.492668797201555320e-02 9.209358252613573242e-03 1.314525391281696987e+00 -2.924266997073087793e-01 3.440497072870134232e-02 -1.078633258368194743e-02
1.095693948062007394e+03 -5.335856447050581208e-02 4.950461677457320894e-03 1.311967013285090911e+00 -2.877385872217640972e-01 3.536124570364848618e-02 -1.118156897392722816e-02
1.111684419449841698e+03 -5.183557195837367598e-02 8.757302314742786749e-04 1.309061532559604890e+00 -2.828489224941681535e-01 3.634433620043080876e-02 -1.159710453895316205e-02
1.127908254520715218e+03 -5.035541625334725990e-02 -3.021977648193033446e-03 1.305818264835904463e+00 -2.777614102636146165e-01 3.735411719060983265e-02 -1.203357786136440184e-02
1.144368858965884328e+03 -4.891587588619938920e-02 -6.749606357523140442e-03 1.302246860218524649e+00 -2.724801195250570185e-01 3.839033993290492941e-02 -1.249159838263975628e-02
1.161069688178994738e+03 -4.751480606614356950e-02 -1.031388974605956278e-02 1.298357313757327658e+00 -2.670094979037703764e-01 3.945262135703815620e-02 -1.297174139840709395e-02
1.178014247981433073e+03 -4.615014207099773363e-02 -1.372133945687068965e-02 1.294159976861773531e+00 -2.613543856213272343e-01 4.054043323233594287e-02 -1.347454294489531385e-02
1.195206095358270659e+03 -4.481990210018469561e-02 -1.697823484133673469e-02 1.289665569197240291e+00 -2.555200288120937357e-01 4.165309117717634624e-02 -1.400049462079962226e-02
1.212648839204940032e+03 -4.352218962743481523e-02 -2.009061430767485404e-02 1.284885190699652124e+00 -2.495120919415028393e-01 4.278974357139318785e-02 -1.455003839444050234e-02
1.230346141084806050e+03 -4.225519529002480512e-02 -2.306426796327558024e-02 1.279830333335739034e+00 -2.433366690704195090e-01 4.394936043963417610e-02 -1.512356145165843005e-02
1.248301715997806696e+03 -4.101675554134469326e-02 -2.590482076329083533e-02 1.274492958665646380e+00 -2.369825800282779615e-01 4.511948870004788698e-02 -1.570829103275992247e-02
1.266519333160292035e+03 -3.980073029966943454e-02 -2.861984843835060563e-02 1.268706779259248574e+00 -2.303002248810692709e-01 4.631341266454607614e-02 -1.629938830469393127e-02
1.285002816796263232e+03 -3.859072836999580258e-02 -3.122013604555285565e-02 1.261868035616520389e+00 -2.227586887268313554e-01 4.761631416862908972e-02 -1.691479664276829623e-02
1.303756046940146689e+03 -3.740460030374666983e-02 -3.369786692723496235e-02 1.254710741620857828e+00 -2.150000530073857274e-01 4.894634803535236750e-02 -1.755456941784507355e-02
1.322782960251281338e+03 -3.624102242740252777e-02 -3.605721681815265284e-02 1.247243725208871945e+00 -2.070288536666924639e-01 5.030223031616500029e-02 -1.821886261278181374e-02
1.342087550840309177e+03 -3.509876795069288152e-02 -3.830208269582118658e-02 1.239476161390829168e+00 -1.988500296388485411e-01 5.168247462368056461e-02 -1.890775572914469085e-02
1.361673871107603645e+03 -3.397670694421617288e-02 -4.043608199950073090e-02 1.231417579447462218e+00 -1.904689266188511754e-01 5.308538371310730225e-02 -1.962124759800366186e-02
1.381546032593955033e+03 -3.287380608075878702e-02 -4.246255246454013615e-02 1.223077867739120528e+00 -1.818912982801811629e-01 5.450904171040645702e-02 -2.035925262405292868e-02
1.401708206843656399e+03 -3.178912816031044530e-02 -4.438455252295722686e-02 1.214467275900964705e+00 -1.731233047651307422e-01 5.595130708145563958e-02 -2.112159753402556919e-02
1.422164626280186667e+03 -3.072183143772977756e-02 -4.620486223360048550e-02 1.205596414250301729e+00 -1.641715083119454077e-01 5.740980643089382135e-02 -2.190801869791395018e-02
1.442919585094684408e+03 -2.967116877013569604e-02 -4.792598472044301561e-02 1.196476250290488874e+00 -1.550428659238601847e-01 5.888192921144824038e-02 -2.271816008749647647e-02
1.463977440147376910e+03 -2.863648659921422951e-02 -4.955014811410143188e-02 1.187118102268488462e+00 -1.457447190382199220e-01 6.036482341393738238e-02 -2.355157193089430293e-02
1.485342611882162146e+03 -2.761563658319695150e-02 -5.107843238758631027e-02 1.177441796234820259e+00 -1.362058317569054544e-01 6.186673773269564525e-02 -2.440863323982944352e-02
1.507019585254555295e+03 -2.659497139683663497e-02 -5.250313569350001375e-02 1.166656824956205929e+00 -1.257458606434644632e-01 6.348466616938849838e-02 -2.529752339179698606e-02
1.529012910673154011e+03 -2.558889280965508453e-02 -5.383195293108905544e-02 1.155593638226539488e+00 -1.150779562416951313e-01 6.511513000672974893e-02 -2.620996625083431286e-02
1.551327204954865920e+03 -2.459717170272652381e-02 -5.506588738465662686e-02 1.144262403296651964e+00 -1.042090000756709378e-01 6.675490110747667183e-02 -2.714524524108431411e-02
1.573967152294061862e+03 -2.361966975718439790e-02 -5.620569815811841952e-02 1.132673659714724224e+00 -9.314626085570949787e-02 6.840051376947585415e-02 -2.810254471319880570e-02
1.596937505245872444e+03 -2.265633729878028038e-02 -5.725190894413335202e-02 1.120838312880221954e+00 -8.189738158542186897e-02 7.004826667179751831e-02 -2.908095172368512296e-02
1.620243085723851209e+03 -2.170689824460662887e-02 -5.820423270668990262e-02 1.108742429873702307e+00 -7.044967035738167183e-02 7.167905341035181455e-02 -3.006068197536625880e-02
1.643888786012172432e+03 -2.077165053807540629e-02 -5.906296628940978233e-02 1.096409555019031368e+00 -5.882161538679001739e-02 7.329569421932881357e-02 -3.104901702408542977e-02
1.667879569792625944e+03 -1.985095019514324099e-02 -5.982826021792802401e-02 1.083863604937192804e+00 -4.703182844958823244e-02 7.490096236502710725e-02 -3.205352843956432718e-02
1.692220473186584286e+03 -1.894507706673952130e-02 -6.049981603669244562e-02 1.071116924346343424e+00 -3.508939538368634203e-02 7.649028665283857942e-02 -3.307292251206091216e-02
1.716916605812174112e+03 -1.805438465568171350e-02 -6.107716754744796361e-02 1.058182194824201616e+00 -2.300370637099431043e-02 7.805889429133153201e-02 -3.410583054141055892e-02
1.741973151856892400e+03 -1.716820449083820976e-02 -6.153585112904357696e-02 1.044054296283085215e+00 -9.923803398760542085e-03 7.974103366517844294e-02 -3.516747092961661908e-02
1.767395371165861889e+03 -1.629817195709693314e-02 -6.189487733415576648e-02 1.029668639149347031e+00 3.358194754881396651e-03 8.140834246216650805e-02 -3.624212707513500137e-02
1.793188600345965824e+03 -1.544526607164992994e-02 -6.215417148341802894e-02 1.015070763383750574e+00 1.680482631905643592e-02 8.305155629016229557e-02 -3.732770843790127885e-02
1.819358253886116245e+03 -1.461015085739612342e-02 -6.231289184560447753e-02 1.000274522039546143e+00 3.040547527289758772e-02 8.466561703627793756e-02 -3.842257164572158989e-02
1.845909825293844278e+03 -1.379353655470978192e-02 -6.237018850660302344e-02 9.852943517207968238e-01 4.414906818540011157e-02 8.624531907737237324e-02 -3.952501392225900995e-02
1.872848888248503044e+03 -1.299617189903971327e-02 -6.232524013281170311e-02 9.701453056059879954e-01 5.802406407681789252e-02 8.778532250156746708e-02 -4.063328015252371667e-02
1.900181097771284840e+03 -1.221883567461292709e-02 -6.217729388220796793e-02 9.548430925906331579e-01 7.201844034563489871e-02 8.928016678258168803e-02 -4.174557016202884441e-02
1.927912191412310676e+03 -1.146232752607528882e-02 -6.192570837517209770e-02 9.394041225946468954e-01 8.611967466762206203e-02 9.072428478453652134e-02 -4.286004614555431746e-02
1.956047990455065474e+03 -1.072745802602157426e-02 -6.156999953002451065e-02 9.238455577784094874e-01 1.003147229863380757e-01 9.211201698377778635e-02 -4.397484019247690362e-02
1.984594401138379681e+03 -1.000720121943863422e-02 -6.107570709861954994e-02 9.069989282664751018e-01 1.155784303351902326e-01 9.361594328956525379e-02 -4.511039357317531140e-02
2.013557415896275188e+03 -9.310631548044245170e-03 -6.047375064760743268e-02 8.899783610221283503e-01 1.309804325106212752e-01 9.507001976498649642e-02 -4.624443110208048546e-02
2.042943114615885634e+03 -8.638818877806694885e-03 -5.976576830712194977e-02 8.728425506035134562e-01 1.464730611745038436e-01 9.646316540324807731e-02 -4.737418999633814104e-02
2.072757665913733035e+03 -7.992525410086968179e-03 -5.895272181413746537e-02 8.556137631307502156e-01 1.620392115502875263e-01 9.778986670199502074e-02 -4.849759415880671581e-02
2.103007328430650887e+03 -7.372352503833379950e-03 -5.803529887300439005e-02 8.382942930637452550e-01 1.776747142451853001e-01 9.902986711921646368e-02 -4.959122305131022368e-02
2.133698452145585179e+03 -6.779001765587000690e-03 -5.701572141908676367e-02 8.209184608541172379e-01 1.933536327276583477e-01 1.001839647482825058e-01 -5.066133514538721794e-02
2.164837479708569390e+03 -6.213088061275614214e-03 -5.589683809900778538e-02 8.035242474704098470e-01 2.090482685239277716e-01 1.012550006882915188e-01 -5.171759052234590343e-02
2.196430947793173345e+03 -5.675067497079750410e-03 -5.468167101792809071e-02 7.861389875355868639e-01 2.247380235529608528e-01 1.022376737174532785e-01 -5.275794629099245237e-02
2.228485488468659696e+03 -5.165288456783377266e-03 -5.337385180619749758e-02 7.687912821775699790e-01 2.404014815058168886e-01 1.031267675633327913e-01 -5.378039098373881693e-02
2.261007830592194296e+03 -4.680629096707383807e-03 -5.194874315861218450e-02 7.504913091790419433e-01 2.568499383411497750e-01 1.040899505511815176e-01 -5.480182581605242548e-02
2.294004801221357411e+03 -4.224948511751955120e-03 -5.043919814558119746e-02 7.322238262376022933e-01 2.732763305154004008e-01 1.049662312792174063e-01 -5.580224137488752623e-02
2.327483327047262264e+03 -3.798328065783307741e-03 -4.885220371997523597e-02 7.140609038494175609e-01 2.896237974727191578e-01 1.057447355390111476e-01 -5.677890507538956716e-02
2.361450435848618781e+03 -3.400565399055654331e-03 -4.719429875890297776e-02 6.960374750744038330e-01 3.058661081487690780e-01 1.064211503301993600e-01 -5.772986939541190077e-02
2.395913257966977653e+03 -3.031308950560833090e-03 -4.547264261486073933e-02 6.781892927368938784e-01 3.219765487666510495e-01 1.069913836008757752e-01 -5.865327353899972562e-02
2.430879027803540339e+03 -2.690057941284626671e-03 -4.369497569229650880e-02 6.605527316280500605e-01 3.379280735134447267e-01 1.074515861668665223e-01 -5.954735767477955383e-02
2.466355085337791479e+03 -2.376165123504201185e-03 -4.186956598177533212e-02 6.431645583238899677e-01 3.536934777661173701e-01 1.077981725018484493e-01 -6.041047748657699806e-02
2.502348877668292062e+03 -2.088842346274271452e-03 -4.000514177061123555e-02 6.260616699023521248e-01 3.692455930157486632e-01 1.080278400906982406e-01 -6.124111889191306141e-02
2.538867960575982124e+03 -1.826107233976854592e-03 -3.809294412338024710e-02 6.085078454424784900e-01 3.851697637144434472e-01 1.082814973415032189e-01 -6.204005514106757102e-02
2.575920000110275396e+03 -1.588076303759442627e-03 -3.615863217063482876e-02 5.911779126745011492e-01 4.009250421976026102e-01 1.084395356243011699e-01 -6.279578202201049897e-02
2.613512774198299212e+03 -1.373757647705183297e-03 -3.421493179841611498e-02 5.742314048818837335e-01 4.163887436450092738e-01 1.084826156222875593e-01 -6.351407470305833747e-02
2.651654174277650782e+03 -1.181874665956201068e-03 -3.227163386079432567e-02 5.577036580982625003e-01 4.315345899796709794e-01 1.084092135027678316e-01 -6.419395305395123041e-02
2.690352206952934921e+03 -1.011076004737892879e-03 -3.033845595254553232e-02 5.416283596101045816e-01 4.463376146118783749e-01 1.082181936616158774e-01 -6.483463592631498462e-02
2.729614995676524359e+03 -8.599545432609834129e-04 -2.842492078028244565e-02 5.260371862626767037e-01 4.607744271515441525e-01 1.079088137227885852e-01 -6.543555181346577543e-02
2.769450782453817283e+03 -7.270256184692708724e-04 -2.653900476207738529e-02 5.108875613891458167e-01 4.748790800844404081e-01 1.074966236367524419e-01 -6.599723472979229788e-02
2.809867929573382753e+03 -6.105568986703210476e-04 -2.468010437054465878e-02 4.956082979659736654e-01 4.890907078301144351e-01 1.071180114142956108e-01 -6.652635594116892981e-02
2.850874921362382793e+03 -5.095174919436362389e-04 -2.286854661976866696e-02 4.808885323176687043e-01 5.028737668822432783e-01 1.066300329110332623e-01 -6.701426799923290711e-02
2.892480365967573107e+03 -4.224505410166183280e-04 -2.111191631834415799e-02 4.667491947909929162e-01 5.162124602527325967e-01 1.060339166101930825e-01 -6.746120479455879060e-02
2.934692997162333995e+03 -3.479391841208637009e-04 -1.941704082867155151e-02 4.532076383963457578e-01 5.290936961463827970e-01 1.053312774700956855e-01 -6.786763200003111118e-02
2.977521676180050235e+03 -2.846216267960725486e-04 -1.778991765242031800e-02 4.402774686797184533e-01 5.415072158473542840e-01 1.045240982970820215e-01 -6.823424354493883015e-02
3.020975393574239206e+03 -2.311800427114569492e-04 -1.623427973087385526e-02 4.278451607675604618e-01 5.535325027347522964e-01 1.036426638992711535e-01 -6.855486762799806177e-02
3.065063271105860167e+03 -1.863781179558096808e-04 -1.475246674586660166e-02 4.156973068351263456e-01 5.653234684433318114e-01 1.027499037397209269e-01 -6.883183415435627228e-02
3.109794563658136212e+03 -1.491588460488792677e-04 -1.335179162475855739e-02 4.041779993826489226e-01 5.766266144662820503e-01 1.017674408924226781e-01 -6.907110427054616308e-02
3.155178661179317260e+03 -1.184775208239233067e-04 -1.203450213813177586e-02 3.932854417807892244e-01 5.874428452213514840e-01 1.006988210858040939e-01 -6.927412842898986178e-02
3.201225090653834286e+03 -9.338515707511787416e-05 -1.080191379868843983e-02 3.830140671334618108e-01 5.977759259537479553e-01 9.954783274569431462e-02 -6.944252687714046191e-02
3.247943518102168127e+03 -7.302900015623510000e-05 -9.654445814255591118e-03 3.733547095566888685e-01 6.076323626860947735e-01 9.831847463252378627e-02 -6.957807206089570984e-02
3.295343750609951712e+03 -5.662858894906355018e-05 -8.588944930683869647e-03 3.638383596779634632e-01 6.173396755850263373e-01 9.715074598289941132e-02 -6.968320772625639925e-02
3.343435738386655885e+03 -4.354488324605406953e-05 -7.606859980106446192e-03 3.547773678994951552e-01 6.266716311118906146e-01 9.595969067794089813e-02 -6.975828482597404290e-02
3.392229576854315837e+03 -3.320192415279176411e-05 -6.707055669297645045e-03 3.462834315469351942e-01 6.355493875696320849e-01 9.471245421826067490e-02 -6.980501574137762399e-02
3.441735508766777002e+03 -2.509729098980885851e-05 -5.886903297790489938e-03 3.383359048252664314e-01 6.439876854813135765e-01 9.341389704789614112e-02 -6.982548676569608204e-02
3.491963926359816014e+03 -1.880337622785802033e-05 -5.143214762297259289e-03 3.309088392385108879e-01 6.519977785208181942e-01 9.206804034397085557e-02 -6.981263996477510281e-02
3.542925373532691538e+03 -1.396033048846808273e-05 -4.472378245422411504e-03 3.239756091372967828e-01 6.595930234125110259e-01 9.068004723287259594e-02 -6.976234120676969019e-02
3.594630548061501031e+03 -1.026865189561187048e-05 -3.870481505186619368e-03 3.175151963500725261e-01 6.668005734955222419e-01 8.925674841104444535e-02 -6.969176809955698881e-02
3.647090303844833215e+03 -7.479976216308869373e-06 -3.332776521750578473e-03 3.112725675845180451e-01 6.737837603279875909e-01 8.788502814014581555e-02 -6.960109955468450627e-02
3.700315653182231927e+03 -5.395044238523886254e-06 -2.855324959130013922e-03 3.053316576047825359e-01 6.804862560770441604e-01 8.653528902911136744e-02 -6.949248270756935852e-02
3.754317769085875170e+03 -3.852440652678685395e-06 -2.433918049032539072e-03 2.997823070788388500e-01 6.868530631034600598e-01 8.517118532078833681e-02 -6.936878501340190684e-02
3.809107987625992337e+03 -2.722768818077051803e-06 -2.064010094275583237e-03 2.945957570593574215e-01 6.929052538465788613e-01 8.379770373826196661e-02 -6.923198178110431811e-02
3.864697810310544355e+03 -1.904155443338780739e-06 -1.741104205452691581e-03 2.897431847946196903e-01 6.986640485760791108e-01 8.241975916428381788e-02 -6.908398417408624648e-02
3.921098906499581972e+03 -1.317167577806298584e-06 -1.460688838522750501e-03 2.850764149738206354e-01 7.042171053897052779e-01 8.109168383956240345e-02 -6.892319819698761174e-02
3.978323115854890602e+03 -9.008095950178081175e-07 -1.218450061408697617e-03 2.804048365253109520e-01 7.096627114334455033e-01 7.989187913041873035e-02 -6.874007621817133928e-02
4.036382450825349679e+03 -6.090609644771394613e-07 -1.010659724879579228e-03 2.759886718899784430e-01 7.148620148661901652e-01 7.870973955929162769e-02 -6.854915752961628084e-02
4.095289099168561279e+03 -4.069919873774502972e-07 -8.334677697272677719e-04 2.718012065112107578e-01 7.198346473688131963e-01 7.754995188147195684e-02 -6.835193099978148501e-02
4.155055426509321478e+03 -2.686975467364769456e-07 -6.832745049774066690e-04 2.678164011726438254e-01 7.245998043852734938e-01 7.641712659459670709e-02 -6.814978894998935388e-02
4.215693978935366431e+03 -1.752037113086184087e-07 -5.567452317016373517e-04 2.640089498989605099e-01 7.291761845339439496e-01 7.531581078108880167e-02 -6.794402477858035860e-02
4.277217485631061209e+03 -1.127890552303956146e-07 -4.508180730177460032e-04 2.603543178638373923e-01 7.335819405474481858e-01 7.425050371021166273e-02 -6.773583125942408967e-02
4.339638861549491594e+03 -7.165547441834262528e-08 -3.626941177945022820e-04 2.567783189994173876e-01 7.378574738793850507e-01 7.325144944457225027e-02 -6.752447655010587746e-02
4.402971210123537276e+03 -4.489762609800068231e-08 -2.898222606494728890e-04 2.530284386570859634e-01 7.421088326503975097e-01 7.244746146492586636e-02 -6.729486561413361434e-02
4.467227826016563085e+03 -2.774128238286892813e-08 -2.300244796351843851e-04 2.493708320417089008e-01 7.462183929475165733e-01 7.170049016556138965e-02 -6.705966293386889099e-02
4.532422197913204400e+03 -1.689554107665336539e-08 -1.812935421663231623e-04 2.457861319593331040e-01 7.502050819485555078e-01 7.101379397621893075e-02 -6.682369744639971021e-02
4.598568011350889719e+03 -1.013826023607920270e-08 -1.418620866131149868e-04 2.422545436274949893e-01 7.540831433403667461e-01 7.039175796140471897e-02 -6.658757270439297216e-02
4.665679151592721610e+03 -5.990931979513414149e-09 -1.101873735655677420e-04 2.387570690571142462e-01 7.578660929155487391e-01 6.983881818470123737e-02 -6.635178679286631021e-02
4.733769706542223503e+03 -3.484564850763798007e-09 -8.493378437855019761e-05 2.352755023176453797e-01 7.615666777214986638e-01 6.935948756509513480e-02 -6.611673033529559540e-02
4.802853969700689049e+03 -1.993876437072079251e-09 -6.495458837240734276e-05 2.317924313398981306e-01 7.651968267506635835e-01 6.895838225818992639e-02 -6.588268376650308067e-02
4.872946443167648795e+03 -1.121763886891524142e-09 -4.927327833071868253e-05 2.282894838846796504e-01 7.687602849809311856e-01 6.864295632114039702e-02 -6.564345078665660693e-02
4.944061840685118113e+03 -6.201601695907160882e-10 -3.706588886102759933e-05 2.247508848748063504e-01 7.722665455873470863e-01 6.841852158588125621e-02 -6.539888553901333779e-02
5.016215090726327617e+03 -3.366233082018315459e-10 -2.764014458856572931e-05 2.209430807246961503e-01 7.757776088651635593e-01 6.844476757087053498e-02 -6.513781667951837329e-02
5.089421339629452632e+03 -1.793084589585398673e-10 -2.042814956928459190e-05 2.170139115148003728e-01 7.792515944744571321e-01 6.862477503264556578e-02 -6.486985269302535106e-02
5.163695954777154839e+03 -9.366859338433981056e-11 -1.496005912340116092e-05 2.130247745970327011e-01 7.826774405781485866e-01 6.891281726376424777e-02 -6.460007228615329000e-02
5.239054527822468117e+03 -4.794980370739944686e-11 -1.085239036436777730e-05 2.089642591148480333e-01 7.860604131193320576e-01 6.931415410770011554e-02 -6.432797390356605194e-02
5.315512877961773484e+03 -2.403297829686959341e-11 -7.795975783335137388e-06 2.048199930670087376e-01 7.893940704996943447e-01 6.983843731865514715e-02 -6.404470488554195318e-02
5.393087055255573432e+03 -1.178278217844506634e-11 -5.544118232519780136e-06 2.005838666876915977e-01 7.926857283129170595e-01 7.048952296129647188e-02 -6.375357383188991200e-02
5.471793343997694137e+03 -5.644790057790755616e-12 -3.901848109435115304e-06 1.962488568619461249e-01 7.959414033418579226e-01 7.127134446142849300e-02 -6.345770281147830594e-02
5.551648266133650395e+03 -2.639243900924416542e-12 -2.716668519192400160e-06 1.918082068087290093e-01 7.991603828362047190e-01 7.219011770738426037e-02 -6.315599068115920756e-02
5.632668584728953647e+03 -1.202612825745071302e-12 -1.870589279489009169e-06 1.872565299861259358e-01 8.023401644644608810e-01 7.325233676607929845e-02 -6.284716062618400656e-02
5.714871307487952436e+03 -5.331471588588613921e-13 -1.273318576660374195e-06 1.825898964571310845e-01 8.054763480932083386e-01 7.446477955336777699e-02 -6.252975078459772906e-02
5.798273690324114796e+03 -2.294649100901834882e-13 -8.565409904140319382e-07 1.777764647247993823e-01 8.085540829896226134e-01 7.586638146702799623e-02 -6.219607264022999904e-02
5.882893240982354655e+03 -9.561575886213671226e-14 -5.691766026064307247e-07 1.727467742476672674e-01 8.115312829914416159e-01 7.754776841564557655e-02 -6.182525647805627023e-02
5.968747722714218980e+03 -3.844025226885762073e-14 -3.734736391103020469e-07 1.676120736244221809e-01 8.144261328242343723e-01 7.940108486695314494e-02 -6.143891784193213773e-02
6.055855158006780584e+03 -1.483585308481175344e-14 -2.418811921756336866e-07 1.623749911093201881e-01 8.172263773934761444e-01 8.143370462204385651e-02 -6.103483124363318080e-02
6.144233832365843227e+03 -5.455958332339640667e-15 -1.545541359455851071e-07 1.570398504705399767e-01 8.199176231497470324e-01 8.365323739798050107e-02 -6.061055646412619180e-02
6.233902298154468554e+03 -1.889015540714526238e-15 -9.738540656162647804e-08 1.516126846587471655e-01 8.224833327875525901e-01 8.606751281129623732e-02 -6.016343287218729741e-02
6.324879378487444228e+03 -6.025145896860694152e-16 -6.048224675716765264e-08 1.461001066903750423e-01 8.248931938749289872e-01 8.868902688021919334e-02 -5.968226696327588038e-02
6.417184171182598220e+03 -1.689844804983866597e-16 -3.700520270562643910e-08 1.405127474908083873e-01 8.271372421627717353e-01 9.152171089390886971e-02 -5.917166354228604874e-02
6.510836052769830530e+03 -3.635272062398211528e-17 -2.229278274543205975e-08 1.348617287918859042e-01 8.291938535864257220e-01 9.457347137425467509e-02 -5.862903145978346636e-02
6.605854682558596323e+03 -1.931967416582544797e-18 -1.321643611709681980e-08 1.291205179551181415e-01 8.309973277260517266e-01 9.791929943821785221e-02 -5.803713190295130969e-02
6.702260006764748141e+03 3.962389205590399773e-18 -7.706244985536528610e-09 1.233307454492889726e-01 8.325383228102949396e-01 1.015299371911511511e-01 -5.739899774449039316e-02
6.800072262697671249e+03 3.228063212624299188e-18 -4.416265143777490618e-09 1.175263719545149160e-01 8.338037110446576694e-01 1.053839593625593291e-01 -5.671403794546662352e-02
6.899311983008429706e+03 1.808570228273310461e-18 -2.485694666144711182e-09 1.117233455084982174e-01 8.347628158668795040e-01 1.094902372427046938e-01 -5.597639613238789003e-02
7.000000000000001819e+03 8.648169025885931977e-19 -1.373074154360551229e-09 1.059389495615170179e-01 8.353930393189886727e-01 1.138545567671415404e-01 -5.518654427457304890e-02
