nan nan nan nan nan nan
nan nan nan nan nan nan
nan nan nan nan nan nan
nan nan nan nan nan nan
nan nan nan nan nan nan
nan nan nan nan nan nan
nan nan nan nan nan nan
nan nan nan nan nan nan
nan nan nan nan nan nan
-5.010109792315857735e-01 1.275690582888659108e+00 3.221623869797974327e-01 -9.824941698121190947e-02 2.250552208722273254e-03 -8.431258643816245610e-04
-5.010023141668610291e-01 1.275679592377532368e+00 3.221718208491104463e-01 -9.825636139389100354e-02 2.256468345545895472e-03 -8.492060114375036411e-04
-5.009936289459944181e-01 1.275668457231622366e+00 3.221812132520298633e-01 -9.826315337710753162e-02 2.262248786128621958e-03 -8.551369466790214625e-04
-5.009848883808633024e-01 1.275657118561806858e+00 3.221905965017906048e-01 -9.826980243488375732e-02 2.267901827131552171e-03 -8.609260749807696707e-04
-5.009760581806986801e-01 1.275645518110486876e+00 3.222000011760851601e-01 -9.827631615969165124e-02 2.273434059765705364e-03 -8.665790059462545819e-04
-5.009671044956250929e-01 1.275633597747388714e+00 3.222094566027873808e-01 -9.828270065471457484e-02 2.278850727446601020e-03 -8.720999272832964666e-04
-5.009579935690487984e-01 1.275621299092932315e+00 3.222189912246729016e-01 -9.828896085702180929e-02 2.284155998513297606e-03 -8.774918900482348667e-04
-5.009486914688899839e-01 1.275608563233485260e+00 3.222286328765919250e-01 -9.829510078860453914e-02 2.289353177139200925e-03 -8.827570297221904935e-04
-5.009391638771130140e-01 1.275595330504190716e+00 3.222384089984179356e-01 -9.830112375421705406e-02 2.294444868736503825e-03 -8.878967400152716063e-04
-5.009293759223113485e-01 1.275581540321293117e+00 3.222483468005374885e-01 -9.830703249955113909e-02 2.299433111429437324e-03 -8.929118113976803033e-04
-5.009192920451313036e-01 1.275567131051930092e+00 3.222584733936588730e-01 -9.831282933938760571e-02 2.304319481899216697e-03 -8.978025429685011684e-04
-5.009088758885676951e-01 1.275552039912029478e+00 3.222688158915915091e-01 -9.831851626276624789e-02 2.309105181629618128e-03 -9.025688339160824235e-04
-5.008980902078283837e-01 1.275536202886106141e+00 3.222794014932421902e-01 -9.832409502033263859e-02 2.313791107983723030e-03 -9.072102591683163476e-04
-5.008868967952483375e-01 1.275519554663651522e+00 3.222902575485705468e-01 -9.832956719772777132e-02 2.318377913407366174e-03 -9.117261326542618885e-04
-5.008752564175823485e-01 1.275502028589113213e+00 3.223014116118633199e-01 -9.833493427787956542e-02 2.322866055239384935e-03 -9.161155607536955459e-04
-5.008631287629267126e-01 1.275483556622131642e+00 3.223128914851186577e-01 -9.834019769444496406e-02 2.327255838016267786e-03 -9.203774878962525880e-04
-5.008504723958435711e-01 1.275464069306587289e+00 3.223247252534092722e-01 -9.834535887805422039e-02 2.331547449722277433e-03 -9.245107358194651695e-04
-5.008372447190303500e-01 1.275443495746386047e+00 3.223369413139037243e-01 -9.835041929671303751e-02 2.335740993112876435e-03 -9.285140376590393738e-04
-5.008234019406260229e-01 1.275421763587100799e+00 3.223495683997020245e-01 -9.835538049138063676e-02 2.339836512994995961e-03 -9.323860677917279608e-04
-5.008088990463798185e-01 1.275398799002494199e+00 3.223626355994134718e-01 -9.836024410753314851e-02 2.343834020163463715e-03 -9.361254681595280710e-04
-5.007936897759329709e-01 1.275374526685144838e+00 3.223761723732750939e-01 -9.836501192338313604e-02 2.347733512551373157e-03 -9.397308716567897733e-04
-5.007777266026964824e-01 1.275348869840577049e+00 3.223902085664009931e-01 -9.836968587527716856e-02 2.351534994042743260e-03 -9.432009230482763179e-04
-5.007609607170300237e-01 1.275321750184588598e+00 3.224047744196100185e-01 -9.837426808068294726e-02 2.355238491310493974e-03 -9.465342977975798504e-04
-5.007433420124027812e-01 1.275293087943426995e+00 3.224199005782475980e-01 -9.837876085913321855e-02 2.358844068976300497e-03 -9.497297191156810247e-04
-5.007248190741769855e-01 1.275262801856397843e+00 3.224356180993330212e-01 -9.838316675140422463e-02 2.362351843334851986e-03 -9.527859734839721909e-04
-5.007053391708694567e-01 1.275230809180813996e+00 3.224519584572312358e-01 -9.838748853715849341e-02 2.365761994844226609e-03 -9.557019248625609831e-04
-5.006848482479847595e-01 1.275197025699350561e+00 3.224689535480971259e-01 -9.839172925125230784e-02 2.369074779548986220e-03 -9.584765277590806759e-04
-5.006632909238014628e-01 1.275161365729142071e+00 3.224866356932647449e-01 -9.839589219887572014e-02 2.372290539575219997e-03 -9.611088393040150826e-04
-5.006406104875327223e-01 1.275123742133095650e+00 3.225050376417458731e-01 -9.839998096967214614e-02 2.375409712815956635e-03 -9.635980304568826475e-04
-5.006167488994769377e-01 1.275084066333046495e+00 3.225241925719006253e-01 -9.840399945092474787e-02 2.378432841905172082e-03 -9.659433964468558441e-04
-5.005916467933155811e-01 1.275042248324868677e+00 3.225441340923386746e-01 -9.840795183991876693e-02 2.381360582564104929e-03 -9.681443665364518987e-04
-5.005652434803771200e-01 1.274998196695438457e+00 3.225648962423335320e-01 -9.841184265560133648e-02 2.384193711393229644e-03 -9.702005131846826299e-04
-5.005374769557004999e-01 1.274951818641109957e+00 3.225865134916803822e-01 -9.841567674958111300e-02 2.386933133170118099e-03 -9.721115606741895883e-04
-5.005082839066575806e-01 1.274903019988871566e+00 3.226090207397861453e-01 -9.841945931645146306e-02 2.389579887705806614e-03 -9.738773932581694642e-04
-5.004775997227602913e-01 1.274851705218214226e+00 3.226324533148326457e-01 -9.842319590372305971e-02 2.392135156306996521e-03 -9.754980628759863086e-04
-5.004453585082634381e-01 1.274797777485988215e+00 3.226568469719537924e-01 -9.842689242108147718e-02 2.394600267881409530e-03 -9.769737964790319376e-04
-5.004114930961693908e-01 1.274741138652283334e+00 3.226822378914874778e-01 -9.843055514931997596e-02 2.396976704722781747e-03 -9.783050030039699627e-04
-5.003759350645732296e-01 1.274681689308740262e+00 3.227086626766380029e-01 -9.843419074878301256e-02 2.399266108005362191e-03 -9.794922800257063918e-04
-5.003386147549457874e-01 1.274619328808529461e+00 3.227361583509719134e-01 -9.843780626745379791e-02 2.401470283012706319e-03 -9.805364201169238392e-04
-5.002994612924337448e-01 1.274553955298397989e+00 3.227647623554926182e-01 -9.844140914864406289e-02 2.403591204125776239e-03 -9.814384169406428771e-04
-5.002584026082593782e-01 1.274485465752623448e+00 3.227945125455105591e-01 -9.844500723836777101e-02 2.405631019591036781e-03 -9.821994710973742243e-04
-5.002153654643458625e-01 1.274413756009152410e+00 3.228254471872423204e-01 -9.844860879238739870e-02 2.407592056084604474e-03 -9.828209957454358929e-04
-5.001702754796711892e-01 1.274338720807415282e+00 3.228576049541337367e-01 -9.845222248295529277e-02 2.409476823090967151e-03 -9.833046220128025417e-04
-5.001230571591493979e-01 1.274260253828528144e+00 3.228910249230355078e-01 -9.845585740530553298e-02 2.411288017110010170e-03 -9.836522042162407133e-04
-5.000736339245227535e-01 1.274178247737538072e+00 3.229257465699833518e-01 -9.845952308381249185e-02 2.413028525703634058e-03 -9.838658248998350710e-04
-5.000219281473275990e-01 1.274092594227704156e+00 3.229618097658857323e-01 -9.846322947794892977e-02 2.414701431395974499e-03 -9.839477997077715650e-04
-4.999678611840651099e-01 1.274003184066722749e+00 3.229992547720006990e-01 -9.846698698799297156e-02 2.416310015436029697e-03 -9.839006821008779591e-04
-4.999113534135625203e-01 1.273909907145407860e+00 3.230381222351422221e-01 -9.847080646049317931e-02 2.417857761431783329e-03 -9.837272679271804373e-04
-4.998523242767410890e-01 1.273812652528516942e+00 3.230784531827107786e-01 -9.847469919350276824e-02 2.419348358866170706e-03 -9.834305998572116271e-04
-4.997906923180284733e-01 1.273711308507295970e+00 3.231202890175642328e-01 -9.847867694164016972e-02 2.420785706499900634e-03 -9.830139716900919162e-04
-4.997263752296897676e-01 1.273605762654867801e+00 3.231636715125915660e-01 -9.848275192089378516e-02 2.422173915669104897e-03 -9.824809325392027445e-04
-4.996592898977115782e-01 1.273495901883151316e+00 3.232086428052683424e-01 -9.848693681329119543e-02 2.423517313486851527e-03 -9.818352909057134932e-04
-4.995893524504164129e-01 1.273381612502605398e+00 3.232552453918144941e-01 -9.849124477131381006e-02 2.424820445948364447e-03 -9.810811186428559233e-04
-4.995164783085653259e-01 1.273262780283197726e+00 3.233035221214511368e-01 -9.849568942221285928e-02 2.426088080951644549e-03 -9.802227548204121149e-04
-4.994405822386794314e-01 1.273139290518849664e+00 3.233535161901397448e-01 -9.850028487205342298e-02 2.427325211232778807e-03 -9.792648094919479546e-04
-4.993615784071930852e-01 1.273011028092561059e+00 3.234052711344622688e-01 -9.850504570968188212e-02 2.428537057225751625e-03 -9.782121673721977037e-04
-4.992793804378962141e-01 1.272877877544779324e+00 3.234588308251892808e-01 -9.850998701049072659e-02 2.429729069844967313e-03 -9.770699914262402641e-04
-4.991939014706037736e-01 1.272739723143100132e+00 3.235142394606838057e-01 -9.851512434001184759e-02 2.430906933199776607e-03 -9.758437263777263067e-04
-4.991050542228568920e-01 1.272596448955062298e+00 3.235715415600816103e-01 -9.852047375737357782e-02 2.432076567240699320e-03 -9.745391021381520635e-04
-4.990127510522555099e-01 1.272447938921214661e+00 3.236307819564542831e-01 -9.852605181860270289e-02 2.433244130342312669e-03 -9.731621371611249779e-04
-4.989169040219691431e-01 1.272294076931830276e+00 3.236920057898943770e-01 -9.853187557986439749e-02 2.434416021825700546e-03 -9.717191417253574813e-04
-4.988174249679369621e-01 1.272134746905004166e+00 3.237552585000691430e-01 -9.853796260041530752e-02 2.435598884421456833e-03 -9.702167211491282426e-04
-4.987142255669840818e-01 1.271969832865697647e+00 3.238205858191112729e-01 -9.854433094556609707e-02 2.436799606680689102e-03 -9.686617789410066409e-04
-4.986072174083644448e-01 1.271799219028344474e+00 3.238880337640238638e-01 -9.855099918944233706e-02 2.438025325328448557e-03 -9.670615198854175558e-04
-4.984963120652336488e-01 1.271622789879264914e+00 3.239576486291129154e-01 -9.855798641765282919e-02 2.439283427570951290e-03 -9.654234530712245020e-04
-4.983814211693129437e-01 1.271440430262340993e+00 3.240294769783138018e-01 -9.856531222984073193e-02 2.440581553351082664e-03 -9.637553948604898500e-04
-4.982624564861555250e-01 1.271252025465237079e+00 3.241035656372703855e-01 -9.857299674211757179e-02 2.441927597560677576e-03 -9.620654718055409371e-04
-4.981393299918983608e-01 1.271057461307080860e+00 3.241799616855291499e-01 -9.858106058941325245e-02 2.443329712204968772e-03 -9.603621235092685456e-04
-4.980119539526614569e-01 1.270856624229012466e+00 3.242587124481921546e-01 -9.858952492764067044e-02 2.444796308525021885e-03 -9.586541054376313637e-04
-4.978802410027409198e-01 1.270649401383098231e+00 3.243398654882003185e-01 -9.859841143595771129e-02 2.446336059082777209e-03 -9.569504916836405568e-04
-4.977441042267336524e-01 1.270435680725548133e+00 3.244234685977911425e-01 -9.860774231871796691e-02 2.447957899800879810e-03 -9.552606776831210848e-04
-4.976034572408189471e-01 1.270215351109011959e+00 3.245095697901517751e-01 -9.861754030742649058e-02 2.449671031968706381e-03 -9.535943828864857459e-04
-4.974582142758853798e-01 1.269988302376444667e+00 3.245982172913265962e-01 -9.862782866272055970e-02 2.451484924211979818e-03 -9.519616533887868435e-04
-4.973082902611591360e-01 1.269754425455935642e+00 3.246894595313969956e-01 -9.863863117606364028e-02 2.453409314424071126e-03 -9.503728645161511586e-04
-4.971536009080283480e-01 1.269513612454959528e+00 3.247833451363983936e-01 -9.864997217162101151e-02 2.455454211666898562e-03 -9.488387233740722560e-04
-4.969940627961830226e-01 1.269265756757988139e+00 3.248799229193067850e-01 -9.866187650778532325e-02 2.457629898037826631e-03 -9.473702713571914959e-04
-4.968295934578712547e-01 1.269010753121077029e+00 3.249792418718566722e-01 -9.867436957895378558e-02 2.459946930506333191e-03 -9.459788866235173226e-04
-4.966601114638392045e-01 1.268748497768886541e+00 3.250813511557713031e-01 -9.868747731700346082e-02 2.462416142718878206e-03 -9.446762865317515382e-04
-4.964855365095331985e-01 1.268478888491563650e+00 3.251863000940802273e-01 -9.870122619284867060e-02 2.465048646777895629e-03 -9.434745300475004927e-04
-4.963057895002395137e-01 1.268201824740654571e+00 3.252941381626411332e-01 -9.871564321792869467e-02 2.467855834989018168e-03 -9.423860201144537490e-04
-4.961207926371581922e-01 1.267917207725760997e+00 3.254049149815136377e-01 -9.873075594570859814e-02 2.470849381585212435e-03 -9.414235059977926453e-04
-4.959304695026544030e-01 1.267624940510654330e+00 3.255186803061790313e-01 -9.874659247300128506e-02 2.474041244422296813e-03 -9.406000855953196640e-04
-4.957347451447982611e-01 1.267324928108123361e+00 3.256354840192111078e-01 -9.876318144147296085e-02 2.477443666651402230e-03 -9.399292077231430950e-04
-4.955335461619312931e-01 1.267017077575192330e+00 3.257553761217875654e-01 -9.878055203904662074e-02 2.481069178367865859e-03 -9.394246743724054757e-04
-4.953268007857523636e-01 1.266701298106738705e+00 3.258784067248904348e-01 -9.879873400115563031e-02 2.484930598235686895e-03 -9.391006429420221090e-04
-4.951144389639389187e-01 1.266377501128344907e+00 3.260046260412832186e-01 -9.881775761230207622e-02 2.489041035090866841e-03 -9.389716284460450195e-04
-4.948963924415585303e-01 1.266045600388068904e+00 3.261340843769852671e-01 -9.883765370730016042e-02 2.493413889522816829e-03 -9.390525056977301176e-04
-4.946725948410016782e-01 1.265705512046711334e+00 3.262668321230625113e-01 -9.885845367274302686e-02 2.498062855438180473e-03 -9.393585114740544625e-04
-4.944429817405118777e-01 1.265357154766299175e+00 3.264029197477553157e-01 -9.888018944848034342e-02 2.503001921601237089e-03 -9.399052466559412169e-04
-4.942074907518104743e-01 1.265000449798020288e+00 3.265423977878146311e-01 -9.890289352883029073e-02 2.508245373159054097e-03 -9.407086783529602361e-04
-4.939660615944467814e-01 1.264635321066282181e+00 3.266853168413049180e-01 -9.892659896430119892e-02 2.513807793145971491e-03 -9.417851420063539378e-04
-4.937186361698909787e-01 1.264261695252769213e+00 3.268317275596655525e-01 -9.895133936301324373e-02 2.519704063975395075e-03 -9.431513434775620763e-04
-4.934651586327872264e-01 1.263879501877442468e+00 3.269816806396659281e-01 -9.897714889212821943e-02 2.525949368908133631e-03 -9.448243611182101289e-04
-4.932055754595729424e-01 1.263488673376906180e+00 3.271352268166080046e-01 -9.900406227962116334e-02 2.532559193514222640e-03 -9.468216478292738750e-04
-4.929398355157219580e-01 1.263089145181012896e+00 3.272924168564869674e-01 -9.903211481580127817e-02 2.539549327112949461e-03 -9.491610331029513847e-04
-4.926678901192247384e-01 1.262680855785779377e+00 3.274533015494616728e-01 -9.906134235516453335e-02 2.546935864202413795e-03 -9.518607250535340413e-04
-4.923896931037919367e-01 1.262263746826102651e+00 3.276179317022851478e-01 -9.909178131799255274e-02 2.554735205873100937e-03 -9.549393124373751519e-04
-4.921052008756070517e-01 1.261837763141417046e+00 3.277863581319194752e-01 -9.912346869229715640e-02 2.562964061211669021e-03 -9.584157666625695883e-04
-4.918143724708195497e-01 1.261402852842531619e+00 3.279586316592497108e-01 -9.915644203583415250e-02 2.571639448694658815e-03 -9.623094437910357721e-04
-4.915171696070988472e-01 1.260958967371622830e+00 3.281348031024564071e-01 -9.919073947803722091e-02 2.580778697563191823e-03 -9.666400865287333444e-04
-4.912135567349089071e-01 1.260506061562876257e+00 3.283149232712431753e-01 -9.922639972216221182e-02 2.590399449196434563e-03 -9.714278262156875220e-04
-4.909035010827966783e-01 1.260044093695922296e+00 3.284990429607179130e-01 -9.926346204749283975e-02 2.600519658469721378e-03 -9.766931848054168953e-04
-4.905869727005660597e-01 1.259573025547924052e+00 3.286872129460015057e-01 -9.930196631163878962e-02 2.611157595106801312e-03 -9.824570768437125481e-04
-4.902639444999888907e-01 1.259092822442323012e+00 3.288794839772377632e-01 -9.934195295312982232e-02 2.622331845020025622e-03 -9.887408114412560897e-04
-4.899343922899770387e-01 1.258603453292578722e+00 3.290759067736864218e-01 -9.938346299367410708e-02 2.634061311648196006e-03 -9.955660942497165673e-04
-4.895982948095867204e-01 1.258104890642852469e+00 3.292765320200064516e-01 -9.942653804114402749e-02 2.646365217284168438e-03 -1.002955029432063376e-03
-4.892556337575252323e-01 1.257597110706155208e+00 3.294814103607162092e-01 -9.947122029210979377e-02 2.659263104395818630e-03 -1.010930121637402352e-03
-4.889063938162780398e-01 1.257080093395488651e+00 3.296905923968339591e-01 -9.951755253498588416e-02 2.672774836941593443e-03 -1.019514277975383174e-03
-4.885505626732399853e-01 1.256553822352965311e+00 3.299041286816243312e-01 -9.956557815303507253e-02 2.686920601688235020e-03 -1.028730809998494545e-03
-4.881881310411685937e-01 1.256018284978373867e+00 3.301220697163946838e-01 -9.961534112743519742e-02 2.701720909510812486e-03 -1.038603435683343058e-03
-4.878190926684934925e-01 1.255473472446082983e+00 3.303444659481006851e-01 -9.966688604093980330e-02 2.717196596703711029e-03 -1.049156281423476410e-03
-4.874434443509894632e-01 1.254919379724171780e+00 3.305713677656622052e-01 -9.972025808114912127e-02 2.733368826279340864e-03 -1.060413884025743735e-03
-4.870611859380680753e-01 1.254356005588666667e+00 3.308028254972199544e-01 -9.977550304431395678e-02 2.750259089270281829e-03 -1.072401192718041565e-03
-4.866723203347024240e-01 1.253783352631174353e+00 3.310388894077908040e-01 -9.983266733911141944e-02 2.767889206023877152e-03 -1.085143571166108118e-03
-4.862768534992293890e-01 1.253201427264958756e+00 3.312796096970469506e-01 -9.989179799072338273e-02 2.786281327508898301e-03 -1.098666799503897860e-03
-4.858747944386642703e-01 1.252610239725968855e+00 3.315250364973865715e-01 -9.995294264493209679e-02 2.805457936608714547e-03 -1.112997076375444282e-03
-4.854661551989449264e-01 1.252009804070363774e+00 3.317752198728704527e-01 -1.000161495727195926e-01 2.825441849420985089e-03 -1.128161020989427782e-03
-4.850509508527096059e-01 1.251400138168935694e+00 3.320302098168227412e-01 -1.000814676743918691e-01 2.846256216566409904e-03 -1.144185675197578658e-03
-4.846291994806229408e-01 1.250781263694491496e+00 3.322900562519234824e-01 -1.001489464846901656e-01 2.867924524483385536e-03 -1.161098505580252307e-03
-4.842009221538915997e-01 1.250153206111272342e+00 3.325548090290511016e-01 -1.002186361775837947e-01 2.890470596745103003e-03 -1.178927405559836118e-03
-4.837990984123038407e-01 1.249538011325150189e+00 3.328182301836252743e-01 -1.002748674074171037e-01 2.902699452456664487e-03 -1.184975141470976647e-03
-4.834082037298038093e-01 1.248925103640921463e+00 3.330832706349901584e-01 -1.003248515202065372e-01 2.909741036099984957e-03 -1.185060062002110193e-03
-4.830128134199877521e-01 1.248304131496711822e+00 3.333529092174939978e-01 -1.003759374607404997e-01 2.916826598727338075e-03 -1.185116432167906660e-03
-4.826129713011887423e-01 1.247675118084933699e+00 3.336271855539271192e-01 -1.004281433265852980e-01 2.923956209560266833e-03 -1.185145220644645428e-03
-4.822087226317356978e-01 1.247038088365621133e+00 3.339061391343403629e-01 -1.004814873738162639e-01 2.931129923693668194e-03 -1.185147418105324344e-03
-4.818001140523443526e-01 1.246393069009936738e+00 3.341898093157086302e-01 -1.005359880179442778e-01 2.938347781938755940e-03 -1.185124037274565018e-03
-4.813871935324854912e-01 1.245740088348393115e+00 3.344782353214416637e-01 -1.005916638350461273e-01 2.945609810642566603e-03 -1.185076112966581587e-03
-4.809700103088909162e-01 1.245079176310530666e+00 3.347714562420365247e-01 -1.006485335630922795e-01 2.952916021526932888e-03 -1.185004702129485114e-03
-4.805486148291219228e-01 1.244410364369746613e+00 3.350695110346897376e-01 -1.007066161029688128e-01 2.960266411514222464e-03 -1.184910883882792434e-03
-4.801230586910050224e-01 1.243733685484315732e+00 3.353724385233218253e-01 -1.007659305196331873e-01 2.967660962551104363e-03 -1.184795759549526995e-03
-4.796933945813889877e-01 1.243049174036487958e+00 3.356802773998582290e-01 -1.008264960437055546e-01 2.975099641441296926e-03 -1.184660452689668443e-03
-4.792596762174678449e-01 1.242356865776332864e+00 3.359930662226477405e-01 -1.008883320720493360e-01 2.982582399655091688e-03 -1.184506109123765463e-03
-4.788219582812054953e-01 1.241656797755553709e+00 3.363108434191390272e-01 -1.009514581697371211e-01 2.990109173172819743e-03 -1.184333896963650360e-03
-4.783802963636815120e-01 1.240949008275020748e+00 3.366336472833201254e-01 -1.010158940703533431e-01 2.997679882287101073e-03 -1.184145006631654590e-03
-4.779347468966849699e-01 1.240233536815164239e+00 3.369615159791762293e-01 -1.010816596781902721e-01 3.005294431430353616e-03 -1.183940650875720804e-03
-4.774853670958347784e-01 1.239510423982049359e+00 3.372944875380536334e-01 -1.011487750685028109e-01 3.012952708998653788e-03 -1.183722064794817631e-03
-4.770322148960778330e-01 1.238779711442406839e+00 3.376325998619783553e-01 -1.012172604896424688e-01 3.020654587159043395e-03 -1.183490505843437382e-03
-4.765753488904338475e-01 1.238041441864442316e+00 3.379758907215910102e-01 -1.012871363634390287e-01 3.028399921676146189e-03 -1.183247253849375883e-03
-4.761148282686021305e-01 1.237295658856844671e+00 3.383243977579225570e-01 -1.013584232868706414e-01 3.036188551719576703e-03 -1.182993611017428082e-03
-4.756507127563140425e-01 1.236542406909377334e+00 3.386781584823015390e-01 -1.014311420330651636e-01 3.044020299676805218e-03 -1.182730901935727602e-03
-4.751830625536314079e-01 1.235781731331709876e+00 3.390372102770017881e-01 -1.015053135525595257e-01 3.051894970974614388e-03 -1.182460473580485352e-03
-4.747119382761473827e-01 1.235013678196488884e+00 3.394015903954750724e-01 -1.015809589743623814e-01 3.059812353879174524e-03 -1.182183695314166765e-03
-4.742374008953147979e-01 1.234238294279770498e+00 3.397713359619317641e-01 -1.016580996069136461e-01 3.067772219316260759e-03 -1.181901958889070535e-03
-4.737595116779226290e-01 1.233455627001809107e+00 3.401464839735851564e-01 -1.017367569397675531e-01 3.075774320679870548e-03 -1.181616678438275310e-03
-4.732783321316560432e-01 1.232665724373777305e+00 3.405270712987831794e-01 -1.018169526440289852e-01 3.083818393632412145e-03 -1.181329290470495156e-03
-4.727939239476405819e-01 1.231868634941411189e+00 3.409131346777212190e-01 -1.018987085735679060e-01 3.091904155912000678e-03 -1.181041253861299682e-03
-4.723063489414187632e-01 1.231064407726759402e+00 3.413047107237996425e-01 -1.019820467664418612e-01 3.100031307154224418e-03 -1.180754049845999295e-03
-4.718156690018986965e-01 1.230253092177870489e+00 3.417018359231235314e-01 -1.020669894457367777e-01 3.108199528680232696e-03 -1.180469182003726289e-03
-4.713219460381913306e-01 1.229434738118151405e+00 3.421045466330187024e-01 -1.021535590200863958e-01 3.116408483303323342e-03 -1.180188176242214382e-03
-4.708252419245958498e-01 1.228609395690921202e+00 3.425128790846940774e-01 -1.022417780854292246e-01 3.124657815144071902e-03 -1.179912580786343689e-03
-4.703256184523829098e-01 1.227777115313059442e+00 3.429268693815364921e-01 -1.023316694254937237e-01 3.132947149419686769e-03 -1.179643966153978187e-03
-4.698231372792351923e-01 1.226937947626256076e+00 3.433465534984778689e-01 -1.024232560125277053e-01 3.141276092250435727e-03 -1.179383925140957542e-03
-4.693178598815033187e-01 1.226091943449155286e+00 3.437719672834254614e-01 -1.025165610086724993e-01 3.149644230462581365e-03 -1.179134072796783660e-03
-4.688098475071397209e-01 1.225239153732737840e+00 3.442031464559863752e-01 -1.026116077665589349e-01 3.158051131381445047e-03 -1.178896046398402505e-03
-4.682991611325444392e-01 1.224379629518243195e+00 3.446401266072673941e-01 -1.027084198301936313e-01 3.166496342637359004e-03 -1.178671505431940500e-03
-4.677858614173410756e-01 1.223513421893356545e+00 3.450829431990540264e-01 -1.028070209354587095e-01 3.174979391963213271e-03 -1.178462131562964862e-03
-4.672700086622912918e-01 1.222640581950559469e+00 3.455316315649755721e-01 -1.029074350116262609e-01 3.183499786985984417e-03 -1.178269628604625835e-03
-4.667516627718346633e-01 1.221761160753197073e+00 3.459862269072984664e-01 -1.030096861811808234e-01 3.192057015029605913e-03 -1.178095722495649559e-03
-4.662308832128152503e-01 1.220875209294038699e+00 3.464467642980860740e-01 -1.031137987609735268e-01 3.200650542908231155e-03 -1.177942161265286680e-03
-4.657077289792962427e-01 1.219982778462269879e+00 3.469132786782801459e-01 -1.032197972630424510e-01 3.209279816718360254e-03 -1.177810714998089436e-03
-4.651822585559645118e-01 1.219083919008251859e+00 3.473858048569407053e-01 -1.033277063951096447e-01 3.217944261643007533e-03 -1.177703175808870279e-03
-4.646545298871184171e-01 1.218178681514978434e+00 3.478643775092540857e-01 -1.034375510610080484e-01 3.226643281735123037e-03 -1.177621357801713828e-03
-4.641246003421173327e-01 1.217267116363980550e+00 3.483490311769341652e-01 -1.035493563614307694e-01 3.235376259715728835e-03 -1.177567097036831502e-03
-4.635925266890077445e-01 1.216349273711939016e+00 3.488398002662146946e-01 -1.036631475944888026e-01 3.244142556766288227e-03 -1.177542251493163272e-03
-4.630583650626277081e-01 1.215425203460278603e+00 3.493367190472866368e-01 -1.037789502561982657e-01 3.252941512323729092e-03 -1.177548701034026452e-03
-4.625221709387042912e-01 1.214494955230049911e+00 3.498398216533222804e-01 -1.038967900411212758e-01 3.261772443870541039e-03 -1.177588347364652696e-03
-4.619839991126026835e-01 1.213558578344026584e+00 3.503491420784311527e-01 -1.040166928426279613e-01 3.270634646720053072e-03 -1.177663113993641366e-03
-4.614439036735297761e-01 1.212616121803021141e+00 3.508647141761548349e-01 -1.041386847532100729e-01 3.279527393809373095e-03 -1.177774946192117417e-03
-4.609019379806661987e-01 1.211667634261929916e+00 3.513865716598356670e-01 -1.042627920655599949e-01 3.288449935499618455e-03 -1.177925810956645175e-03
-4.603581546506597677e-01 1.210713164022297006e+00 3.519147480977353193e-01 -1.043890412717658200e-01 3.297401499345397214e-03 -1.178117696959880660e-03
-4.598126055314920579e-01 1.209752759005546130e+00 3.524492769155163630e-01 -1.045174590650339297e-01 3.306381289907426354e-03 -1.178352614518056148e-03
-4.592653416912259590e-01 1.208786466745249921e+00 3.529901913922379175e-01 -1.046480723392807510e-01 3.315388488525879314e-03 -1.178632595541260824e-03
-4.587164134003695604e-01 1.207814334371446030e+00 3.535375246587236231e-01 -1.047809081894289090e-01 3.324422253105033948e-03 -1.178959693487108273e-03
-4.581658701211941409e-01 1.206836408601827948e+00 3.540913096967783780e-01 -1.049159939119751889e-01 3.333481717920986232e-03 -1.179335983327299466e-03
-4.576137604942010495e-01 1.205852735731234748e+00 3.546515793361407209e-01 -1.050533570050553589e-01 3.342565993379861475e-03 -1.179763561488410143e-03
-4.570601323287465378e-01 1.204863361623774276e+00 3.552183662537844455e-01 -1.051930251687811790e-01 3.351674165833271393e-03 -1.180244545821670194e-03
-4.565050325940643305e-01 1.203868331706724470e+00 3.557917029710723211e-01 -1.053350263054668029e-01 3.360805297342857496e-03 -1.180781075543928639e-03
-4.559485074104471791e-01 1.202867690963423497e+00 3.563716218526857826e-01 -1.054793885199521580e-01 3.369958425482678759e-03 -1.181375311203833886e-03
-4.553906020458203252e-01 1.201861483932098684e+00 3.569581551054101243e-01 -1.056261401200315336e-01 3.379132563109236726e-03 -1.182029434622771822e-03
-4.548313609104677191e-01 1.200849754704035321e+00 3.575513347732045544e-01 -1.057753096160443385e-01 3.388326698164136411e-03 -1.182745648862110329e-03
-4.542708275531044393e-01 1.199832546921589582e+00 3.581511927377541982e-01 -1.059269257214226073e-01 3.397539793436476444e-03 -1.183526178161689243e-03
-4.537090446599821858e-01 1.198809903779093577e+00 3.587577607153181747e-01 -1.060810173529423556e-01 3.406770786370206736e-03 -1.184373267908180949e-03
-4.531460540515419577e-01 1.197781868022030904e+00 3.593710702563295833e-01 -1.062376136310831526e-01 3.416018588831270034e-03 -1.185289184571102720e-03
-4.525818966881678396e-01 1.196748481956921850e+00 3.599911527393463428e-01 -1.063967438793195774e-01 3.425282086900782990e-03 -1.186276215675397677e-03
-4.520166126649046712e-01 1.195709787445424332e+00 3.606180393742957069e-01 -1.065584376257406596e-01 3.434560140657809315e-03 -1.187336669736621404e-03
-4.514502412218525107e-01 1.194665825920722124e+00 3.612517611949949692e-01 -1.067227246015486769e-01 3.443851583952798820e-03 -1.188472876222592409e-03
-4.508828207414349865e-01 1.193616638384230821e+00 3.618923490611267724e-01 -1.068896347426341459e-01 3.453155224197217068e-03 -1.189687185501284074e-03
-4.503143887547954027e-01 1.192562265415892275e+00 3.625398336548633638e-01 -1.070591981892286826e-01 3.462469842150454977e-03 -1.190981968799176760e-03
-4.497449819527072901e-01 1.191502747188338818e+00 3.631942454760864192e-01 -1.072314452854007116e-01 3.471794191683727319e-03 -1.192359618147343465e-03
-4.491746361846025160e-01 1.190438123466639242e+00 3.638556148449357264e-01 -1.074064065804188756e-01 3.481126999583974806e-03 -1.193822546341261276e-03
-4.486033864706212571e-01 1.189368433624134136e+00 3.645239718962436926e-01 -1.075841128281927045e-01 3.490466965317370537e-03 -1.195373186886156082e-03
-4.480312670103915318e-01 1.188293716652748744e+00 3.651993465783370807e-01 -1.077645949875841447e-01 3.499812760817131232e-03 -1.197013993959458603e-03
-4.474583111897870169e-01 1.187214011172919914e+00 3.658817686516935286e-01 -1.079478842227565849e-01 3.509163030263376046e-03 -1.198747442355115001e-03
-4.468845515935794266e-01 1.186129355448821476e+00 3.665712676851922147e-01 -1.081340119029118724e-01 3.518516389852760495e-03 -1.200576027442448561e-03
-4.463100200129345163e-01 1.185039787397505373e+00 3.672678730563536664e-01 -1.083230096032896106e-01 3.527871427599028799e-03 -1.202502265120552289e-03
-4.457347474594081094e-01 1.183945344605233485e+00 3.679716139479691783e-01 -1.085149091050175291e-01 3.537226703082330722e-03 -1.204528691764533092e-03
-4.451587641778632087e-01 1.182846064344828196e+00 3.686825193445988913e-01 -1.087097423946330049e-01 3.546580747249570079e-03 -1.206657864195404776e-03
-4.445820996547888426e-01 1.181741983583826983e+00 3.694006180340690948e-01 -1.089075416656924700e-01 3.555932062181598775e-03 -1.208892359617553007e-03
-4.440047826347585658e-01 1.180633139004040322e+00 3.701259386037405452e-01 -1.091083393182827599e-01 3.565279120875346382e-03 -1.211234775587624992e-03
-4.434268411330004600e-01 1.179519567017237147e+00 3.708585094379355240e-01 -1.093121679592749945e-01 3.574620367019580233e-03 -1.213687729967176084e-03
-4.428483024492652631e-01 1.178401303779959886e+00 3.715983587185073822e-01 -1.095190604031542614e-01 3.583954214767666631e-03 -1.216253860875755053e-03
-4.422691931836865153e-01 1.177278385214037382e+00 3.723455144191263888e-01 -1.097290496714588837e-01 3.593279048504500334e-03 -1.218935826646177275e-03
-4.416895392486629990e-01 1.176150847017187973e+00 3.731000043091828311e-01 -1.099421689944663494e-01 3.602593222637339408e-03 -1.221736305786466636e-03
-4.411093658886969804e-01 1.175018724688425387e+00 3.738618559461151514e-01 -1.101584518101755283e-01 3.611895061363651523e-03 -1.224657996943810580e-03
-4.405286976886562678e-01 1.173882053535692638e+00 3.746310966794797470e-01 -1.103779317661164050e-01 3.621182858441419211e-03 -1.227703618848905841e-03
-4.399475585980118786e-01 1.172740868705031581e+00 3.754077536450029506e-01 -1.106006427186222857e-01 3.630454876964166189e-03 -1.230875910287101537e-03
-4.393659719415517473e-01 1.171595205190288036e+00 3.761918537664339368e-01 -1.108266187342657610e-01 3.639709349127199026e-03 -1.234177630052098965e-03
-4.387839604359786705e-01 1.170445097854398764e+00 3.769834237520695575e-01 -1.110558940896552715e-01 3.648944476007447320e-03 -1.237611556909779583e-03
-4.382015462082566315e-01 1.169290581448189092e+00 3.777824900947813758e-01 -1.112885032725052376e-01 3.658158427328761682e-03 -1.241180489560134333e-03
-4.376187508090144673e-01 1.168131690625668684e+00 3.785890790708328901e-01 -1.115244809821988592e-01 3.667349341236563181e-03 -1.244887246598681656e-03
-4.370355952367462327e-01 1.166968459971543304e+00 3.794032167375094855e-01 -1.117638621299127250e-01 3.676515324052131474e-03 -1.248734666479510078e-03
-4.364520999410697044e-01 1.165800924004097405e+00 3.802249289347730543e-01 -1.120066818403362419e-01 3.685654450069508151e-03 -1.252725607480237443e-03
-4.358682848560831991e-01 1.164629117212824250e+00 3.810542412804728829e-01 -1.122529754508990729e-01 3.694764761278335630e-03 -1.256862947664326435e-03
-4.352841694032681397e-01 1.163453074060585513e+00 3.818911791745974171e-01 -1.125027785141592546e-01 3.703844267180936203e-03 -1.261149584856410951e-03
-4.346997725155928305e-01 1.162272829010380537e+00 3.827357677949724812e-01 -1.127561267976621845e-01 3.712890944520591888e-03 -1.265588436594451997e-03
-4.341151126536982874e-01 1.161088416544659996e+00 3.835880320967115509e-01 -1.130130562846111963e-01 3.721902737055293557e-03 -1.270182440110917020e-03
-4.335302078216697330e-01 1.159899871179953523e+00 3.844479968142643922e-01 -1.132736031755971484e-01 3.730877555334211840e-03 -1.274934552296406011e-03
-4.329450755846653842e-01 1.158707227488175562e+00 3.853156864584991181e-01 -1.135378038886715457e-01 3.739813276435104659e-03 -1.279847749667983045e-03
-4.323597330856839838e-01 1.157510520113545160e+00 3.861911253175676073e-01 -1.138056950608359041e-01 3.748707743752739512e-03 -1.284925028347561841e-03
-4.317741970589903944e-01 1.156309783786837242e+00 3.870743374590494557e-01 -1.140773135496050417e-01 3.757558766741445327e-03 -1.290169404024427710e-03
-4.311884838543738607e-01 1.155105053353258748e+00 3.879653467250323562e-01 -1.143526964327279405e-01 3.766364120677808368e-03 -1.295583911939326678e-03
-4.306026094443233254e-01 1.153896363778388778e+00 3.888641767369975799e-01 -1.146318810106702196e-01 3.775121546419909959e-03 -1.301171606850412641e-03
-4.300165894489434426e-01 1.152683750175640620e+00 3.897708508928793836e-01 -1.149149048068152240e-01 3.783828750166976212e-03 -1.306935563020427977e-03
-4.294304391472619775e-01 1.151467247819558226e+00 3.906853923679328155e-01 -1.152018055691675646e-01 3.792483403198096143e-03 -1.312878874178835835e-03
-4.288441734924891557e-01 1.150246892157502199e+00 3.916078241194522747e-01 -1.154926212725411738e-01 3.801083141657819828e-03 -1.319004653516299592e-03
-4.282578071318471902e-01 1.149022718837040324e+00 3.925381688801143909e-01 -1.157873901180097725e-01 3.809625566278952193e-03 -1.325316033656843582e-03
-4.276713544190560712e-01 1.147794763714135691e+00 3.934764491655740604e-01 -1.160861505360809981e-01 3.818108242156835128e-03 -1.331816166647536472e-03
-4.270848294326176631e-01 1.146563062875341821e+00 3.944226872697807473e-01 -1.163889411870362572e-01 3.826528698458686768e-03 -1.338508223920097497e-03
-4.264982459880888310e-01 1.145327652648878924e+00 3.953769052705501386e-01 -1.166958009632358823e-01 3.834884428236774376e-03 -1.345395396308173659e-03
-4.259116176548645716e-01 1.144088569622939922e+00 3.963391250282695122e-01 -1.170067689903950270e-01 3.843172888113866037e-03 -1.352480894008170533e-03
-4.253249577698060557e-01 1.142845850658887441e+00 3.973093681888733020e-01 -1.173218846294744738e-01 3.851391498071821216e-03 -1.359767946580682551e-03
-4.247382794563148711e-01 1.141599532913672777e+00 3.982876561822824013e-01 -1.176411874779503958e-01 3.859537641158480165e-03 -1.367259802932746992e-03
-4.241515956309994673e-01 1.140349653843369504e+00 3.992740102279752068e-01 -1.179647173722474379e-01 3.867608663274315055e-03 -1.374959731322717045e-03
-4.235649190253920060e-01 1.139096251227415646e+00 4.002684513333285565e-01 -1.182925143888999553e-01 3.875601872852632405e-03 -1.382871019325361767e-03
-4.229782621948529053e-01 1.137839363177151064e+00 4.012710002982803337e-01 -1.186246188474147506e-01 3.883514540653708238e-03 -1.390996973853886884e-03
-4.223916375346330465e-01 1.136579028152782112e+00 4.022816777147145140e-01 -1.189610713111382972e-01 3.891343899478794197e-03 -1.399340921154489928e-03
-4.218050572934735065e-01 1.135315284976366801e+00 4.033005039700817140e-01 -1.193019125901229743e-01 3.899087143904323653e-03 -1.407906206794260753e-03
-4.212185335832042687e-01 1.134048172840453450e+00 4.043274992522626343e-01 -1.196471837437816238e-01 3.906741430011470909e-03 -1.416696195658880865e-03
-4.206320783968958144e-01 1.132777731329343007e+00 4.053626835455613198e-01 -1.199969260811853955e-01 3.914303875126813950e-03 -1.425714271974412627e-03
-4.200457036173618763e-01 1.131504000423927181e+00 4.064060766410142467e-01 -1.203511811659220970e-01 3.921771557538349801e-03 -1.434963839289457848e-03
-4.194594210315057969e-01 1.130227020519447789e+00 4.074576981317887259e-01 -1.207099908156176321e-01 3.929141516236299078e-03 -1.444448320497590359e-03
-4.188732423411907213e-01 1.128946832432492053e+00 4.085175674232348619e-01 -1.210733971073065379e-01 3.936410750629061074e-03 -1.454171157842431162e-03
-4.182871791760090496e-01 1.127663477416281701e+00 4.095857037296648517e-01 -1.214414423773380325e-01 3.943576220263691687e-03 -1.464135812925617536e-03
-4.177012431035500573e-01 1.126376997168697436e+00 4.106621260832254428e-01 -1.218141692261489051e-01 3.950634844550686940e-03 -1.474345766716464792e-03
-4.171154456418396106e-01 1.125087433845701534e+00 4.117468533321484991e-01 -1.221916205189190474e-01 3.957583502485184299e-03 -1.484804519583912295e-03
-4.165297982694007306e-01 1.123794830070296014e+00 4.128399041477948117e-01 -1.225738393897438522e-01 3.964419032347571946e-03 -1.495515591295377023e-03
-4.159443124361772992e-01 1.122499228941457927e+00 4.139412970288692817e-01 -1.229608692445063878e-01 3.971138231424129784e-03 -1.506482521042438755e-03
-4.153589995749296659e-01 1.121200674048315804e+00 4.150510503002601270e-01 -1.233527537619414222e-01 3.977737855719001153e-03 -1.517708867468120330e-03
-4.147738711064933304e-01 1.119899209469871648e+00 4.161691821253268864e-01 -1.237495368995375350e-01 3.984214619675277916e-03 -1.529198208692473084e-03
-4.141889384591220247e-01 1.118594879798297859e+00 4.172957105010016154e-01 -1.241512628936185386e-01 3.990565195844812327e-03 -1.540954142337631243e-03
-4.136042130669003170e-01 1.117287730132931145e+00 4.184306532695842296e-01 -1.245579762646219779e-01 3.996786214610733266e-03 -1.552980285545210552e-03
-4.130197063863230156e-01 1.115977806097294245e+00 4.195740281195161070e-01 -1.249697218193911996e-01 4.002874263897335423e-03 -1.565280275035369102e-03
-4.124354299037242266e-01 1.114665153845538770e+00 4.207258525911780067e-01 -1.253865446547394180e-01 4.008825888848888304e-03 -1.577857767118834601e-03
-4.118513951428130482e-01 1.113349820068966878e+00 4.218861440801937590e-01 -1.258084901602593286e-01 4.014637591522746303e-03 -1.590716437748145072e-03
-4.112676136731883147e-01 1.112031852002145715e+00 4.230549198462974503e-01 -1.262356040231374654e-01 4.020305830585051317e-03 -1.603859982545535181e-03
-4.106840971195132584e-01 1.110711297431879130e+00 4.242321970137686860e-01 -1.266679322302376454e-01 4.025827021005664273e-03 -1.617292116868353528e-03
-4.101008571687173032e-01 1.109388204703220637e+00 4.254179925801662154e-01 -1.271055210725531015e-01 4.031197533727470458e-03 -1.631016575834632470e-03
-4.095179055779142319e-01 1.108062622725180857e+00 4.266123234206639636e-01 -1.275484171488220908e-01 4.036413695343866667e-03 -1.645037114375645692e-03
-4.089352541818973563e-01 1.106734600977185901e+00 4.278152062935080546e-01 -1.279966673693165025e-01 4.041471787789408833e-03 -1.659357507297539022e-03
-4.083529148996493108e-01 1.105404189514330726e+00 4.290266578464806413e-01 -1.284503189596768458e-01 4.046368048019772026e-03 -1.673981549342139653e-03
-4.077708997407796243e-01 1.104071438970340990e+00 4.302466946232875733e-01 -1.289094194652996572e-01 4.051098667646542591e-03 -1.688913055215792228e-03
-4.071892208139618052e-01 1.102736400566919794e+00 4.314753330692467914e-01 -1.293740167551669373e-01 4.055659792642611790e-03 -1.704155859686655146e-03
-4.066078903324308880e-01 1.101399126116768379e+00 4.327125895358194807e-01 -1.298441590254641176e-01 4.060047522980106058e-03 -1.719713817627850291e-03
-4.060235865792012899e-01 1.100011842926453598e+00 4.339640913237737263e-01 -1.302872080386311970e-01 4.066993528222302354e-03 -1.732133160663681861e-03
-4.054298097894848962e-01 1.098491498679570411e+00 4.352392495208653456e-01 -1.306467050680803765e-01 4.081233299589002127e-03 -1.735466642476491458e-03
-4.048348973164417330e-01 1.096963677648972624e+00 4.365231299576962654e-01 -1.310086578292657955e-01 4.095574903117765730e-03 -1.738827364044631544e-03
-4.042388366897445851e-01 1.095428369359853216e+00 4.378157300558013221e-01 -1.313730657305906546e-01 4.110018803792254115e-03 -1.742215799052729665e-03
-4.036416156602651295e-01 1.093885564066409133e+00 4.391170465297715153e-01 -1.317399279764827902e-01 4.124565463972522904e-03 -1.745632423463113316e-03
-4.030432222061043901e-01 1.092335252760034070e+00 4.404270753845279107e-01 -1.321092435665223996e-01 4.139215343370828207e-03 -1.749077715502454734e-03
-4.024436445391425532e-01 1.090777427175743108e+00 4.417458119158621521e-01 -1.324810112957555130e-01 4.153968899059578591e-03 -1.752552155670126198e-03
-4.018428711118114394e-01 1.089212079802508448e+00 4.430732507028066758e-01 -1.328552297522803682e-01 4.168826585407224040e-03 -1.756056226719264653e-03
-4.012408906202188374e-01 1.087639203886885397e+00 4.444093856110464813e-01 -1.332318973181720323e-01 4.183788854109003925e-03 -1.759590413661234936e-03
-4.006376920136428543e-01 1.086058793444391490e+00 4.457542097867469577e-01 -1.336110121679161267e-01 4.198856154132031733e-03 -1.763155203755107378e-03
-4.000332644955733596e-01 1.084470843260565198e+00 4.471077156582362044e-01 -1.339925722685480214e-01 4.214028931728736570e-03 -1.766751086508312014e-03
-3.994275975322287286e-01 1.082875348902421431e+00 4.484698949318396410e-01 -1.343765753788267459e-01 4.229307630397889130e-03 -1.770378553667893836e-03
-3.988206808555908034e-01 1.081272306722001364e+00 4.498407385901728173e-01 -1.347630190481758083e-01 4.244692690871121159e-03 -1.774038099209269840e-03
-3.982125044653289092e-01 1.079661713857306804e+00 4.512202368939374764e-01 -1.351519006176851168e-01 4.260184551124696420e-03 -1.777730219347826513e-03
-3.976030586385051468e-01 1.078043568246010553e+00 4.526083793770265817e-01 -1.355432172183642647e-01 4.275783646341793469e-03 -1.781455412522770431e-03
-3.969923339285832409e-01 1.076417868623308571e+00 4.540051548473419962e-01 -1.359369657715338020e-01 4.291490408898855115e-03 -1.785214179392137675e-03
-3.963803211731634635e-01 1.074784614530871929e+00 4.554105513850342235e-01 -1.363331429882153056e-01 4.307305268372417159e-03 -1.789007022835181022e-03
-3.957670114947187123e-01 1.073143806317905735e+00 4.568245563422457245e-01 -1.367317453691212770e-01 4.323228651504396579e-03 -1.792834447938521222e-03
-3.951523963051973842e-01 1.071495445147551573e+00 4.582471563414040050e-01 -1.371327692038777080e-01 4.339260982212143382e-03 -1.796696962003409411e-03
-3.945364673086345086e-01 1.069839532997358011e+00 4.596783372757622943e-01 -1.375362105716129435e-01 4.355402681564721733e-03 -1.800595074529113019e-03
-3.939192165053134187e-01 1.068176072666206622e+00 4.611180843090368908e-01 -1.379420653404961616e-01 4.371654167787451459e-03 -1.804529297220919997e-03
-3.933006361920952654e-01 1.066505067773941384e+00 4.625663818729565113e-01 -1.383503291670849511e-01 4.388015856238585560e-03 -1.808500143978375658e-03
-3.926807189688831801e-01 1.064826522767575057e+00 4.640232136699989907e-01 -1.387609974972706939e-01 4.404488159418381947e-03 -1.812508130898318227e-03
-3.920594577365422717e-01 1.063140442919255024e+00 4.654885626723194170e-01 -1.391740655656929226e-01 4.421071486949088199e-03 -1.816553776262323783e-03
-3.914368457029018811e-01 1.061446834333429123e+00 4.669624111197701599e-01 -1.395895283954144694e-01 4.437766245572885050e-03 -1.820637600537784815e-03
-3.908128763816894335e-01 1.059745703943651751e+00 4.684447405244494544e-01 -1.400073807991548680e-01 4.454572839155201448e-03 -1.824760126377107704e-03
-3.901875435975514783e-01 1.058037059519354672e+00 4.699355316660111526e-01 -1.404276173778282732e-01 4.471491668672939249e-03 -1.828921878615114537e-03
-3.895608414844977663e-01 1.056320909662366025e+00 4.714347645960538236e-01 -1.408502325219237183e-01 4.488523132198176356e-03 -1.833123384251937214e-03
-3.889327644900953396e-01 1.054597263810916896e+00 4.729424186382484296e-01 -1.412752204115444998e-01 4.505667624938276133e-03 -1.837365172474693257e-03
-3.883033073766206655e-01 1.052866132242049613e+00 4.744584723856376529e-01 -1.417025750155683217e-01 4.522925539174976056e-03 -1.841647774630709262e-03
-3.876724652194125098e-01 1.051127526065098516e+00 4.759829037081368952e-01 -1.421322900939420986e-01 4.540297264321325674e-03 -1.845971724240808021e-03
-3.870402334114398935e-01 1.049381457231349790e+00 4.775156897453746718e-01 -1.425643591952838463e-01 4.557783186879806048e-03 -1.850337556989367898e-03
-3.864066076618650203e-01 1.047627938526113356e+00 4.790568069163900211e-01 -1.429987756603408322e-01 4.575383690468905716e-03 -1.854745810727859937e-03
-3.857715839995308760e-01 1.045866983575022946e+00 4.806062309136881483e-01 -1.434355326194971247e-01 4.593099155800814751e-03 -1.859197025456979990e-03
-3.851351587688626732e-01 1.044098606837464027e+00 4.821639367091948292e-01 -1.438746229951114730e-01 4.610929960714348942e-03 -1.863691743352608636e-03
-3.844973286360343079e-01 1.042322823611059546e+00 4.837298985551868880e-01 -1.443160395015776198e-01 4.628876480151393989e-03 -1.868230508733651797e-03
-3.838580905849739988e-01 1.040539650027919372e+00 4.853040899842228639e-01 -1.447597746452166101e-01 4.646939086183535239e-03 -1.872813868086077062e-03
-3.832174419203456806e-01 1.038749103055224499e+00 4.868864838129302042e-01 -1.452058207256132216e-01 4.665118147987958042e-03 -1.877442370039574069e-03
-3.825753802659596081e-01 1.036951200492250091e+00 4.884770521428589696e-01 -1.456541698356914050e-01 4.683414031878664098e-03 -1.882116565376636434e-03
-3.819319035648564009e-01 1.035145960969354295e+00 4.900757663642323902e-01 -1.461048138629275905e-01 4.701827101323069295e-03 -1.886837007043376665e-03
-3.812870100805968998e-01 1.033333403947217954e+00 4.916825971559994346e-01 -1.465577444893450543e-01 4.720357716907943278e-03 -1.891604250124442497e-03
-3.806406983955292755e-01 1.031513549713967137e+00 4.932975144894873321e-01 -1.470129531925973565e-01 4.739006236377360862e-03 -1.896418851853176732e-03
-3.799929674111601763e-01 1.029686419383321283e+00 4.949204876316422030e-01 -1.474704312469187484e-01 4.757773014647052531e-03 -1.901281371617916669e-03
-3.793438163473546454e-01 1.027852034890714084e+00 4.965514851479094771e-01 -1.479301697240869018e-01 4.776658403798730163e-03 -1.906192370951049304e-03
-3.786932447420718884e-01 1.026010418994099949e+00 4.981904749014947065e-01 -1.483921594930327492e-01 4.795662753092263045e-03 -1.911152413533508815e-03
-3.780412524497175353e-01 1.024161595266761315e+00 4.998374240616252906e-01 -1.488563912224684371e-01 4.814786408985120662e-03 -1.916162065194212342e-03
-3.773878396424408255e-01 1.022305588098973539e+00 5.014922991028657462e-01 -1.493228553806142667e-01 4.834029715147005954e-03 -1.921221893911865186e-03
-3.767330068068925342e-01 1.020442422690843065e+00 5.031550658099549489e-01 -1.497915422365768967e-01 4.853393012461018445e-03 -1.926332469807706194e-03
-3.760767547447743109e-01 1.018572125051489641e+00 5.048256892808759000e-01 -1.502624418614766366e-01 4.872876639047517972e-03 -1.931494365156301426e-03
-3.754190845703425650e-01 1.016694721993010253e+00 5.065041339308219426e-01 -1.507355441293485587e-01 4.892480930280972314e-03 -1.936708154378991237e-03
-3.747599977116881087e-01 1.014810241130972068e+00 5.081903634937318115e-01 -1.512108387179018909e-01 4.912206218794475283e-03 -1.941974414046860990e-03
-3.740994959066713532e-01 1.012918710875840400e+00 5.098843410296882706e-01 -1.516883151104506666e-01 4.932052834512486161e-03 -1.947293722883639564e-03
-3.734375812025649832e-01 1.011020160429362047e+00 5.115860289272230466e-01 -1.521679625969221683e-01 4.952021104650854849e-03 -1.952666661758402237e-03
-3.727742559563790303e-01 1.009114619786475764e+00 5.132953889033261552e-01 -1.526497702734921358e-01 4.972111353752823454e-03 -1.958093813703293273e-03
-3.721095228300415059e-01 1.007202119721534395e+00 5.150123820152021636e-01 -1.531337270464698530e-01 4.992323903691180814e-03 -1.963575763895554840e-03
-3.714433847922955501e-01 1.005282691791234750e+00 5.167369686585792099e-01 -1.536198216315095011e-01 5.012659073709113504e-03 -1.969113099676034987e-03
-3.707758451141658917e-01 1.003356368325620585e+00 5.184691085744984607e-01 -1.541080425558158662e-01 5.033117180411204351e-03 -1.974706410538578510e-03
-3.701069073680487986e-01 1.001423182423986757e+00 5.202087608537395713e-01 -1.545983781594186535e-01 5.053698537824891091e-03 -1.980356288141503236e-03
-3.694365754271140556e-01 9.994831679504103672e-01 5.219558839424536245e-01 -1.550908165968157837e-01 5.074403457391580240e-03 -1.986063326306936050e-03
-3.687648534626744579e-01 9.975363595309204578e-01 5.237104356417613404e-01 -1.555853458369553799e-01 5.095232247985605027e-03 -1.991828121016254918e-03
-3.680917459410565917e-01 9.955827925414733048e-01 5.254723731212217475e-01 -1.560819536672170271e-01 5.116185215975087297e-03 -1.997651270425251663e-03
-3.674172576230979592e-01 9.936225031091215909e-01 5.272416529162882171e-01 -1.565806276925940932e-01 5.137262665204836605e-03 -2.003533374853615646e-03
-3.667413935616690157e-01 9.916555281024957980e-01 5.290182309374648062e-01 -1.570813553385671801e-01 5.158464897057059469e-03 -2.009475036804734323e-03
-3.660641590988849559e-01 9.896819051268211931e-01 5.308020624749731908e-01 -1.575841238524318677e-01 5.179792210448989735e-03 -2.015476860951139360e-03
-3.653855598647513525e-01 9.877016725190370661e-01 5.325931022023900896e-01 -1.580889203043746583e-01 5.201244901875589667e-03 -2.021539454149363663e-03
-3.647056017739361278e-01 9.857148693398514183e-01 5.343913041837291544e-01 -1.585957315896787123e-01 5.222823265443665881e-03 -2.027663425443349682e-03
-3.640242910250677810e-01 9.837215353688127939e-01 5.361966218799893991e-01 -1.591045444305958234e-01 5.244527592877324187e-03 -2.033849386059301614e-03
-3.633416340959199631e-01 9.817217110965710258e-01 5.380090081527053592e-01 -1.596153453774614428e-01 5.266358173568821271e-03 -2.040097949418131617e-03
-3.626576377436330212e-01 9.797154377207053511e-01 5.398284152698790139e-01 -1.601281208104610720e-01 5.288315294600577469e-03 -2.046409731139415406e-03
-3.619723089995167675e-01 9.777027571361024405e-01 5.416547949137715534e-01 -1.606428569420377539e-01 5.310399240776171072e-03 -2.052785349043724592e-03
-3.612856551692971152e-01 9.756837119306442929e-01 5.434880981852937554e-01 -1.611595398180761252e-01 5.332610294660125941e-03 -2.059225423160527917e-03
-3.605976838282796137e-01 9.736583453766520790e-01 5.453282756110028329e-01 -1.616781553201667443e-01 5.354948736580935134e-03 -2.065730575717294581e-03
-3.599084028185808859e-01 9.716267014222548237e-01 5.471752771505115076e-01 -1.621986891677481835e-01 5.377414844711536461e-03 -2.072301431170995092e-03
-3.592178202499708983e-01 9.695888246918468178e-01 5.490290521977010396e-01 -1.627211269184003217e-01 5.400008895059977936e-03 -2.078938616195824627e-03
-3.585259444914060123e-01 9.675447604665710077e-01 5.508895495955710153e-01 -1.632454539724932652e-01 5.422731161530283152e-03 -2.085642759690942063e-03
-3.578327841745125859e-01 9.654945546901058107e-01 5.527567176333363363e-01 -1.637716555721406009e-01 5.445581915931543837e-03 -2.092414492783334877e-03
-3.571383481852449249e-01 9.634382539496643139e-01 5.546305040624061045e-01 -1.642997168060772173e-01 5.468561428056254760e-03 -2.099254448846571940e-03
-3.564426456639755436e-01 9.613759054753499012e-01 5.565108560959006745e-01 -1.648296226095435635e-01 5.491669965664943212e-03 -2.106163263487313003e-03
-3.557456860029504786e-01 9.593075571314851890e-01 5.583977204186996168e-01 -1.653613577672317647e-01 5.514907794568224900e-03 -2.113141574575710165e-03
-3.550474788414242355e-01 9.572332574062361044e-01 5.602910431942055292e-01 -1.658949069154293798e-01 5.538275178631088709e-03 -2.120190022225326276e-03
-3.543480340646643079e-01 9.551530554064932010e-01 5.621907700710921940e-01 -1.664302545439533543e-01 5.561772379825019944e-03 -2.127309248817458795e-03
-3.536473617986152784e-01 9.530670008470919496e-01 5.640968461905783160e-01 -1.669673849983357161e-01 5.585399658277707957e-03 -2.134499899001694474e-03
-3.529454724096459661e-01 9.509751440465478156e-01 5.660092161920421416e-01 -1.675062824816088425e-01 5.609157272282630502e-03 -2.141762619701556309e-03
-3.522423764988958372e-01 9.488775359137463505e-01 5.679278242245582309e-01 -1.680469310576613584e-01 5.633045478382086267e-03 -2.149098060134428580e-03
-3.515380849013253206e-01 9.467742279446172970e-01 5.698526139490944775e-01 -1.685893146519918118e-01 5.657064531366362212e-03 -2.156506871795279071e-03
-3.508326086810277245e-01 9.446652722107601319e-01 5.717835285493184649e-01 -1.691334170548845217e-01 5.681214684327915918e-03 -2.163989708478334436e-03
-3.501259591287448902e-01 9.425507213520047944e-01 5.737205107377902902e-01 -1.696792219234840304e-01 5.705496188710010297e-03 -2.171547226283837388e-03
-3.494181477583098161e-01 9.404306285665459120e-01 5.756635027650919278e-01 -1.702267127841105565e-01 5.729909294365459135e-03 -2.179180083636340221e-03
-3.487091863045598816e-01 9.383050476060419420e-01 5.776124464242572421e-01 -1.707758730340451225e-01 5.754454249547984700e-03 -2.186888941263494344e-03
-3.479990867185097647e-01 9.361740327617886770e-01 5.795672830628132433e-01 -1.713266859448961954e-01 5.779131301007157419e-03 -2.194674462231247826e-03
-3.472878611649968805e-01 9.340376388593188972e-01 5.815279535878844497e-01 -1.718791346642540296e-01 5.803940694005855008e-03 -2.202537311939674683e-03
-3.465755220191311103e-01 9.318959212489156263e-01 5.834943984740970091e-01 -1.724332022180531665e-01 5.828882672369871225e-03 -2.210478158135451010e-03
-3.458620818629594140e-01 9.297489357949688671e-01 5.854665577739024407e-01 -1.729888715135427246e-01 5.853957478537561050e-03 -2.218497670917273391e-03
-3.451475534829555047e-01 9.275967388709804862e-01 5.874443711219859976e-01 -1.735461253408571158e-01 5.879165353593313915e-03 -2.226596522746419459e-03
-3.444319498654871969e-01 9.254393873466104647e-01 5.894277777461295331e-01 -1.741049463761188132e-01 5.904506537324807382e-03 -2.234775388453135152e-03
-3.437152841940155357e-01 9.232769385796375516e-01 5.914167164752298644e-01 -1.746653171838632446e-01 5.929981268264396775e-03 -2.243034945250761431e-03
-3.429975698458017086e-01 9.211094504079651024e-01 5.934111257459608879e-01 -1.752272202190982564e-01 5.955589783733811204e-03 -2.251375872738463867e-03
-3.422788203881789726e-01 9.189369811385145193e-01 5.954109436131560518e-01 -1.757906378304731898e-01 5.981332319899269195e-03 -2.259798852916139553e-03
-3.415590495756732348e-01 9.167595895408330309e-01 5.974161077549381416e-01 -1.763555522617140658e-01 6.007209111797490869e-03 -2.268304570184964848e-03
-3.408382713458090740e-01 9.145773348329471197e-01 5.994265554866655688e-01 -1.769219456558831227e-01 6.033220393414909753e-03 -2.276893711368664381e-03
-3.401164998168616505e-01 9.123902766781446516e-01 6.014422237626897427e-01 -1.774898000559693156e-01 6.059366397713557457e-03 -2.285566965716580214e-03
-3.393937492833436487e-01 9.101984751709104593e-01 6.034630491892534199e-01 -1.780590974086154743e-01 6.085647356671760287e-03 -2.294325024906062726e-03
-3.386700342123760143e-01 9.080019908281226071e-01 6.054889680327799617e-01 -1.786298195668457600e-01 6.112063501365443130e-03 -2.303168583069726584e-03
-3.379453692419340238e-01 9.058008845820515464e-01 6.075199162265951802e-01 -1.792019482918531248e-01 6.138615061985784604e-03 -2.312098336790944370e-03
-3.372197691747834680e-01 9.035952177672300634e-01 6.095558293809515416e-01 -1.797754652561847633e-01 6.165302267899470945e-03 -2.321114985115699074e-03
-3.364932489780899094e-01 9.013850521153908835e-01 6.115966427906247560e-01 -1.803503520459926457e-01 6.192125347701264194e-03 -2.330219229571113115e-03
-3.357655732536431459e-01 8.991678341906343963e-01 6.136405150534752773e-01 -1.809228104944597126e-01 6.216499221281259271e-03 -2.336464717229995783e-03
-3.350368692719802310e-01 8.969449429437935661e-01 6.156882582101675938e-01 -1.814947215184610496e-01 6.239726813718905751e-03 -2.341337177326328726e-03
-3.343072675121087634e-01 8.947176713145842397e-01 6.177406380003881425e-01 -1.820678427130746069e-01 6.263024087652962861e-03 -2.346223177475531812e-03
-3.335767834670976262e-01 8.924860823916137553e-01 6.197975874646046712e-01 -1.826421543078556309e-01 6.286390688379251378e-03 -2.351122769680807131e-03
-3.328454327783222366e-01 8.902502396179865496e-01 6.218590393616280076e-01 -1.832176364537774216e-01 6.309826258604329073e-03 -2.356036006132567698e-03
-3.321132312310215440e-01 8.880102067794652942e-01 6.239249261784580725e-01 -1.837942692261513855e-01 6.333330438491157309e-03 -2.360962939207286899e-03
-3.313801947508463464e-01 8.857660479948098464e-01 6.259951801390469805e-01 -1.843720326272828836e-01 6.356902865734487783e-03 -2.365903621497935944e-03
-3.306463394012799095e-01 8.835178277079953624e-01 6.280697332125502186e-01 -1.849509065890263537e-01 6.380543175594043451e-03 -2.370858105814529874e-03
-3.299116813781928226e-01 8.812656106748276708e-01 6.301485171233606186e-01 -1.855308709757866881e-01 6.404251000965862500e-03 -2.375826445206307737e-03
-3.291762370092227719e-01 8.790094619577356605e-01 6.322314633587200472e-01 -1.861119055866981564e-01 6.428025972427294475e-03 -2.380808692972508685e-03
-3.284400227470370415e-01 8.767494469110507227e-01 6.343185031794645878e-01 -1.866939901591210260e-01 6.451867718306523655e-03 -2.385804902679553117e-03
-3.277030551677460601e-01 8.744856311739437338e-01 6.364095676278991309e-01 -1.872771043706797645e-01 6.475775864724675999e-03 -2.390815128170990875e-03
-3.269653509674844694e-01 8.722180806613568649e-01 6.385045875363762891e-01 -1.878612278422660542e-01 6.499750035662293750e-03 -2.395839423587721190e-03
-3.262269269585011955e-01 8.699468615523160420e-01 6.406034935370352734e-01 -1.884463401405315763e-01 6.523789853005185907e-03 -2.400877843375329689e-03
-3.254878000644575442e-01 8.676720402796909148e-01 6.427062160717808004e-01 -1.890324207813225410e-01 6.547894936614577846e-03 -2.405930442304693440e-03
-3.247479873196073563e-01 8.653936835234090630e-01 6.448126853985491902e-01 -1.896194492312381907e-01 6.572064904375333159e-03 -2.410997275486526613e-03
-3.240075058626084581e-01 8.631118581970332881e-01 6.469228316031708781e-01 -1.902074049114572951e-01 6.596299372242218732e-03 -2.416078398374948370e-03
-3.232663729348795312e-01 8.608266314400684349e-01 6.490365846072940759e-01 -1.907962671999545723e-01 6.620597954327589810e-03 -2.421173866802897243e-03
-3.225246058762935575e-01 8.585380706076771729e-01 6.511538741767752825e-01 -1.913860154341489317e-01 6.644960262916264383e-03 -2.426283736971885860e-03
-3.217822221218177847e-01 8.562462432608374252e-01 6.532746299318488159e-01 -1.919766289139461513e-01 6.669385908562057950e-03 -2.431408065488309140e-03
-3.210392391982097027e-01 8.539512171559616727e-01 6.553987813556861886e-01 -1.925680869042465659e-01 6.693874500116205224e-03 -2.436546909362897421e-03
-3.202956747203734023e-01 8.516530602360791180e-01 6.575262578033455041e-01 -1.931603686378234319e-01 6.718425644791398317e-03 -2.441700326030432459e-03
-3.195515463882270812e-01 8.493518406204767501e-01 6.596569885107917974e-01 -1.937534533178857099e-01 6.743038948232023960e-03 -2.446868373370048901e-03
-3.188068719832425346e-01 8.470476265955342310e-01 6.617909026035285747e-01 -1.943473201207084056e-01 6.767714014546085885e-03 -2.452051109707298164e-03
-3.180616693651078242e-01 8.447404866051189121e-01 6.639279291061283006e-01 -1.949419481986456593e-01 6.792450446382754768e-03 -2.457248593841264341e-03
-3.173159564670147703e-01 8.424304892375777953e-01 6.660679969525417077e-01 -1.955373166830894349e-01 6.817247844983219916e-03 -2.462460885052787651e-03
-3.165697512947919789e-01 8.401177032223343666e-01 6.682110349914989200e-01 -1.961334046861687996e-01 6.842105810222375538e-03 -2.467688043110934093e-03
-3.158230719216869598e-01 8.378021974152205509e-01 6.703569719984182607e-01 -1.967301913043288941e-01 6.867023940691989459e-03 -2.472930128311614725e-03
-3.150759364852068201e-01 8.354840407902597299e-01 6.725057366835808237e-01 -1.973276556208846122e-01 6.892001833728389308e-03 -2.478187201462203441e-03
-3.143283631843996617e-01 8.331633024307371072e-01 6.746572577004806837e-01 -1.979257767083976161e-01 6.917039085486157909e-03 -2.483459323915128587e-03
-3.135803702760335820e-01 8.308400515184155566e-01 6.768114636561025632e-01 -1.985245336319076959e-01 6.942135290997479904e-03 -2.488746557581699576e-03
-3.128319760718987208e-01 8.285143573265925099e-01 6.789682831166581334e-01 -1.991239054505958839e-01 6.967290044195965579e-03 -2.494048964929177371e-03
-3.120831989344347024e-01 8.261862892065646724e-01 6.811276446207179536e-01 -1.997238712218149526e-01 6.992502938025679966e-03 -2.499366609023632134e-03
-3.113340572744648371e-01 8.238559165818257757e-01 6.832894766842508849e-01 -2.003244100026006225e-01 7.017773564442472516e-03 -2.504699553516120513e-03
-3.105845695478155477e-01 8.215233089372337982e-01 6.854537078116751392e-01 -2.009255008528876008e-01 7.043101514498140668e-03 -2.510047862670835000e-03
-3.098347542515134112e-01 8.191885358094614933e-01 6.876202665029631511e-01 -2.015271228378950341e-01 7.068486378392057831e-03 -2.515411601379860355e-03
-3.090846299214062842e-01 8.168516667784437857e-01 6.897890812634736024e-01 -2.021292550308936842e-01 7.093927745517441055e-03 -2.520790835170004084e-03
-3.083342151281233123e-01 8.145127714574060818e-01 6.919600806121639636e-01 -2.027318765157943847e-01 7.119425204522232022e-03 -2.526185630224517340e-03
-3.075835284742899356e-01 8.121719194836483080e-01 6.941331930903905656e-01 -2.033349663897648374e-01 7.144978343368135754e-03 -2.531596053393977280e-03
-3.068325885918487539e-01 8.098291805107347141e-01 6.963083472695066334e-01 -2.039385037655205291e-01 7.170586749369010048e-03 -2.537022172206413947e-03
-3.060814141379717968e-01 8.074846241971541660e-01 6.984854717609371155e-01 -2.045424677745059650e-01 7.196250009247840730e-03 -2.542464054882067562e-03
-3.053300237929487126e-01 8.051383202000552686e-01 7.006644952227036871e-01 -2.051468375686281709e-01 7.221967709203617851e-03 -2.547921770352992634e-03
-3.045784362560918779e-01 8.027903381631498192e-01 7.028453463698597359e-01 -2.057515923235984090e-01 7.247739434956463646e-03 -2.553395388272485314e-03
-3.038266702437528721e-01 8.004407477105465185e-01 7.050279539815400565e-01 -2.063567112410502613e-01 7.273564771786468659e-03 -2.558884979023919645e-03
-3.030747444858393758e-01 7.980896184371429891e-01 7.072122469085340146e-01 -2.069621735507274907e-01 7.299443304606001957e-03 -2.564390613743781650e-03
-3.023226777216925232e-01 7.957370198973081621e-01 7.093981540848468548e-01 -2.075679585141030903e-01 7.325374618002335018e-03 -2.569912364324203769e-03
-3.015704886994199363e-01 7.933830216007498048e-01 7.115856045312212164e-01 -2.081740454253581118e-01 7.351358296287538452e-03 -2.575450303436665079e-03
-3.008181961708204510e-01 7.910276929995569972e-01 7.137745273674868107e-01 -2.087804136152187906e-01 7.377393923554919491e-03 -2.581004504538843888e-03
-3.000658188898234768e-01 7.886711034828758349e-01 7.159648518172855303e-01 -2.093870424521760143e-01 7.403481083720906027e-03 -2.586575041885056866e-03
-2.993133756086913677e-01 7.863133223662682747e-01 7.181565072182500842e-01 -2.099939113458625661e-01 7.429619360577402291e-03 -2.592161990543475313e-03
-2.985608850756808486e-01 7.839544188840298355e-01 7.203494230293182587e-01 -2.106009997491032071e-01 7.455808337853805229e-03 -2.597765426410636545e-03
-2.978083660318409098e-01 7.815944621802795034e-01 7.225435288388133426e-01 -2.112082871602688483e-01 7.482047599252437953e-03 -2.603385426219177734e-03
-2.970558372085509435e-01 7.792335213020574747e-01 7.247387543710039903e-01 -2.118157531254791504e-01 7.508336728499660773e-03 -2.609022067552470465e-03
-2.963033173244214447e-01 7.768716651889117086e-01 7.269350294965609693e-01 -2.124233772415709820e-01 7.534675309402905433e-03 -2.614675428857698384e-03
-2.955508250824293581e-01 7.745089626667248650e-01 7.291322842368390678e-01 -2.130311391575578917e-01 7.561062925883488273e-03 -2.620345589455498354e-03
-2.947983791680680032e-01 7.721454824390907579e-01 7.313304487742394722e-01 -2.136390185777104489e-01 7.587499162038996957e-03 -2.626032629553181220e-03
-2.940459982448518916e-01 7.697812930779066587e-01 7.335294534583395309e-01 -2.142469952633230257e-01 7.613983602182731146e-03 -2.631736630258448267e-03
-2.932937009537856521e-01 7.674164630182868096e-01 7.357292288131285218e-01 -2.148550490349471487e-01 7.640515830893365896e-03 -2.637457673590584088e-03
-2.925415059085483827e-01 7.650510605462016445e-01 7.379297055476439215e-01 -2.154631597758460138e-01 7.667095433057814075e-03 -2.643195842487553338e-03
-2.917894316948474454e-01 7.626851537960152028e-01 7.401308145578161524e-01 -2.160713074321418126e-01 7.693721993917479289e-03 -2.648951220823634201e-03
-2.910374968670381146e-01 7.603188107407001795e-01 7.423324869369584134e-01 -2.166794720162987797e-01 7.720395099121485881e-03 -2.654723893421396218e-03
-2.902857199442807068e-01 7.579520991805375196e-01 7.445346539848193279e-01 -2.172876336098107652e-01 7.747114334758363648e-03 -2.660513946054680109e-03
-2.895341194106097471e-01 7.555850867429702022e-01 7.467372472093292135e-01 -2.178957723635706611e-01 7.773879287403020685e-03 -2.666321465464232838e-03
-2.887827137098055164e-01 7.532178408674308212e-01 7.489401983397120377e-01 -2.185038685021379046e-01 7.800689544173099350e-03 -2.672146539374331900e-03
-2.880315212448182893e-01 7.508504288042728847e-01 7.511434393282270250e-01 -2.191119023239706531e-01 7.827544692754052555e-03 -2.677989256494229479e-03
-2.872805603746350633e-01 7.484829176039199394e-01 7.533469023605022796e-01 -2.197198542047387460e-01 7.854444321454007866e-03 -2.683849706534408106e-03
-2.865297866165072982e-01 7.461151406275632336e-01 7.555504498543376135e-01 -2.203274973474208809e-01 7.881406012524749122e-03 -2.689712530418175446e-03
-2.857767022374271271e-01 7.437378239293898075e-01 7.577511747211255200e-01 -2.209264893852170009e-01 7.909151884686169490e-03 -2.694958912544753206e-03
-2.850238700935569525e-01 7.413605091909832856e-01 7.599518123913434620e-01 -2.215251903661361321e-01 7.936953984887413008e-03 -2.700215107448904975e-03
-2.842713083634859084e-01 7.389832627955055244e-01 7.621522942518647037e-01 -2.221235795408837144e-01 7.964812027335179193e-03 -2.705481170272296294e-03
-2.835190351712935097e-01 7.366061508981129879e-01 7.643525519431034754e-01 -2.227216362402906491e-01 7.992725727761051946e-03 -2.710757157335388912e-03
-2.827670685869186351e-01 7.342292394242447839e-01 7.665525173615092003e-01 -2.233193398762098880e-01 8.020694803441991844e-03 -2.716043126145907972e-03
-2.820154266204109583e-01 7.318525940555332676e-01 7.687521226719704615e-01 -2.239166699449285924e-01 8.048718973281458744e-03 -2.721339135421312321e-03
-2.812641272217811239e-01 7.294762802274568081e-01 7.709513003099450756e-01 -2.245136060283178803e-01 8.076797957816543236e-03 -2.726645245091126411e-03
-2.805131882803832966e-01 7.271003631263212030e-01 7.731499829858652362e-01 -2.251101277947746837e-01 8.104931479259527144e-03 -2.731961516303899572e-03
-2.797626276187570871e-01 7.247249076741164586e-01 7.753481036976132001e-01 -2.257062150030696157e-01 8.133119261563308625e-03 -2.737288011453154011e-03
-2.790124629935390455e-01 7.223499785288562958e-01 7.775455957311318000e-01 -2.263018475027118170e-01 8.161361030434395245e-03 -2.742624794174841705e-03
-2.782627120932418263e-01 7.199756400784392829e-01 7.797423926664752702e-01 -2.268970052356344413e-01 8.189656513371284738e-03 -2.747971929358959241e-03
-2.775133925343585273e-01 7.176019564299923603e-01 7.819384283867599761e-01 -2.274916682389655220e-01 8.218005439720539942e-03 -2.753329483167110594e-03
-2.767645218609681157e-01 7.152289914066398691e-01 7.841336370831765157e-01 -2.280858166465314918e-01 8.246407540701543304e-03 -2.758697523038275510e-03
-2.760161175430189684e-01 7.128568085443475200e-01 7.863279532560264462e-01 -2.286794306891054285e-01 8.274862549440540824e-03 -2.764076117697841350e-03
-2.752681969728573153e-01 7.104854710805778018e-01 7.885213117267052541e-01 -2.292724906982722133e-01 8.303370201004531617e-03 -2.769465337165592355e-03
-2.745207774639475407e-01 7.081150419513234651e-01 7.907136476397184088e-01 -2.298649771067826642e-01 8.331930232455674046e-03 -2.774865252774508413e-03
-2.737738762499334899e-01 7.057455837868036319e-01 7.929048964676402855e-01 -2.304568704502245602e-01 8.360542382853643206e-03 -2.780275937166876675e-03
-2.730275104821993648e-01 7.033771589047013162e-01 7.950949940172723496e-01 -2.310481513687754340e-01 8.389206393318346389e-03 -2.785697464315355434e-03
-2.722816972265826307e-01 7.010098293017156257e-01 7.972838764369776232e-01 -2.316388006096234131e-01 8.417922007048477678e-03 -2.791129909524330682e-03
-2.715364534640984928e-01 6.986436566545892735e-01 7.994714802160560740e-01 -2.322287990264778057e-01 8.446688969353880957e-03 -2.796573349441202217e-03
-2.707917960879763775e-01 6.962787023099411554e-01 8.016577421957473693e-01 -2.328181275832705566e-01 8.475507027688540876e-03 -2.802027862064888127e-03
-2.700477419017958680e-01 6.939150272811072107e-01 8.038425995697475734e-01 -2.334067673539919618e-01 8.504375931687069290e-03 -2.807493526756087848e-03
-2.693043076177305539e-01 6.915526922416196376e-01 8.060259898927244482e-01 -2.339946995255242634e-01 8.533295433186496859e-03 -2.812970424239979225e-03
-2.685615098547793900e-01 6.891917575204612456e-01 8.082078510829571183e-01 -2.345819053982826641e-01 8.562265286270655945e-03 -2.818458636621922093e-03
-2.678193651394582542e-01 6.868322831025348574e-01 8.103881214238185526e-01 -2.351683663867693841e-01 8.591285247271934419e-03 -2.823958247389139233e-03
-2.670778899004340734e-01 6.844743286150394290e-01 8.125667395749781585e-01 -2.357540640229731088e-01 8.620355074829888498e-03 -2.829469341419533959e-03
-2.663371004696536426e-01 6.821179533291656938e-01 8.147436445714992814e-01 -2.363389799559113547e-01 8.649474529897362846e-03 -2.834992004988334986e-03
-2.655970130797019602e-01 6.797632161523701200e-01 8.169187758317216774e-01 -2.369230959543978388e-01 8.678643375782465683e-03 -2.840526325778901153e-03
-2.648576438631913832e-01 6.774101756272108421e-01 8.190920731575561664e-01 -2.375063939068042806e-01 8.707861378168930966e-03 -2.846072392890443541e-03
-2.641190088507610056e-01 6.750588899245267838e-01 8.212634767411510772e-01 -2.380888558232062968e-01 8.737128305128825240e-03 -2.851630296833352132e-03
-2.633811239694078821e-01 6.727094168392055984e-01 8.234329271693781038e-01 -2.386704638367802278e-01 8.766443927180905468e-03 -2.857200129555224899e-03
-2.626440050415696503e-01 6.703618137871052429e-01 8.256003654261312441e-01 -2.392512002045031339e-01 8.795808017272956081e-03 -2.862781984422725200e-03
-2.619076677838891865e-01 6.680161378009971118e-01 8.277657328968165418e-01 -2.398310473084619698e-01 8.825220350842386333e-03 -2.868375956252639837e-03
-2.611721278051772344e-01 6.656724455249177774e-01 8.299289713731282658e-01 -2.404099876573435879e-01 8.854680705821512537e-03 -2.873982141302826830e-03
-2.604374006060928837e-01 6.633307932132301854e-01 8.320900230542258580e-01 -2.409880038867947827e-01 8.884188862650082771e-03 -2.879600637273960553e-03
-2.597035015776518740e-01 6.609912367256981502e-01 8.342488305521419401e-01 -2.415650787611610673e-01 8.913744604331410790e-03 -2.885231543337343687e-03
-2.589704459986480467e-01 6.586538315208664285e-01 8.364053368959610824e-01 -2.421411951745221780e-01 8.943347716406995287e-03 -2.890874960107491214e-03
-2.582382490372005512e-01 6.563186326588303920e-01 8.385594855322514585e-01 -2.427163361511385509e-01 8.972997987018165034e-03 -2.896530989678593876e-03
-2.575069257468675654e-01 6.539856947918781804e-01 8.407112203304817344e-01 -2.432904848467935532e-01 9.002695206904279962e-03 -2.902199735610143817e-03
-2.567764910670911060e-01 6.516550721633832532e-01 8.428604855878268909e-01 -2.438636245505562128e-01 9.032439169427437103e-03 -2.907881302937522904e-03
-2.560469598221036258e-01 6.493268186069462988e-01 8.450072260264641644e-01 -2.444357386837177903e-01 9.062229670587642477e-03 -2.913575798177002636e-03
-2.553183467190717759e-01 6.470009875392812582e-01 8.471513868029206806e-01 -2.450068108028654601e-01 9.092066509041990194e-03 -2.919283329325599724e-03
-2.545906663480129728e-01 6.446776319596161375e-01 8.492929135076067171e-01 -2.455768245994923160e-01 9.121949486131413626e-03 -2.925004005875554095e-03
-2.538639331791899822e-01 6.423568044447149905e-01 8.514317521686807222e-01 -2.461457639012977205e-01 9.151878405877975770e-03 -2.930737938802890127e-03
-2.531381615646645655e-01 6.400385571495671444e-01 8.535678492534509720e-01 -2.467136126727878798e-01 9.181853075026401995e-03 -2.936485240588515219e-03
-2.524133657357586769e-01 6.377229418025939234e-01 8.557011516713127763e-01 -2.472803550159454189e-01 9.211873303024233073e-03 -2.942246025203650722e-03
-2.516895598013192958e-01 6.354100096997160607e-01 8.578316067795949129e-01 -2.478459751719944981e-01 9.241938902078581861e-03 -2.948020408128505365e-03
-2.509667577490500845e-01 6.330998117084047916e-01 8.599591623807693042e-01 -2.484104575208264387e-01 9.272049687131120321e-03 -2.953808506345304702e-03
-2.502449734437441342e-01 6.307923982616401304e-01 8.620837667264310555e-01 -2.489737865818698048e-01 9.302205475896481099e-03 -2.959610438344994956e-03
-2.495242206254343620e-01 6.284878193544460867e-01 8.642053685221424697e-01 -2.495359470158724224e-01 9.332406088860038806e-03 -2.965426324128164152e-03
-2.488045129097989361e-01 6.261861245424881206e-01 8.663239169281092833e-01 -2.500969236249894756e-01 9.362651349311102225e-03 -2.971256285212943785e-03
-2.480858637881129813e-01 6.238873629438039803e-01 8.684393615577661318e-01 -2.506567013521533993e-01 9.392941083322919882e-03 -2.977100444627342642e-03
-2.473682866239124978e-01 6.215915832285636711e-01 8.705516524867252803e-01 -2.512152652843293033e-01 9.423275119792719201e-03 -2.982958926922644072e-03
-2.466517946552960749e-01 6.192988336254128257e-01 8.726607402481666442e-01 -2.517726006505955905e-01 9.453653290436380904e-03 -2.988831858164001185e-03
-2.459364009931348238e-01 6.170091619161295338e-01 8.747665758367282329e-01 -2.523286928235326521e-01 9.484075429795001469e-03 -2.994719365940006449e-03
-2.452221186187960866e-01 6.147226154309340940e-01 8.768691107124405582e-01 -2.528835273204728118e-01 9.514541375254217948e-03 -3.000621579357785462e-03
-2.445089603865143735e-01 6.124392410517435215e-01 8.789682968001325536e-01 -2.534370898033717068e-01 9.545050967056030108e-03 -3.006538629057435921e-03
-2.437969390210931453e-01 6.101590852089915362e-01 8.810640864897640867e-01 -2.539893660786753382e-01 9.575604048285904502e-03 -3.012470647193850326e-03
-2.430860671170080034e-01 6.078821938771453715e-01 8.831564326415436428e-01 -2.545403420991285137e-01 9.606200464896279961e-03 -3.018417767449396803e-03
-2.423763571394795258e-01 6.056086125784909679e-01 8.852452885833117513e-01 -2.550900039629963034e-01 9.636840065710037054e-03 -3.024380125032556047e-03
-2.416678214219196430e-01 6.033383863754009369e-01 8.873306081161551617e-01 -2.556383379154310020e-01 9.667522702434806076e-03 -3.030357856680423231e-03
-2.409604721682685191e-01 6.010715598771663171e-01 8.894123455096708541e-01 -2.561853303476183674e-01 9.698248229642835588e-03 -3.036351100657091236e-03
-2.402543214485841905e-01 5.988081772286539817e-01 8.914904555107883155e-01 -2.567309677988623418e-01 9.729016504804692891e-03 -3.042359996746827992e-03
-2.395493812036118830e-01 5.965482821203392794e-01 8.935648933360771373e-01 -2.572752369547772200e-01 9.759827388275807772e-03 -3.048384686268678073e-03
-2.388456632400871860e-01 5.942919177777638007e-01 8.956356146805579677e-01 -2.578181246495073742e-01 9.790680743300493594e-03 -3.054425312058415068e-03
-2.381431792332208697e-01 5.920391269678473289e-01 8.977025757123396899e-01 -2.583596178645454766e-01 9.821576436021568074e-03 -3.060482018484658468e-03
-2.374419407236234847e-01 5.897899519906765198e-01 8.997657330793321639e-01 -2.588997037304496818e-01 9.852514335488006883e-03 -3.066554951439093724e-03
-2.367419591210723762e-01 5.875444346874107993e-01 9.018250439037082122e-01 -2.594383695253528743e-01 9.883494313644207441e-03 -3.072644258335906729e-03
-2.360432456999292383e-01 5.853026164321556424e-01 9.038804657869083936e-01 -2.599756026764182271e-01 9.914516245324248717e-03 -3.078750088110523107e-03
-2.353458116016619028e-01 5.830645381348045220e-01 9.059319568096659836e-01 -2.605113907598821665e-01 9.945580008286977747e-03 -3.084872591225884444e-03
-2.346496678334502595e-01 5.808302402396503528e-01 9.079794755309804621e-01 -2.610457215006829479e-01 9.976685483166512769e-03 -3.091011919650434210e-03
-2.339548252692622288e-01 5.785997627274204191e-01 9.100229809879275544e-01 -2.615785827726471724e-01 1.000783255353107810e-02 -3.097168226895403477e-03
-2.332612946477582438e-01 5.763731451095233105e-01 9.120624326997675002e-01 -2.621099625993486559e-01 1.003902110582125147e-02 -3.103341667964642711e-03
-2.325690865739780400e-01 5.741504264341664721e-01 9.140977906627469896e-01 -2.626398491529833290e-01 1.007025102938866566e-02 -3.109532399390310675e-03
-2.318782115174476410e-01 5.719316452799070305e-01 9.161290153561222338e-01 -2.631682307558289025e-01 1.010152221648174913e-02 -3.115740579205323116e-03
-2.311886798148725664e-01 5.697168397618208591e-01 9.181560677365511181e-01 -2.636950958788201183e-01 1.013283456224723170e-02 -3.121966366969615176e-03
-2.305005016659724959e-01 5.675060475239931401e-01 9.201789092442794749e-01 -2.642204331433300468e-01 1.016418796472290387e-02 -3.128209923736338140e-03
-2.298136871386517732e-01 5.652993057503618024e-01 9.221975017937675823e-01 -2.647442313181552764e-01 1.019558232481986015e-02 -3.134471412064076656e-03
-2.291282461633633027e-01 5.630966511505040017e-01 9.242118077865073555e-01 -2.652664793239438157e-01 1.022701754635899941e-02 -3.140750996023501836e-03
-2.284441885371019942e-01 5.608981199717477661e-01 9.262217900995017850e-01 -2.657871662290442472e-01 1.025849353602581795e-02 -3.147048841175504631e-03
-2.277615239227598898e-01 5.587037479960793585e-01 9.282274120889999480e-01 -2.663062812511327038e-01 1.029001020337511930e-02 -3.153365114575685732e-03
-2.270802618476528978e-01 5.565135705369191887e-01 9.302286375923294326e-01 -2.668238137576549041e-01 1.032156746084353545e-02 -3.159699984780189441e-03
-2.264004117047721809e-01 5.543276224420329301e-01 9.322254309259192517e-01 -2.673397532650831354e-01 1.035316522372619133e-02 -3.166053621822455342e-03
-2.257219827525985822e-01 5.521459380950326512e-01 9.342177568829095335e-01 -2.678540894383061866e-01 1.038480341017691648e-02 -3.172426197234824285e-03
-2.250449841163273956e-01 5.499685514164113220e-01 9.362055807338249824e-01 -2.683668120911109067e-01 1.041648194118547505e-02 -3.178817884015625039e-03
-2.243694247849533918e-01 5.477954958583233225e-01 9.381888682290989712e-01 -2.688779111863860427e-01 1.044820074060578106e-02 -3.185228856651700548e-03
-2.236953136159806899e-01 5.456268044147475349e-01 9.401675855914104485e-01 -2.693873768342047725e-01 1.047995973510760723e-02 -3.191659291099149896e-03
-2.230226593304512062e-01 5.434625096112606357e-01 9.421416995243654391e-01 -2.698951992945994305e-01 1.051175885420374718e-02 -3.198109364786251314e-03
-2.223514705175356765e-01 5.413026435151948590e-01 9.441111772029824323e-01 -2.704013689742283399e-01 1.054359803020740033e-02 -3.204579256597199586e-03
-2.216817556322219773e-01 5.391472377313550890e-01 9.460759862773389095e-01 -2.709058764277879616e-01 1.057547719824675214e-02 -3.211069146883911707e-03
-2.210135229964314829e-01 5.369963234036838617e-01 9.480360948718021818e-01 -2.714087123579067007e-01 1.060739629625410269e-02 -3.217579217448117597e-03
-2.203467807991904281e-01 5.348499312178840448e-01 9.499914715817920907e-01 -2.719098676138486104e-01 1.063935526493758540e-02 -3.224109651544635261e-03
-2.196815370965071457e-01 5.327080913997950251e-01 9.519420854749452987e-01 -2.724093331920990346e-01 1.067135404779440480e-02 -3.230660633872065729e-03
-2.190177998124444025e-01 5.305708337185803813e-01 9.538879060888133532e-01 -2.729071002354961917e-01 1.070339259109703324e-02 -3.237232350575499663e-03
-2.183555767390539804e-01 5.284381874881515229e-01 9.558289034293797615e-01 -2.734031600331370271e-01 1.073547084384189262e-02 -3.243824989217766915e-03
-2.176948755356247212e-01 5.263101815644917192e-01 9.577650479727116695e-01 -2.738975040206197975e-01 1.076758875779813308e-02 -3.250438738804774762e-03
-2.170357037311331505e-01 5.241868443520479870e-01 9.596963106595048920e-01 -2.743901237781317115e-01 1.079974628746071912e-02 -3.257073789763493838e-03
-2.163780687232653155e-01 5.220682038024044846e-01 9.616226628962021294e-01 -2.748810110314779398e-01 1.083194339004375610e-02 -3.263730333940261137e-03
-2.157219777784900316e-01 5.199542874148126437e-01 9.635440765540128627e-01 -2.753701576512194160e-01 1.086418002545749134e-02 -3.270408564580954292e-03
-2.150674380333959523e-01 5.178451222390494380e-01 9.654605239671415484e-01 -2.758575556526752792e-01 1.089645615632106254e-02 -3.277108676354344424e-03
-2.144144564943374354e-01 5.157407348753159093e-01 9.673719779309064570e-01 -2.763431971946155863e-01 1.092877174791918350e-02 -3.283830865314662541e-03
-2.137630400391851981e-01 5.136411514805773182e-01 9.692784116978053754e-01 -2.768270745784919273e-01 1.096112676821705406e-02 -3.290575328916262726e-03
-2.131131954153210606e-01 5.115463977615253288e-01 9.711797989824608734e-01 -2.773091802504044634e-01 1.099352118781775529e-02 -3.297342265999381357e-03
-2.124649292424225233e-01 5.094564989827997659e-01 9.730761139546864058e-01 -2.777895067982730226e-01 1.102595497997285040e-02 -3.304131876786657249e-03
-2.118182480125680722e-01 5.073714799691796395e-01 9.749673312366382572e-01 -2.782680469510158683e-01 1.105842812055442791e-02 -3.310944362870776522e-03
-2.111731580887710180e-01 5.052913650995939365e-01 9.768534259101360195e-01 -2.787447935818035405e-01 1.109094058802718649e-02 -3.317779927212622954e-03
-2.105296657081783818e-01 5.032161783194725180e-01 9.787343735009321755e-01 -2.792197397015542260e-01 1.112349236346751695e-02 -3.324638774132822067e-03
-2.098877769805436444e-01 5.011459431328657566e-01 9.806101499908933539e-01 -2.796928784643948895e-01 1.115608343051194794e-02 -3.331521109306768546e-03
-2.092474978900078775e-01 4.990806826103478810e-01 9.824807318074996187e-01 -2.801642031634538621e-01 1.118871377536001521e-02 -3.338427139754485476e-03
-2.086088342949799779e-01 4.970204193901383016e-01 9.843460958222088886e-01 -2.806337072302845792e-01 1.122138338675936903e-02 -3.345357073833556214e-03
-2.079717919288959493e-01 4.949651756763173149e-01 9.862062193549260281e-01 -2.811013842370835847e-01 1.125409225597216560e-02 -3.352311121234631455e-03
-2.073363764008944732e-01 4.929149732447583587e-01 9.880610801656291020e-01 -2.815672278934095996e-01 1.128684037677702041e-02 -3.359289492972912169e-03
-2.067025931958633989e-01 4.908698334428721610e-01 9.899106564559365662e-01 -2.820312320469648415e-01 1.131962774544050150e-02 -3.366292401378041810e-03
-2.060704476757334036e-01 4.888297771934796421e-01 9.917549268633697457e-01 -2.824933906816916585e-01 1.135245436070832226e-02 -3.373320060093365578e-03
-2.054399450801436822e-01 4.867948249960852847e-01 9.935938704624741602e-01 -2.829536979180877765e-01 1.138532022377663350e-02 -3.380372684055581688e-03
-2.048110905256537162e-01 4.847649969253493563e-01 9.954274667658353781e-01 -2.834121480143051985e-01 1.141822533826517688e-02 -3.387450489497585444e-03
-2.041838890080951152e-01 4.827403126394226862e-01 9.972556957143330347e-01 -2.838687353619258058e-01 1.145116971023785873e-02 -3.394553693944054804e-03
-2.035583454022456551e-01 4.807207913773527963e-01 9.990785376811143204e-01 -2.843234544881210191e-01 1.148415334813441928e-02 -3.401682516185534043e-03
-2.029344644630625139e-01 4.787064519652729500e-01 1.000895973464280830e+00 -2.847763000529783817e-01 1.151717626278495749e-02 -3.408837176285794187e-03
-2.023122508255682517e-01 4.766973128148406236e-01 1.002707984289430421e+00 -2.852272668505113074e-01 1.155023846738644812e-02 -3.416017895575050242e-03
-2.016917090059777706e-01 4.746933919255998946e-01 1.004514551807811129e+00 -2.856763498082586783e-01 1.158333997746466455e-02 -3.423224896629999299e-03
-2.010728434028666300e-01 4.726947068926041218e-01 1.006315658086082809e+00 -2.861235439834167726e-01 1.161648081088575805e-02 -3.430458403275999778e-03
-2.004556582962498112e-01 4.707012748994578999e-01 1.008111285616996033e+00 -2.865688445674801632e-01 1.164966098778783161e-02 -3.437718640566848460e-03
-1.998401578504705456e-01 4.687131127306853884e-01 1.009901417303783910e+00 -2.870122468798145254e-01 1.168288053062360374e-02 -3.445005834789974675e-03
-1.992263461130159286e-01 4.667302367673055730e-01 1.011686036465584637e+00 -2.874537463705122420e-01 1.171613946407963798e-02 -3.452320213445897283e-03
-1.986142270170146440e-01 4.647526629934206621e-01 1.013465126832081120e+00 -2.878933386183859522e-01 1.174943781510389730e-02 -3.459662005249074680e-03
-1.980038043790806335e-01 4.627804069912580531e-01 1.015238672547876808e+00 -2.883310193328104676e-01 1.178277561285201447e-02 -3.467031440115896177e-03
-1.973950819028727766e-01 4.608134839530952931e-01 1.017006658158804866e+00 -2.887667843484886254e-01 1.181615288867439439e-02 -3.474428749145537162e-03
-1.967880631800136004e-01 4.588519086812485326e-01 1.018769068614169715e+00 -2.892006296269116206e-01 1.184956967611123548e-02 -3.481854164631536640e-03
-1.961827516875718769e-01 4.568956955839375556e-01 1.020525889270271325e+00 -2.896325512574525196e-01 1.188302601084750658e-02 -3.489307920027087586e-03
-1.955791507918104022e-01 4.549448586849333398e-01 1.022277105880436743e+00 -2.900625454542471449e-01 1.191652193071459503e-02 -3.496790249970762893e-03
-1.949772637485863991e-01 4.529994116254356662e-01 1.024022704592899791e+00 -2.904906085551803852e-01 1.195005747565059014e-02 -3.504301390237087033e-03
-1.943770937027321510e-01 4.510593676637283389e-01 1.025762671951842453e+00 -2.909167370228004090e-01 1.198363268766730431e-02 -3.511841577752795613e-03
-1.937786436895787279e-01 4.491247396773194178e-01 1.027496994895344962e+00 -2.913409274433794161e-01 1.201724761087320272e-02 -3.519411050583173134e-03
-1.931819166362551132e-01 4.471955401703456290e-01 1.029225660746756921e+00 -2.917631765242795772e-01 1.205090229141664998e-02 -3.527010047926949429e-03
-1.925869153621017904e-01 4.452717812726025848e-01 1.030948657216818276e+00 -2.921834810947122607e-01 1.208459677744516507e-02 -3.534638810082244443e-03
-1.919936425785129241e-01 4.433534747403193865e-01 1.032665972403131738e+00 -2.926018381056087470e-01 1.211833111914470754e-02 -3.542297578479972932e-03
-1.914021008914031097e-01 4.414406319641641652e-01 1.034377594781105358e+00 -2.930182446268035923e-01 1.215210536864797831e-02 -3.549986595626163609e-03
-1.908122928006835695e-01 4.395332639674996433e-01 1.036083513205898310e+00 -2.934326978476650694e-01 1.218591958006075456e-02 -3.557706105133556698e-03
-1.902242207015788222e-01 4.376313814102480992e-01 1.037783716910131826e+00 -2.938451950764386922e-01 1.221977380941175785e-02 -3.565456351682390074e-03
-1.896378868856519739e-01 4.357349945937599722e-01 1.039478195495657342e+00 -2.942557337374215876e-01 1.225366811465991405e-02 -3.573237581034361624e-03
-1.890532935411254889e-01 4.338441134597660898e-01 1.041166938939254383e+00 -2.946643113735253339e-01 1.228760255561548928e-02 -3.581050039999203287e-03
-1.884704427540397909e-01 4.319587475968575396e-01 1.042849937581306952e+00 -2.950709256417361481e-01 1.232157719399191477e-02 -3.588893976447014075e-03
-1.878893365092822454e-01 4.300789062410359520e-01 1.044527182129226572e+00 -2.954755743149972136e-01 1.235559209331436870e-02 -3.596769639277002089e-03
-1.873099766899740948e-01 4.282045982762344161e-01 1.046198663654742678e+00 -2.958782552814288036e-01 1.238964731892561177e-02 -3.604677278426901468e-03
-1.867323650807861390e-01 4.263358322444396609e-01 1.047864373583405229e+00 -2.962789665401972528e-01 1.242374293798399060e-02 -3.612617144854728731e-03
-1.861565033662650748e-01 4.244726163394005325e-01 1.049524303703369243e+00 -2.966777062054289926e-01 1.245787901939508953e-02 -3.620589490525794041e-03
-1.855823931332828136e-01 4.226149584158049866e-01 1.051178446154264590e+00 -2.970744725021783328e-01 1.249205563380378220e-02 -3.628594568398893234e-03
-1.850100358719710958e-01 4.207628659918546399e-01 1.052826793423921492e+00 -2.974692637649561378e-01 1.252627285360631733e-02 -3.636632632435134963e-03
-1.844394329744178107e-01 4.189163462462161536e-01 1.054469338353543728e+00 -2.978620784405995314e-01 1.256053075287017103e-02 -3.644703937567986794e-03
-1.838705857384730358e-01 4.170754060275981834e-01 1.056106074127347139e+00 -2.982529150840985133e-01 1.259482940733323147e-02 -3.652808739699704276e-03
-1.833034953670323597e-01 4.152400518570100729e-01 1.057736994268604569e+00 -2.986417723572620253e-01 1.262916889441387421e-02 -3.660947295696270753e-03
-1.827381629680848718e-01 4.134102899233998429e-01 1.059362092647295750e+00 -2.990286490323435520e-01 1.266354929312186843e-02 -3.669119863369106442e-03
-1.821739408068659138e-01 4.115840574194715717e-01 1.060978784285416587e+00 -2.994100342050444175e-01 1.269827699674258223e-02 -3.677143689770552212e-03
-1.816114140851274594e-01 4.097632267222813263e-01 1.062589352269598164e+00 -2.997890603383729924e-01 1.273307874967541040e-02 -3.685183317988874243e-03
-1.810506446197624464e-01 4.079479977191873830e-01 1.064194031933293205e+00 -3.001660548431112630e-01 1.276792599277747770e-02 -3.693256182357876859e-03
-1.804916331699651377e-01 4.061383754080909458e-01 1.065792818076671811e+00 -3.005410166141434525e-01 1.280281884250925734e-02 -3.701362543187849442e-03
-1.799343804042374817e-01 4.043343644711063223e-01 1.067385705828879372e+00 -3.009139446509455640e-01 1.283775741694294717e-02 -3.709502661736332335e-03
-1.793788869032887645e-01 4.025359692844159842e-01 1.068972690635853651e+00 -3.012848380526064740e-01 1.287274183576020414e-02 -3.717676800184768326e-03
-1.788251531585443588e-01 4.007431939132546361e-01 1.070553768267359152e+00 -3.016536960206324114e-01 1.290777222025405076e-02 -3.725885221669407617e-03
-1.782731795750071013e-01 3.989560421207234975e-01 1.072128934807416334e+00 -3.020205178562018755e-01 1.294284869325071710e-02 -3.734128190220717403e-03
-1.777229664711067747e-01 3.971745173684196328e-01 1.073698186653986975e+00 -3.023853029596382802e-01 1.297797137913999851e-02 -3.742405970798498745e-03
-1.771745140799262375e-01 3.953986228198069774e-01 1.075261520514876556e+00 -3.027480508293162731e-01 1.301314040380894231e-02 -3.750718829243917564e-03
-1.766278225498835175e-01 3.936283613427650763e-01 1.076818933405827128e+00 -3.031087610610322391e-01 1.304835589466221343e-02 -3.759067032304751806e-03
-1.760828919454708597e-01 3.918637355121483146e-01 1.078370422648098792e+00 -3.034674333476904406e-01 1.308361798052651813e-02 -3.767450847580112745e-03
-1.755397222483666975e-01 3.901047476131381253e-01 1.079915985864689176e+00 -3.038240674775991579e-01 1.311892679169550553e-02 -3.775870543553354851e-03
-1.749983133587303119e-01 3.883513996458575757e-01 1.081455620975869447e+00 -3.041786633332852485e-01 1.315428245989004249e-02 -3.784326389566872433e-03
-1.744586650942584194e-01 3.866036933226964512e-01 1.082989326201885927e+00 -3.045312208927221098e-01 1.318968511819230277e-02 -3.792818655793913415e-03
-1.739207771941558844e-01 3.848616300802581991e-01 1.084517100050929495e+00 -3.048817402248762409e-01 1.322513490108952368e-02 -3.801347613263330802e-03
-1.733846493160232927e-01 3.831252110711225178e-01 1.086038941327324592e+00 -3.052302214930545099e-01 1.326063194437618331e-02 -3.809913533808507655e-03
-1.728502810405148360e-01 3.813944371772563513e-01 1.087554849118424594e+00 -3.055766649502744126e-01 1.329617638518803928e-02 -3.818516690088608750e-03
-1.723176718697780330e-01 3.796693090048270380e-01 1.089064822800417387e+00 -3.059210709418348495e-01 1.333176836194059633e-02 -3.827157355563784013e-03
-1.717868212289473950e-01 3.779498268922497073e-01 1.090568862027447405e+00 -3.062634399006816666e-01 1.336740801432235309e-02 -3.835835804483146878e-03
-1.712577284676096712e-01 3.762359909115402523e-01 1.092066966734163147e+00 -3.066037723495065315e-01 1.340309548328691078e-02 -3.844552311891439103e-03
-1.707303928593291997e-01 3.745278008681253157e-01 1.093559137133347736e+00 -3.069420688995329050e-01 1.343883091098332580e-02 -3.853307153596270077e-03
-1.702048136043267657e-01 3.728252563100423189e-01 1.095045373707501435e+00 -3.072783302477859468e-01 1.347461444076991297e-02 -3.862100606168433845e-03
-1.696809898278730799e-01 3.711283565228751802e-01 1.096525677213555205e+00 -3.076125571787709512e-01 1.351044621714635012e-02 -3.870932946914938926e-03
-1.691589205844651611e-01 3.694371005422066867e-01 1.098000048670808138e+00 -3.079447505604488988e-01 1.354632638581808150e-02 -3.879804453914537186e-03
-1.686386048548909333e-01 3.677514871455313528e-01 1.099468489369426427e+00 -3.082749113476244140e-01 1.358225509355872988e-02 -3.888715405949477212e-03
-1.681200415502102641e-01 3.660715148652011197e-01 1.100931000855693398e+00 -3.086030405764235152e-01 1.361823248827537247e-02 -3.897666082531748080e-03
-1.676032295102112823e-01 3.643971819821394398e-01 1.102387584941105336e+00 -3.089291393680970166e-01 1.365425871893606244e-02 -3.906656763888830333e-03
-1.670881675060827964e-01 3.627284865360104193e-01 1.103838243690046239e+00 -3.092532089245556559e-01 1.369033393554585851e-02 -3.915687730927968485e-03
-1.665748542409052624e-01 3.610654263266310227e-01 1.105282979417854694e+00 -3.095752505275299327e-01 1.372645828916015456e-02 -3.924759265255418211e-03
-1.660632883492868250e-01 3.594079989120987362e-01 1.106721794695728400e+00 -3.098952655412599566e-01 1.376263193181906375e-02 -3.933871649154182908e-03
-1.655534683988998390e-01 3.577562016153753577e-01 1.108154692341063008e+00 -3.102132554085001437e-01 1.379885501655143953e-02 -3.943025165575498800e-03
-1.650453928922652747e-01 3.561100315286854778e-01 1.109581675414128776e+00 -3.105292216497766433e-01 1.383512769732535980e-02 -3.952220098116221089e-03
-1.645390602657653134e-01 3.544694855109805642e-01 1.111002747221542464e+00 -3.108431658648267981e-01 1.387145012905269433e-02 -3.961456731030261851e-03
-1.640344688919339322e-01 3.528345601959515521e-01 1.112417911306635920e+00 -3.111550897289870332e-01 1.390782246754284843e-02 -3.970735349202381831e-03
-1.635316170801024427e-01 3.512052519932264416e-01 1.113827171449006004e+00 -3.114649949934916173e-01 1.394424486949844000e-02 -3.980056238140856038e-03
-1.630305030757011053e-01 3.495815570874977185e-01 1.115230531665829306e+00 -3.117728834861509535e-01 1.398071749245227355e-02 -3.989419683957639781e-03
-1.625311250638058203e-01 3.479634714482374158e-01 1.116627996201829953e+00 -3.120787571076408251e-01 1.401724049480404695e-02 -3.998825973386223309e-03
-1.620334811664817243e-01 3.463509908235911650e-01 1.118019569534656865e+00 -3.123826178337608672e-01 1.405381403573716971e-02 -4.008275393738548222e-03
-1.615375694472022117e-01 3.447441107525565096e-01 1.119405256363697809e+00 -3.126844677114188342e-01 1.409043827524427382e-02 -4.017768232915313459e-03
-1.610433879089074038e-01 3.431428265605325767e-01 1.120785061614138600e+00 -3.129843088604705725e-01 1.412711337405727144e-02 -4.027304779383256497e-03
-1.605509344963844676e-01 3.415471333659351183e-01 1.122158990430071723e+00 -3.132821434711550723e-01 1.416383949366766676e-02 -4.036885322172226002e-03
-1.600602070957411194e-01 3.399570260788681852e-01 1.123527048176477638e+00 -3.135779738050485377e-01 1.420061679627541811e-02 -4.046510150867794510e-03
-1.595712035366683712e-01 3.383724994095840266e-01 1.124889240429989279e+00 -3.138718021921335644e-01 1.423744544476802064e-02 -4.056179555586804895e-03
-1.590839215922156547e-01 3.367935478660596393e-01 1.126245572982117027e+00 -3.141636310316884839e-01 1.427432560270872758e-02 -4.065893826982201580e-03
-1.585983589797689830e-01 3.352201657588518846e-01 1.127596051833287483e+00 -3.144534627904815305e-01 1.431125743429095994e-02 -4.075653256212339801e-03
-1.581145133622663956e-01 3.336523472040551219e-01 1.128940683191243188e+00 -3.147413000024061880e-01 1.434824110436194212e-02 -4.085458134963596000e-03
-1.576323823480266784e-01 3.320900861237717772e-01 1.130279473469504081e+00 -3.150271452681543960e-01 1.438527677834267916e-02 -4.095308755412183088e-03
-1.571519634931467513e-01 3.305333762527164487e-01 1.131612429281110721e+00 -3.153110012526888495e-01 1.442236462223789144e-02 -4.105205410213239904e-03
-1.566732542999819400e-01 3.289822111352987410e-01 1.132939557441550171e+00 -3.155928706869740585e-01 1.445950480261261849e-02 -4.115148392514028988e-03
-1.561962522199721037e-01 3.274365841329210935e-01 1.134260864961731619e+00 -3.158727563653142556e-01 1.449669748654496514e-02 -4.125137995913952943e-03
-1.557209546532992150e-01 3.258964884244254234e-01 1.135576359046786887e+00 -3.161506611450455306e-01 1.453394284164309137e-02 -4.135174514480473122e-03
-1.552473589500696916e-01 3.243619170085066949e-01 1.136886047094677110e+00 -3.164265879463399878e-01 1.457124103598687360e-02 -4.145258242723473020e-03
-1.547754624108581001e-01 3.228328627076392232e-01 1.138189936690826576e+00 -3.167005397501420072e-01 1.460859223812746924e-02 -4.155389475587837993e-03
-1.543052622876995017e-01 3.213093181694559042e-01 1.139488035608502425e+00 -3.169725195988591926e-01 1.464599661704395379e-02 -4.165568508439623438e-03
-1.538367557843419997e-01 3.197912758688125079e-01 1.140780351805141146e+00 -3.172425305946693919e-01 1.468345434215330078e-02 -4.175795637072025716e-03
-1.533699400575744831e-01 3.182787281115076472e-01 1.142066893419837248e+00 -3.175105758993627680e-01 1.472096558324034569e-02 -4.186071157665966630e-03
-1.529048122175529212e-01 3.167716670363701081e-01 1.143347668770300363e+00 -3.177766587327818248e-01 1.475853051049717812e-02 -4.196395366817148170e-03
-1.524413693284933369e-01 3.152700846164228077e-01 1.144622686352282592e+00 -3.180407823731525307e-01 1.479614929443562321e-02 -4.206768561486801117e-03
-1.519796084099213351e-01 3.137739726639759974e-01 1.145891954834147741e+00 -3.183029501550903029e-01 1.483382210591785780e-02 -4.217191039023816639e-03
-1.515195264368983941e-01 3.122833228311521769e-01 1.147155483056460756e+00 -3.185631654696610138e-01 1.487154911611310477e-02 -4.227663097137944817e-03
-1.510611203407182801e-01 3.107981266115404373e-01 1.148413280030819994e+00 -3.188214317642309448e-01 1.490933049646099746e-02 -4.238185033887677602e-03
-1.506043870098287552e-01 3.093183753448954798e-01 1.149665354933860018e+00 -3.190777525399376979e-01 1.494716641867970160e-02 -4.248757147681013827e-03
