-5.011042283276593290e-01 1.275804799818079704e+00 3.220596982501660599e-01 -9.816992657248933829e-02 2.182417685005231221e-03 -7.727608531021308699e-04
-5.010983132828574771e-01 1.275796511060465654e+00 3.220633850115042218e-01 -9.817121409003463917e-02 2.182307904480900850e-03 -7.726766035587803467e-04
-5.011146905259238338e-01 1.275818642013519355e+00 3.220549209086381315e-01 -9.816850506158242284e-02 2.182332909647379925e-03 -7.727002442986608075e-04
-5.011099759803859799e-01 1.275812433517713673e+00 3.220566349235612358e-01 -9.816873306567434898e-02 2.182307311506322556e-03 -7.726667067208147681e-04
-5.010982161168071602e-01 1.275798515914313480e+00 3.220598674656104943e-01 -9.816982828452106014e-02 2.182318875504126593e-03 -7.726578540995926447e-04
-5.011027620663496274e-01 1.275802585335958250e+00 3.220602960699160966e-01 -9.816976501310110959e-02 2.182232832329418157e-03 -7.725871587528140979e-04
-5.011037878938704448e-01 1.275805863125097028e+00 3.220567072140856357e-01 -9.816846864051623212e-02 2.182311047997433431e-03 -7.726248527933469740e-04
-5.011052360007592910e-01 1.275801405556685086e+00 3.220663193056542695e-01 -9.817219316128876494e-02 2.182308926193464796e-03 -7.726046264849263049e-04
-5.010767856290558875e-01 1.275769654049969892e+00 3.220705294506353566e-01 -9.817314781266187063e-02 2.182306882167254353e-03 -7.725569410547484302e-04
-5.010953130474418149e-01 1.275790729581246952e+00 3.220667638440670721e-01 -9.817194183465520474e-02 2.182284093775730283e-03 -7.725226369928118921e-04
-5.010873634462258419e-01 1.275784020906462368e+00 3.220638123387649099e-01 -9.817027461188414239e-02 2.182267600683553133e-03 -7.724627878010320017e-04
-5.010807017427151289e-01 1.275773566670021619e+00 3.220693289092617095e-01 -9.817205439901637021e-02 2.182304960252463844e-03 -7.724443978043265407e-04
-5.010753957056307550e-01 1.275767646975363157e+00 3.220698206250870443e-01 -9.817198183824901725e-02 2.182286422511978824e-03 -7.723764790823524221e-04
-5.010820237072550754e-01 1.275773087894440438e+00 3.220715605261368353e-01 -9.817256984707067868e-02 2.182255968324783336e-03 -7.723108345762814660e-04
-5.010653778270705017e-01 1.275754766610835311e+00 3.220727340038719300e-01 -9.817215151189438715e-02 2.182276837859441904e-03 -7.722481136018747704e-04
-5.010684533490612491e-01 1.275760313152282777e+00 3.220683461169295270e-01 -9.817029515923993144e-02 2.182262744195183693e-03 -7.721735051062625019e-04
-5.010613920719074743e-01 1.275745197478815429e+00 3.220808032561377487e-01 -9.817475642909802291e-02 2.182222194502895715e-03 -7.720744284505772978e-04
-5.010288655303470895e-01 1.275704522075679304e+00 3.220921378157436399e-01 -9.817805822976609365e-02 2.182278738374972011e-03 -7.720148696847470814e-04
-5.010252796659947494e-01 1.275702881975135483e+00 3.220876288679970223e-01 -9.817558770828173353e-02 2.182280076352503730e-03 -7.719235452086165234e-04
-5.010255135158869777e-01 1.275700068048902791e+00 3.220916593870166711e-01 -9.817666814890428639e-02 2.182288512015431899e-03 -7.718342831436699652e-04
-5.010097863709124244e-01 1.275679265379857652e+00 3.220978037522114201e-01 -9.817784678380102326e-02 2.182271275321026344e-03 -7.717072526768374097e-04
-5.009801953439184663e-01 1.275641829023144158e+00 3.221089768359468031e-01 -9.818131086995224299e-02 2.182320752848122564e-03 -7.716203980682363479e-04
-5.009645478905979665e-01 1.275623186693126465e+00 3.221119902516726419e-01 -9.818146885419316849e-02 2.182347779752614753e-03 -7.715079797604526167e-04
-5.009408678894874400e-01 1.275593856216971744e+00 3.221179869805541052e-01 -9.818193536390565357e-02 2.182264972972025163e-03 -7.713049171047554192e-04
-5.009178873223965045e-01 1.275560589791835175e+00 3.221331329049215708e-01 -9.818695583015801809e-02 2.182336413423377995e-03 -7.712159576254857532e-04
-5.009068479521937567e-01 1.275549509031793649e+00 3.221311361188938793e-01 -9.818507511266626187e-02 2.182348216830243184e-03 -7.710703026577562808e-04
-5.008758920347045063e-01 1.275510877684603583e+00 3.221409070743589953e-01 -9.818733508121382791e-02 2.182299946719305338e-03 -7.708575897633657571e-04
-5.008272191176312838e-01 1.275444442646392229e+00 3.221663743288203929e-01 -9.819524936878386290e-02 2.182402994241982534e-03 -7.707514830393834152e-04
-5.008106082710118701e-01 1.275423132344791988e+00 3.221716492624508987e-01 -9.819600369894722347e-02 2.182416827249650249e-03 -7.705864645335930947e-04
-5.007662893130291337e-01 1.275365327618611655e+00 3.221898746564174632e-01 -9.820096222007448916e-02 2.182456452057163123e-03 -7.704071939825437578e-04
-5.007474973227129533e-01 1.275343490360314913e+00 3.221916487806797402e-01 -9.819990851575927104e-02 2.182491263148938349e-03 -7.702245656712758968e-04
-5.006849138614969386e-01 1.275266178102762327e+00 3.222107732833316418e-01 -9.820457312797777061e-02 2.182594641441929027e-03 -7.700590380612902519e-04
-5.006423838365922085e-01 1.275208792300084104e+00 3.222312572393895014e-01 -9.821043478587723752e-02 2.182613149461658242e-03 -7.698440664658225347e-04
-5.006025481308594705e-01 1.275152572231715853e+00 3.222545882609924583e-01 -9.821761556145182370e-02 2.182609322923719300e-03 -7.696061233207712824e-04
-5.005479646888898460e-01 1.275090657269245087e+00 3.222607791427400947e-01 -9.821679298741632647e-02 2.182754716168734850e-03 -7.694334518475708920e-04
-5.004688084319058872e-01 1.274990798629339173e+00 3.222889851325959065e-01 -9.822461335365442747e-02 2.182869816979646736e-03 -7.692317933543439115e-04
-5.004327310311126320e-01 1.274940537601622959e+00 3.223077092033798108e-01 -9.822943087563698605e-02 2.182885465273309324e-03 -7.689703635264578561e-04
-5.003687501894726886e-01 1.274857657732467509e+00 3.223333056512480144e-01 -9.823645328408513178e-02 2.182982178026482856e-03 -7.687420881841353342e-04
-5.002878637842547160e-01 1.274756653652388216e+00 3.223594004438619653e-01 -9.824278209403665418e-02 2.183099902992542696e-03 -7.685081209512059685e-04
-5.002276219831094384e-01 1.274676997133665779e+00 3.223853995349789670e-01 -9.824969676343141278e-02 2.183135956840223917e-03 -7.682138789440639192e-04
-5.001516420290620379e-01 1.274578230787861699e+00 3.224162929958321877e-01 -9.825819093248769343e-02 2.183300155622468902e-03 -7.679909777666594920e-04
-5.000700135267884816e-01 1.274478916219397462e+00 3.224378698655695485e-01 -9.826247671029533781e-02 2.183425865427469394e-03 -7.677217133103753565e-04
-4.999725849297240732e-01 1.274357762440398112e+00 3.224689958621624886e-01 -9.827029367883374777e-02 2.183562004678728328e-03 -7.674416986815706066e-04
-4.998826098429558495e-01 1.274239036414020587e+00 3.225087699145016140e-01 -9.828173849853905075e-02 2.183699505872907249e-03 -7.671574929003869290e-04
-4.997844123511812620e-01 1.274111850997483586e+00 3.225483550376283537e-01 -9.829276617845540687e-02 2.183813777476620137e-03 -7.668412829519556878e-04
-4.996858509249780256e-01 1.273987349535702585e+00 3.225823295682379022e-01 -9.830125486450413952e-02 2.183957185815945355e-03 -7.665305002743042634e-04
-4.995838272053003681e-01 1.273858711343986760e+00 3.226166712505122991e-01 -9.830948555511417886e-02 2.184210512140082310e-03 -7.662803462248195816e-04
-4.994647434587453638e-01 1.273703883522481650e+00 3.226662861090008882e-01 -9.832383352171190916e-02 2.184319324147873144e-03 -7.659119751732811890e-04
-4.993470948925096686e-01 1.273557733618965626e+00 3.227026619941915087e-01 -9.833224596564796305e-02 2.184556645068671046e-03 -7.656114000683153075e-04
-4.992185839653290325e-01 1.273392811826058013e+00 3.227518951899366884e-01 -9.834559912796175807e-02 2.184709648781762645e-03 -7.652335714855328704e-04
-4.990942320600572635e-01 1.273237912684054063e+00 3.227918377516305615e-01 -9.835553438064185972e-02 2.184863377663259169e-03 -7.648473726487790532e-04
-4.989546902581674104e-01 1.273058352384755398e+00 3.228462452838642416e-01 -9.837052249341940446e-02 2.185187401287821442e-03 -7.645723183205348997e-04
-4.988177881080754217e-01 1.272882666508927230e+00 3.228987290766173190e-01 -9.838480778127334236e-02 2.185390617328102861e-03 -7.641903135239794427e-04
-4.986530317010619551e-01 1.272675274141094048e+00 3.229557944970842254e-01 -9.839988178295264176e-02 2.185660774894103171e-03 -7.638159290576900916e-04
-4.985020872354654631e-01 1.272482637502854619e+00 3.230118030817812347e-01 -9.841483273878245952e-02 2.185907560320072412e-03 -7.634281707080665209e-04
-4.983516438590447906e-01 1.272291457367656031e+00 3.230660113221484053e-01 -9.842895228080200676e-02 2.186155470934408613e-03 -7.630280208921051167e-04
-4.981654895223279755e-01 1.272052660973123528e+00 3.231380867403809143e-01 -9.844909918763833367e-02 2.186490494014023834e-03 -7.626494975521744919e-04
-4.979775769932476837e-01 1.271817342382696614e+00 3.232009273333344979e-01 -9.846526612584294291e-02 2.186834152412875203e-03 -7.622607493533215374e-04
-4.977940352226321585e-01 1.271583610409396936e+00 3.232687467024283889e-01 -9.848363308698192264e-02 2.187176855905051572e-03 -7.618656581161136051e-04
-4.976248166959291175e-01 1.271366812932963608e+00 3.233325890052141660e-01 -9.850062273368102861e-02 2.187445530486066200e-03 -7.614080390536916891e-04
-4.974020812113640888e-01 1.271079652815390704e+00 3.234218556243310116e-01 -9.852626768773942167e-02 2.187844792562082356e-03 -7.610043331801827913e-04
-4.971996519693133165e-01 1.270825184459919655e+00 3.234911232173413587e-01 -9.854430178619186242e-02 2.188211918399508588e-03 -7.605658401553463824e-04
-4.969992781783535429e-01 1.270570901093434513e+00 3.235628836654870777e-01 -9.856298009468029975e-02 2.188605395246496707e-03 -7.601318811342034059e-04
-4.967645896381594484e-01 1.270272067831540230e+00 3.236501425385948649e-01 -9.858696601819322280e-02 2.189026306021994370e-03 -7.596810198045549209e-04
-4.965310249611421534e-01 1.269974323236782388e+00 3.237375339530457752e-01 -9.861106278297789018e-02 2.189457345704336807e-03 -7.592267914124008893e-04
-4.962855477147288807e-01 1.269661707399863504e+00 3.238286112391212668e-01 -9.863592193302495037e-02 2.189920805661263545e-03 -7.587697968922557006e-04
-4.960297515065480445e-01 1.269334214592539922e+00 3.239267701332519955e-01 -9.866332838245346626e-02 2.190392296987488628e-03 -7.582971337779271116e-04
-4.957877944954426908e-01 1.269024793233786585e+00 3.240182027996125202e-01 -9.868824350386479205e-02 2.190844643872721150e-03 -7.578026779644856780e-04
-4.955083223474832099e-01 1.268669124966641304e+00 3.241220210042186078e-01 -9.871687834578142529e-02 2.191385025992344249e-03 -7.573303035874444237e-04
-4.952521703597406177e-01 1.268342313487333728e+00 3.242172392390600955e-01 -9.874243466854504270e-02 2.191858914511198627e-03 -7.568066126192339376e-04
-4.949417595522148106e-01 1.267947069560391382e+00 3.243332853610559341e-01 -9.877473321834633058e-02 2.192470593619681805e-03 -7.563327445061151458e-04
-4.946665428554783417e-01 1.267595432364438945e+00 3.244365781028935580e-01 -9.880267275400854421e-02 2.193022041448725729e-03 -7.558168992940876314e-04
-4.943648123799530558e-01 1.267211207898160774e+00 3.245484662288327660e-01 -9.883317735063171239e-02 2.193624141554160242e-03 -7.553085379627153895e-04
-4.940558770397931454e-01 1.266815202224901515e+00 3.246674692696105424e-01 -9.886623839458064111e-02 2.194200637664026066e-03 -7.547566978024364747e-04
-4.937307385436539575e-01 1.266399781914119504e+00 3.247907607158742604e-01 -9.890041464402994642e-02 2.194830323671893586e-03 -7.542197659816553658e-04
-4.934010207150472671e-01 1.265978350420067011e+00 3.249155634265263881e-01 -9.893470826712497113e-02 2.195500653919897367e-03 -7.536855183409851833e-04
-4.930582458830052861e-01 1.265541322602640406e+00 3.250435742980737341e-01 -9.896971107610461060e-02 2.196207243104163036e-03 -7.531471847082908894e-04
-4.927001155494667439e-01 1.265079749609701709e+00 3.251865206157839028e-01 -9.901045842374912864e-02 2.196866902123693899e-03 -7.525631543932814011e-04
-4.923526017432530710e-01 1.264634662240935015e+00 3.253191199987837678e-01 -9.904678662955843094e-02 2.197651295679439384e-03 -7.520451625868958918e-04
-4.919877875472907225e-01 1.264166242289454178e+00 3.254606395572547939e-01 -9.908601822240398205e-02 2.198371400535224958e-03 -7.514474775493793033e-04
-4.916044577638273849e-01 1.263678342640860208e+00 3.256024279935943455e-01 -9.912461523744157954e-02 2.199213185391230788e-03 -7.509108185768526011e-04
-4.912085088978807024e-01 1.263168432208681136e+00 3.257592540457538988e-01 -9.916887032957549808e-02 2.200013175606790623e-03 -7.503202025858619981e-04
-4.908198967871622576e-01 1.262670028106771092e+00 3.259085398026785874e-01 -9.920978154029384821e-02 2.200821724549769515e-03 -7.497113065434369205e-04
-4.903992427890917494e-01 1.262131407310113529e+00 3.260701203691645511e-01 -9.925486949176759444e-02 2.201715635092475060e-03 -7.491310335111069692e-04
-4.899809189048745517e-01 1.261592091405777882e+00 3.262356493687918468e-01 -9.930088883324977855e-02 2.202590235499550780e-03 -7.485232719450249459e-04
-4.895574718050887397e-01 1.261043427334344935e+00 3.264084068269583749e-01 -9.934993558304716643e-02 2.203455817908863464e-03 -7.478825910764253871e-04
-4.891163267428007555e-01 1.260478226187217166e+00 3.265775180595369420e-01 -9.939658686443755831e-02 2.204481644189812059e-03 -7.473122837057218689e-04
-4.886681893477169414e-01 1.259900113688109835e+00 3.267554613195794988e-01 -9.944614775077213753e-02 2.205452366525308475e-03 -7.466902757255768595e-04
-4.882044171027176138e-01 1.259301554555528835e+00 3.269399807546234937e-01 -9.949751378604565488e-02 2.206455023491550246e-03 -7.460594448805827651e-04
-4.877346801589407255e-01 1.258699598653455265e+00 3.271196709230475563e-01 -9.954666772155412735e-02 2.207511442579694790e-03 -7.454331385876589167e-04
-4.872545360579664808e-01 1.258076794872402759e+00 3.273159069790512188e-01 -9.960193999748163940e-02 2.208532592345144752e-03 -7.447583883508333575e-04
-4.867591184606532284e-01 1.257434637205399275e+00 3.275182745269920592e-01 -9.965930382361413986e-02 2.209594876992568031e-03 -7.440843251164476523e-04
-4.862578956146236253e-01 1.256784375392740349e+00 3.277237013499791907e-01 -9.971747926864871214e-02 2.210768877990891036e-03 -7.434707374379725389e-04
-4.857548900437141381e-01 1.256136754358987195e+00 3.279194004870066292e-01 -9.977039831064672681e-02 2.211970908124925254e-03 -7.428373997578955040e-04
-4.852228676749701930e-01 1.255445538366136926e+00 3.281397287678573527e-01 -9.983337466909171509e-02 2.213092318230715488e-03 -7.421171081629497710e-04
-4.846895939747830062e-01 1.254751126629326086e+00 3.283607086115892248e-01 -9.989512771644513955e-02 2.214366347614672454e-03 -7.414798973017739736e-04
-4.841568012199630733e-01 1.254060761652692868e+00 3.285768326345397949e-01 -9.995560765597674702e-02 2.215622104601625529e-03 -7.408075158946545889e-04
-4.835969054782345289e-01 1.253327293134367526e+00 3.288165891466383606e-01 -1.000237852405488348e-01 2.216993723160505005e-03 -7.401852853831331156e-04
-4.830388646543169462e-01 1.252603178705657738e+00 3.290434988943466976e-01 -1.000865955765177645e-01 2.218174382055348136e-03 -7.393917512249758303e-04
-4.824619550490396591e-01 1.251853319542521437e+00 3.292812903150698634e-01 -1.001535133300657104e-01 2.219571095973240683e-03 -7.387125744592700676e-04
-4.818676223267308045e-01 1.251072833579351506e+00 3.295381949073997174e-01 -1.002263665128014236e-01 2.220970650698539817e-03 -7.380102979173323949e-04
-4.812804582608237736e-01 1.250308237742499440e+00 3.297814391703238757e-01 -1.002943211586092703e-01 2.222427582859007062e-03 -7.373250762494407270e-04
-4.806666183921325386e-01 1.249506168852907662e+00 3.300403868702994070e-01 -1.003672356478989003e-01 2.223929725275377439e-03 -7.366314084510960404e-04
-4.800600920830632168e-01 1.248710359655604174e+00 3.303003493026808735e-01 -1.004401199744691664e-01 2.225384117495995528e-03 -7.358810182485657145e-04
-4.794427583191152031e-01 1.247898991759665677e+00 3.305674268913077474e-01 -1.005154262793123282e-01 2.226944217166230977e-03 -7.351782697120526735e-04
-4.787991287037040022e-01 1.247051796594508710e+00 3.308482181491383955e-01 -1.005949614016343197e-01 2.228535529187943703e-03 -7.344601674968819632e-04
-4.781645041467663670e-01 1.246220047599291947e+00 3.311187771615598519e-01 -1.006707401633559901e-01 2.230134767157538386e-03 -7.337152178869490613e-04
-4.775113313881880206e-01 1.245356780896621940e+00 3.314084327661716567e-01 -1.007526919434300894e-01 2.231799641407525205e-03 -7.329899725830944356e-04
-4.768366314134148132e-01 1.244467940116284588e+00 3.317032833886470744e-01 -1.008358561941815751e-01 2.233516880174983305e-03 -7.322527775104864089e-04
-4.761649899186950474e-01 1.243581288962461340e+00 3.319988133972762712e-01 -1.009188582797805878e-01 2.235242837031807279e-03 -7.314969982938325727e-04
-4.754884669443962264e-01 1.242684916166062692e+00 3.323014559410359392e-01 -1.010041721274610588e-01 2.237005883113916873e-03 -7.307389183551537323e-04
-4.748012232477559769e-01 1.241773656056899711e+00 3.326101604638280196e-01 -1.010914274976819627e-01 2.238832951587502434e-03 -7.299987268773237793e-04
-4.741073072937071475e-01 1.240852941042748903e+00 3.329219453303250975e-01 -1.011790148111497284e-01 2.240653317940590958e-03 -7.292175861577612122e-04
-4.733894393266480649e-01 1.239894952445961485e+00 3.332540225839245585e-01 -1.012736472266943383e-01 2.242587203528971767e-03 -7.284756800726099012e-04
-4.726677771184247812e-01 1.238933751166158226e+00 3.335842058245671593e-01 -1.013670012190048542e-01 2.244524238069508463e-03 -7.277028913651409792e-04
-4.719422084515430549e-01 1.237963048704742164e+00 3.339230305782722175e-01 -1.014634324725621622e-01 2.246479535470831748e-03 -7.269178943799697087e-04
-4.712031160477844205e-01 1.236979478654439468e+00 3.342583571492305783e-01 -1.015571011091983139e-01 2.248546356880254653e-03 -7.261650035674685564e-04
-4.704674400173026738e-01 1.235992319583175902e+00 3.346052091415596674e-01 -1.016553103618907800e-01 2.250591823132571789e-03 -7.253701686746856850e-04
-4.697060382896531272e-01 1.234968765191119200e+00 3.349678097951476752e-01 -1.017586504277492310e-01 2.252685589754815226e-03 -7.245718586191337175e-04
-4.689511453316413392e-01 1.233950629458377968e+00 3.353314485721377025e-01 -1.018619805458050170e-01 2.254835632747751069e-03 -7.237877858171861030e-04
-4.681893229466183026e-01 1.232929076706398286e+00 3.356877183393847663e-01 -1.019615172982222956e-01 2.257042919655419429e-03 -7.229977205977771576e-04
-4.674031095731128183e-01 1.231862607621779349e+00 3.360766847040452809e-01 -1.020732629331956715e-01 2.259272206605856224e-03 -7.221920261220693242e-04
-4.666183152253899902e-01 1.230805359766745211e+00 3.364508725488297713e-01 -1.021780945130676410e-01 2.261563064743167279e-03 -7.213856418603783842e-04
-4.658198052497996011e-01 1.229716416801898360e+00 3.368539862207880486e-01 -1.022939163918450828e-01 2.263904485698314210e-03 -7.205858667400187731e-04
-4.650058564275441064e-01 1.228614202809251710e+00 3.372509911166551855e-01 -1.024058674135131380e-01 2.266309179475576533e-03 -7.197792643251225888e-04
-4.642134726842767067e-01 1.227536280828704696e+00 3.376443642350835939e-01 -1.025169165324377879e-01 2.268705131832408038e-03 -7.189609789061660212e-04
-4.634050425485782276e-01 1.226433064173494625e+00 3.380505550468736464e-01 -1.026316131575856910e-01 2.271177235147781547e-03 -7.181407493522043439e-04
-4.625859002705363099e-01 1.225312517937874546e+00 3.384665252793637724e-01 -1.027495167272697990e-01 2.273685177788950344e-03 -7.173113972210558428e-04
-4.617412504407788498e-01 1.224157516183767891e+00 3.388952092875383570e-01 -1.028712625206325143e-01 2.276390889502446190e-03 -7.166033993971113137e-04
-4.609021230548286940e-01 1.223002015312029789e+00 3.393334157595528922e-01 -1.029965127736613834e-01 2.279082882835440586e-03 -7.158781259278870204e-04
-4.600745824047487997e-01 1.221861674315509516e+00 3.397647003287724288e-01 -1.031184826189740222e-01 2.281903654229503094e-03 -7.152132747886394588e-04
-4.592230146673618174e-01 1.220685030085497447e+00 3.402143807653021379e-01 -1.032466156303138011e-01 2.284717691855161180e-03 -7.144982449793252800e-04
-4.583718101063328776e-01 1.219506090436264012e+00 3.406673603085336732e-01 -1.033754430868718543e-01 2.287604095492396915e-03 -7.138016470854229153e-04
-4.574991944180284986e-01 1.218292421038099871e+00 3.411404810588822278e-01 -1.035111561361629628e-01 2.290547889929652522e-03 -7.130994327201218034e-04
-4.566410952633259690e-01 1.217096401648274817e+00 3.416075808169115602e-01 -1.036440173550132599e-01 2.293531839010065545e-03 -7.124016858571412475e-04
-4.557676170857220543e-01 1.215880096915076258e+00 3.420811549833434051e-01 -1.037785198042231183e-01 2.296599820179958101e-03 -7.117148286543510931e-04
-4.549018274061986111e-01 1.214673689953083668e+00 3.425492167214033157e-01 -1.039097706247711084e-01 2.299704570349111327e-03 -7.110132138663021947e-04
-4.540044435253420829e-01 1.213412533787942227e+00 3.430543109832868143e-01 -1.040549457192829902e-01 2.302854115040494937e-03 -7.103096416445445769e-04
-4.531187064240833062e-01 1.212166833075734473e+00 3.435515856473438934e-01 -1.041961792367953055e-01 2.306102604833094177e-03 -7.096356670330104420e-04
-4.522264514203730990e-01 1.210906850253379075e+00 3.440606859124053507e-01 -1.043415020243537300e-01 2.309330213009739684e-03 -7.089129340673127732e-04
-4.513361611753836655e-01 1.209644788023024109e+00 3.445752803250279328e-01 -1.044883294556838704e-01 2.312644139762003170e-03 -7.082218567466692493e-04
-4.504399096088107513e-01 1.208372745643015111e+00 3.450945534372790169e-01 -1.046358942504973938e-01 2.316051555077656976e-03 -7.075467760633876845e-04
-4.495382738747860096e-01 1.207089969724687073e+00 3.456211562811669635e-01 -1.047854842934325820e-01 2.319482781324108591e-03 -7.068506189594347825e-04
-4.486275337402874652e-01 1.205789076198470866e+00 3.461611044698483797e-01 -1.049394637914941725e-01 2.322971898244694400e-03 -7.061550347823050515e-04
-4.477173471201333355e-01 1.204485502435769240e+00 3.467054117854105333e-01 -1.050946185175082037e-01 2.326502470929495310e-03 -7.054510544676650301e-04
-4.468005188250329107e-01 1.203169018708520221e+00 3.472581520667626931e-01 -1.052520212275103589e-01 2.330165325845608235e-03 -7.047960485852099036e-04
-4.458780901841892241e-01 1.201841155773148762e+00 3.478185392409069432e-01 -1.054113205631993788e-01 2.333788815958425227e-03 -7.040730826254505822e-04
-4.449546191425592934e-01 1.200504408293942671e+00 3.483911781944564745e-01 -1.055751012279333989e-01 2.337530514115537458e-03 -7.033966320217604606e-04
-4.440289964010989410e-01 1.199161151224489963e+00 3.489687475338228428e-01 -1.057395100340550037e-01 2.341331027784439994e-03 -7.027233509434849257e-04
-4.430983524753798197e-01 1.197806470296091330e+00 3.495559976670463143e-01 -1.059072441865451658e-01 2.345146703916767099e-03 -7.020180051296078926e-04
-4.421659495653441629e-01 1.196446505607285049e+00 3.501469512455036570e-01 -1.060752456615468159e-01 2.349117331945125859e-03 -7.013789578430008843e-04
-4.412351939136416878e-01 1.195079913348624956e+00 3.507505830181253947e-01 -1.062476766911798626e-01 2.353064617001520385e-03 -7.006903789303268017e-04
-4.403033063270155867e-01 1.193710608865593326e+00 3.513551364003144051e-01 -1.064195198722424768e-01 2.357093290401490824e-03 -7.000123570513427755e-04
-4.393503084654108992e-01 1.192302836080905815e+00 3.519864057621784892e-01 -1.066007753820700649e-01 2.361150463096264255e-03 -6.993084586996433120e-04
-4.384189468528669753e-01 1.190923721967887428e+00 3.526050245636464520e-01 -1.067764693830314110e-01 2.365323301041963398e-03 -6.986535966775719690e-04
-4.374734747187654094e-01 1.189517751772251275e+00 3.532425219596116994e-01 -1.069583514319879941e-01 2.369529831572873488e-03 -6.979774126823453436e-04
-4.365333764285631024e-01 1.188113611349643328e+00 3.538846887572938971e-01 -1.071414227868870278e-01 2.373814588022752584e-03 -6.973154795098448090e-04
-4.355778792840910851e-01 1.186684706095249009e+00 3.545404247177736945e-01 -1.073287585437198571e-01 2.378144295130029361e-03 -6.966372803418470179e-04
-4.346326428188690971e-01 1.185264098870979277e+00 3.551977042715230848e-01 -1.075157415399228683e-01 2.382559155867216942e-03 -6.959779395777962842e-04
-4.336864125728691621e-01 1.183833590894886711e+00 3.558684483971724100e-01 -1.077073327484935616e-01 2.387026156936286007e-03 -6.953201276325759799e-04
-4.327282351975955121e-01 1.182384585640510855e+00 3.565480964602392167e-01 -1.079013473379107635e-01 2.391534273045155777e-03 -6.946338382888627523e-04
-4.317813441723307166e-01 1.180939874189927297e+00 3.572384150257325031e-01 -1.080990857228139590e-01 2.396130740147608355e-03 -6.939900606627117394e-04
-4.308251358573478296e-01 1.179482262213637611e+00 3.579325109421135909e-01 -1.082971038828093313e-01 2.400798249741229861e-03 -6.933316653353831889e-04
-4.298706001516022224e-01 1.178018459414661212e+00 3.586367583024860917e-01 -1.084974785178421941e-01 2.405583701011992145e-03 -6.927227487148946610e-04
-4.289207876763350691e-01 1.176555583503431590e+00 3.593474728714832200e-01 -1.087005594610983422e-01 2.410350407315696268e-03 -6.920596447970594643e-04
-4.279633631011445782e-01 1.175075605244586097e+00 3.600716741832568624e-01 -1.089077072752144271e-01 2.415186356254451876e-03 -6.913954077381950173e-04
-4.270170879439860179e-01 1.173601695614060914e+00 3.608028810840961387e-01 -1.091168403578968576e-01 2.420123902114783201e-03 -6.907722983890909755e-04
-4.260567325124889893e-01 1.172107247103962191e+00 3.615416007175248359e-01 -1.093271089125007894e-01 2.425115713112088300e-03 -6.901221096095251683e-04
-4.250993483711257293e-01 1.170605798898935124e+00 3.622959146569351696e-01 -1.095430427054989442e-01 2.430134694400763479e-03 -6.894571736464785803e-04
-4.241417359775429552e-01 1.169098247048424577e+00 3.630586710714450160e-01 -1.097616232804943526e-01 2.435278509184658768e-03 -6.888373710171883041e-04
-4.231923149697970343e-01 1.167598839779383502e+00 3.638195156592632928e-01 -1.099783078890028409e-01 2.440488492119689389e-03 -6.882210719666291988e-04
-4.222359328720539651e-01 1.166083030324688297e+00 3.645935116499444684e-01 -1.101987510710462220e-01 2.445685552451642552e-03 -6.875435839842933099e-04
-4.212790882836445205e-01 1.164557100893478081e+00 3.653829537350938295e-01 -1.104250921730031837e-01 2.451128267712784133e-03 -6.870024396369664053e-04
-4.203241372396824271e-01 1.163027774524664659e+00 3.661786332455061466e-01 -1.106523944736695492e-01 2.456440569425589852e-03 -6.863166262444693336e-04
-4.193755659703810590e-01 1.161502265984495130e+00 3.669766151091488626e-01 -1.108795277541027857e-01 2.461933936722636006e-03 -6.857213058827870116e-04
-4.184226047884051503e-01 1.159962988198552925e+00 3.677886569570583686e-01 -1.111114180271973867e-01 2.467489933296456838e-03 -6.851122733053615060e-04
-4.174674111136983945e-01 1.158412424502341942e+00 3.686143075349656573e-01 -1.113479530929756128e-01 2.473230676081491445e-03 -6.845985067151492444e-04
-4.165150134103929869e-01 1.156858065926765100e+00 3.694475269847398713e-01 -1.115854926884680826e-01 2.478900869103654089e-03 -6.839876817475049617e-04
-4.155732410383008446e-01 1.155315397761679019e+00 3.702793348765179848e-01 -1.118227233358556061e-01 2.484542465409263386e-03 -6.833107294498407154e-04
-4.146227321448395231e-01 1.153747431841909199e+00 3.711361290881753372e-01 -1.120684881603113137e-01 2.490420571771020854e-03 -6.827611967045334575e-04
-4.136731443285563414e-01 1.152177611854884542e+00 3.719953874585580911e-01 -1.123140325598359218e-01 2.496390148153673164e-03 -6.822125732042092156e-04
-4.127240239729685345e-01 1.150596864971265010e+00 3.728712649061297069e-01 -1.125648252374313318e-01 2.502326053888172166e-03 -6.816067208829968164e-04
-4.117790914632663002e-01 1.149018536644062838e+00 3.737479532973967400e-01 -1.128147271363311860e-01 2.508314676012957187e-03 -6.809860178750017871e-04
-4.108349066296859697e-01 1.147430217270280162e+00 3.746418840161059305e-01 -1.130712290651927215e-01 2.514484806076686292e-03 -6.804503975840996274e-04
-4.098903024318811261e-01 1.145837209027579906e+00 3.755400262884290297e-01 -1.133277345020359539e-01 2.520668157495300002e-03 -6.798665395870898522e-04
-4.089500405412655470e-01 1.144243878762705169e+00 3.764444812496775539e-01 -1.135859479673648198e-01 2.526923296078152376e-03 -6.792947998305404406e-04
-4.080111072367000324e-01 1.142641767628497007e+00 3.773636331263797716e-01 -1.138488065433706370e-01 2.533220623561524120e-03 -6.787075983676484721e-04
-4.070726626231294110e-01 1.141034765941981277e+00 3.782898502690625331e-01 -1.141134782080371751e-01 2.539778546431077817e-03 -6.782539263083103018e-04
-4.061345907944787781e-01 1.139418980048100494e+00 3.792290841426798620e-01 -1.143820409257294279e-01 2.546245684427709318e-03 -6.776781549999158147e-04
-4.051999338378399207e-01 1.137802290236043179e+00 3.801738126137182983e-01 -1.146518520713509376e-01 2.552811593270015028e-03 -6.771285338407355458e-04
-4.042658390730877183e-01 1.136174609482283326e+00 3.811354881818274087e-01 -1.149271198229368240e-01 2.559465382237898368e-03 -6.766041503240964074e-04
-4.033354353905839740e-01 1.134550528969522354e+00 3.820958871124656708e-01 -1.152010866466403188e-01 2.566139411074675001e-03 -6.760334558384602233e-04
-4.024052995007023070e-01 1.132911380604287865e+00 3.830798114186595993e-01 -1.154833132760514636e-01 2.572922522196402929e-03 -6.755017683900784624e-04
-4.014786695193775512e-01 1.131272689672383258e+00 3.840666239469794352e-01 -1.157654763980169310e-01 2.579871960546230737e-03 -6.750396625144284082e-04
-4.005503202949844410e-01 1.129621371581862821e+00 3.850690806286717893e-01 -1.160524182788193054e-01 2.586773033725008140e-03 -6.744866704557799441e-04
-3.996307699938244085e-01 1.127979577203801043e+00 3.860697913280030091e-01 -1.163384476794000616e-01 2.593918298802679826e-03 -6.740691573822035288e-04
-3.987014713773653907e-01 1.126306967800546843e+00 3.871017848707531406e-01 -1.166347269839858175e-01 2.600964390042639993e-03 -6.735186999913982987e-04
-3.977831836339904004e-01 1.124653105891371130e+00 3.881196067285137552e-01 -1.169246531040007836e-01 2.608102083973406950e-03 -6.729779658670128391e-04
-3.968664527491234106e-01 1.122989455825770921e+00 3.891545634134049303e-01 -1.172204873796030000e-01 2.615522444386640666e-03 -6.726015548361814408e-04
-3.959522775201252953e-01 1.121318277853702750e+00 3.902045329911429938e-01 -1.175212716253831446e-01 2.622854607760503366e-03 -6.721163070979091145e-04
-3.950398165809725914e-01 1.119640215705779651e+00 3.912668316836592219e-01 -1.178258435067456728e-01 2.630209511049900421e-03 -6.715968127704925088e-04
-3.941260865806604508e-01 1.117956856502879015e+00 3.923323737600922789e-01 -1.181297624348634223e-01 2.637802819036601850e-03 -6.711840664839523662e-04
-3.932143830597391032e-01 1.116263248445428680e+00 3.934178221036994105e-01 -1.184413432834789809e-01 2.645381363076312106e-03 -6.707255689862778522e-04
-3.923066960101702083e-01 1.114571670094659295e+00 3.945039996956423711e-01 -1.187517565200891523e-01 2.653014891205260177e-03 -6.702321512476057917e-04
-3.914052802690757282e-01 1.112878793278278877e+00 3.956011322619804593e-01 -1.190656132165896081e-01 2.660762776161338869e-03 -6.697948307552089057e-04
-3.904989470965782306e-01 1.111172549361249651e+00 3.967098267876266182e-01 -1.193826819941020828e-01 2.668607380508085467e-03 -6.693544387040372247e-04
-3.895959955778415251e-01 1.109461072085609290e+00 3.978302634224922807e-01 -1.197029530186458079e-01 2.676546640822994195e-03 -6.689335524371612567e-04
-3.887000297506127411e-01 1.107747603391680880e+00 3.989644907814132169e-01 -1.200280642436443029e-01 2.684486590936564256e-03 -6.684867697735220882e-04
-3.878027129652377725e-01 1.106026893083931206e+00 4.001060123992951634e-01 -1.203546959516385989e-01 2.692572727870092605e-03 -6.680692942201442094e-04
-3.869095416819193223e-01 1.104305774931571449e+00 4.012532401187809961e-01 -1.206825485670079690e-01 2.700744860388085578e-03 -6.676696618132188857e-04
-3.860173830523039307e-01 1.102573326888782290e+00 4.024189013470225729e-01 -1.210165606832315777e-01 2.708988087812006212e-03 -6.672725880814974571e-04
-3.851216402163396002e-01 1.100829463681600284e+00 4.035949803697292948e-01 -1.213532580662041033e-01 2.717349153694421319e-03 -6.668949224803890751e-04
-3.842357824216393603e-01 1.099093396094142250e+00 4.047727261797934850e-01 -1.216895907272217414e-01 2.725758669567919772e-03 -6.665077946426441061e-04
-3.833511805891654523e-01 1.097346876704185847e+00 4.059685700658118845e-01 -1.220323748423539495e-01 2.734214055224142102e-03 -6.661053937024515601e-04
-3.824685993652534033e-01 1.095596877197487995e+00 4.071706474259453312e-01 -1.223759920351721181e-01 2.742832474578323423e-03 -6.657656975860809338e-04
-3.815817330796378304e-01 1.093830446995883943e+00 4.083907888427457666e-01 -1.227255990247446554e-01 2.751491171382771696e-03 -6.653949056300811600e-04
-3.807035552570204318e-01 1.092067269007869657e+00 4.096183690879976469e-01 -1.230772748934388094e-01 2.760237007920907440e-03 -6.650449533291715159e-04
-3.798279910083354749e-01 1.090300576293194323e+00 4.108543904575744921e-01 -1.234313297437507062e-01 2.769048141146738477e-03 -6.646941398292703033e-04
-3.789536408018698843e-01 1.088530258210624657e+00 4.120956740740638891e-01 -1.237859092563854541e-01 2.777982231499442033e-03 -6.643644579326744978e-04
-3.780830896808546338e-01 1.086756234033620538e+00 4.133473860267392608e-01 -1.241434756652110838e-01 2.786965882111053228e-03 -6.640205964050419725e-04
-3.772063482274629620e-01 1.084958997427817762e+00 4.146250305615289400e-01 -1.245100428645925933e-01 2.796068405259078543e-03 -6.637053025501336032e-04
-3.763381435099232841e-01 1.083172094609132552e+00 4.158976170691488505e-01 -1.248734158824764545e-01 2.805225757603601114e-03 -6.633780434853012468e-04
-3.754703808315292823e-01 1.081371294811492856e+00 4.171926016209042132e-01 -1.252449197839069772e-01 2.814477995430250505e-03 -6.630738123911079701e-04
-3.746078842311231782e-01 1.079568967473389041e+00 4.184968049035188709e-01 -1.256189155868845664e-01 2.823803641230408779e-03 -6.627762001306629217e-04
-3.737466693849055277e-01 1.077768184144029195e+00 4.197972921760625420e-01 -1.259895692942435419e-01 2.833250167146589803e-03 -6.624878080892087360e-04
-3.728827923435950042e-01 1.075944564503494627e+00 4.211304297697604504e-01 -1.263727394699427908e-01 2.842741683117611714e-03 -6.622041428348770685e-04
-3.720271496008787926e-01 1.074135859706267349e+00 4.224492831813480009e-01 -1.267484245634997730e-01 2.852391277783402745e-03 -6.619600010202111081e-04
-3.711647413286353059e-01 1.072298100260827614e+00 4.238038210922840388e-01 -1.271375422331700034e-01 2.862005550983204739e-03 -6.616433422895038772e-04
-3.703133603710755395e-01 1.070474993598942826e+00 4.251497256195555519e-01 -1.275217640068184721e-01 2.871827883160832200e-03 -6.614227237653155268e-04
-3.694556900742505534e-01 1.068629140480519268e+00 4.265209302802458469e-01 -1.279148937471657199e-01 2.881687735234604933e-03 -6.611746745833704418e-04
-3.686070069473871835e-01 1.066793133146550998e+00 4.278884245412198362e-01 -1.283052535370058089e-01 2.891639157613277566e-03 -6.609363609910066072e-04
-3.677590724862320193e-01 1.064939413046678718e+00 4.292861496108142383e-01 -1.287074086498414816e-01 2.901586070030920568e-03 -6.606675914502200533e-04
-3.669116196850308320e-01 1.063089592993188059e+00 4.306738734598092866e-01 -1.291031320843429309e-01 2.911744579443698716e-03 -6.604592630671732561e-04
-3.660682605831820369e-01 1.061226433017598669e+00 4.320903404682607807e-01 -1.295101744541492239e-01 2.921879588993505066e-03 -6.602180375217215832e-04
-3.652215468463758108e-01 1.059359648521687403e+00 4.335027987723355514e-01 -1.299131019179835256e-01 2.932251576904400421e-03 -6.600501065680212508e-04
-3.643797882734131077e-01 1.057481323407715390e+00 4.349428684773517517e-01 -1.303271379756841819e-01 2.942551217480389881e-03 -6.598168534501674433e-04
-3.635367118634298955e-01 1.055602651700662031e+00 4.363768520103340487e-01 -1.307362082579898721e-01 2.953057200485392862e-03 -6.596407900616885634e-04
-3.627000071022484784e-01 1.053719229812612568e+00 4.378285318354330768e-01 -1.311519047566734320e-01 2.963624518977058149e-03 -6.594743081010520040e-04
-3.618592547660404724e-01 1.051819715004419509e+00 4.392986204347308354e-01 -1.315740245415905618e-01 2.974226637609588345e-03 -6.592827691290326737e-04
-3.610261431014042399e-01 1.049924916480278414e+00 4.407707558727705921e-01 -1.319953615969056970e-01 2.984961966202667304e-03 -6.591296209418435678e-04
-3.601881446425372890e-01 1.048013533042517320e+00 4.422598681160386236e-01 -1.324220684005079363e-01 2.995783180815098697e-03 -6.589712963258668966e-04
-3.593628537152018798e-01 1.046120146855114674e+00 4.437382127154884115e-01 -1.328433571337371555e-01 3.006661968772912467e-03 -6.588106904367900052e-04
-3.585251472155173147e-01 1.044190418062668879e+00 4.452538448812425331e-01 -1.332781013076134724e-01 3.017666218427861313e-03 -6.586806392081869530e-04
-3.577020331675749842e-01 1.042275169516268862e+00 4.467692733448606068e-01 -1.337125748346367216e-01 3.028720667818193910e-03 -6.585555267359654045e-04
-3.568742697246898299e-01 1.040346046087953225e+00 4.482967110631544960e-01 -1.341499305418689392e-01 3.039863238000161533e-03 -6.584201225492277657e-04
-3.560428196908283494e-01 1.038409001201302972e+00 4.498270420428263083e-01 -1.345860849757597177e-01 3.051204070831979673e-03 -6.583426483731305958e-04
-3.552234645905754107e-01 1.036471027674406464e+00 4.513800859094877493e-01 -1.350319007747768918e-01 3.062447954808574912e-03 -6.581961733502996077e-04
-3.543960086153126188e-01 1.034522087480506336e+00 4.529334310628204130e-01 -1.354753238513586866e-01 3.073948985162184427e-03 -6.581350618175263716e-04
-3.535748805570010922e-01 1.032567489743270617e+00 4.545058873247249109e-01 -1.359259022780950621e-01 3.085441923173569672e-03 -6.580361560729280999e-04
-3.527557635161441829e-01 1.030604712811652890e+00 4.560938097710718897e-01 -1.363818159807325681e-01 3.097008557453669649e-03 -6.579516433015287352e-04
-3.519386053837163519e-01 1.028645846387962193e+00 4.576748245063366749e-01 -1.368328825997617848e-01 3.108679788119191913e-03 -6.578626989396975117e-04
-3.511241131947212546e-01 1.026674259243211873e+00 4.592811491647131872e-01 -1.372939135214515660e-01 3.120417121999698434e-03 -6.577988137518911947e-04
-3.503048293894108212e-01 1.024695641042098426e+00 4.608864016318597878e-01 -1.377517933231021396e-01 3.132353937838469691e-03 -6.577738992836763398e-04
-3.494919749059556824e-01 1.022714851131224956e+00 4.625052580053852780e-01 -1.382147032735940306e-01 3.144286817639524272e-03 -6.577177747000153380e-04
-3.486735130600444599e-01 1.020713199717541597e+00 4.641472781194607156e-01 -1.386856007484747466e-01 3.156309795525165211e-03 -6.576738240083853998e-04
-3.478643721066871364e-01 1.018715792533103404e+00 4.657967438078262634e-01 -1.391589271408910367e-01 3.168402051805011086e-03 -6.576391451566357448e-04
-3.470510480224791028e-01 1.016713775523091279e+00 4.674426907496725403e-01 -1.396284319484863978e-01 3.180638743064112799e-03 -6.576250448625101976e-04
-3.462402698746920304e-01 1.014704850497220701e+00 4.691025868552173850e-01 -1.401025179205256932e-01 3.193000979223516601e-03 -6.576505364439519429e-04
-3.454328153865203199e-01 1.012682530756655153e+00 4.707900495730194534e-01 -1.405874551430279229e-01 3.205296827915510294e-03 -6.576066280418228988e-04
-3.446237171958800305e-01 1.010665052418284526e+00 4.724621781482260530e-01 -1.410637213006919743e-01 3.217871291732003758e-03 -6.576633616705816754e-04
-3.438174413600941226e-01 1.008631759708884301e+00 4.741650946725807780e-01 -1.415521365105828211e-01 3.230362969353998623e-03 -6.576394801420527543e-04
-3.430107919533573191e-01 1.006594274527431221e+00 4.758712527243628698e-01 -1.420400858280304601e-01 3.243022631454131523e-03 -6.576721018602046118e-04
-3.422088966500413387e-01 1.004557813865898597e+00 4.775819414309771527e-01 -1.425289105380440069e-01 3.255742301530422430e-03 -6.576904103207291625e-04
-3.414001440863584369e-01 1.002494182977407888e+00 4.793246059881668408e-01 -1.430294530858874091e-01 3.268521606246107061e-03 -6.577133995749334531e-04
-3.406027613588809566e-01 1.000453779015970213e+00 4.810446672390642497e-01 -1.435193739443026140e-01 3.281464525064608975e-03 -6.577754769153905173e-04
-3.397986060639918704e-01 9.983848902903670330e-01 4.827991411234729413e-01 -1.440220446833088974e-01 3.294450773913079871e-03 -6.578314404523985092e-04
-3.389968723269187190e-01 9.963119615714149946e-01 4.845625410094591135e-01 -1.445272637861844955e-01 3.307550212790698503e-03 -6.579166805616664098e-04
-3.381971017413116787e-01 9.942377920971283700e-01 4.863285534259879084e-01 -1.450319724450200298e-01 3.320708058211581729e-03 -6.579793949962625286e-04
-3.373981829433460589e-01 9.921568337926303105e-01 4.881056635328097637e-01 -1.455402008418936188e-01 3.333909601360246673e-03 -6.580231415607578922e-04
-3.365983874916922414e-01 9.900665457765405186e-01 4.898942759580361406e-01 -1.460515765094146379e-01 3.347268096146844424e-03 -6.581258296167647901e-04
-3.357995155369993268e-01 9.879677569124177827e-01 4.916971461676040711e-01 -1.465678418705007036e-01 3.360644332940359181e-03 -6.581900054623957387e-04
-3.350047719252384759e-01 9.858671870473973975e-01 4.935051473200953720e-01 -1.470836493858551086e-01 3.374208984172133614e-03 -6.581220405714107314e-04
-3.342114058927757592e-01 9.837586706711721751e-01 4.953194941813612306e-01 -1.475971753821250787e-01 3.387994863984631743e-03 -6.575784416171288503e-04
-3.334131435169810365e-01 9.816342510838566016e-01 4.971502898325145803e-01 -1.481162490917241614e-01 3.401917857051036439e-03 -6.570661647169816861e-04
-3.326176677029663020e-01 9.795045126973442873e-01 4.989918852071851818e-01 -1.486380979358594978e-01 3.415912411158615082e-03 -6.565446768623712809e-04
-3.318236114973422413e-01 9.773704917342409537e-01 5.008411273082395976e-01 -1.491619573066932658e-01 3.429939438958558642e-03 -6.559896774034418765e-04
-3.310305532018408270e-01 9.752343188721085410e-01 5.026930324205463041e-01 -1.496854429338538850e-01 3.444113285893925236e-03 -6.554684428538897151e-04
-3.302390420267602988e-01 9.730897956080344358e-01 5.045596331398765066e-01 -1.502138026796725201e-01 3.458370297473708967e-03 -6.549543389517992632e-04
-3.294476735842054027e-01 9.709389158416110721e-01 5.064348694954926566e-01 -1.507443925958422137e-01 3.472730819204784564e-03 -6.544499762609276572e-04
-3.286543326473309046e-01 9.687748602443425616e-01 5.083267300180140946e-01 -1.512804584225588833e-01 3.487097702777655281e-03 -6.538968952446293529e-04
-3.278651760299300943e-01 9.666127246955544816e-01 5.102206345530139187e-01 -1.518164232937744551e-01 3.501647966049061585e-03 -6.534078909128152556e-04
-3.270755848404762745e-01 9.644426362924660712e-01 5.121245771908051747e-01 -1.523549719006779546e-01 3.516206958611651015e-03 -6.528637007286830322e-04
-3.262836660213228046e-01 9.622578305287758926e-01 5.140475301773215211e-01 -1.529002282017415948e-01 3.530874769982545857e-03 -6.523412530155819769e-04
-3.254955857016579301e-01 9.600766189468999956e-01 5.159680530644632501e-01 -1.534429018739029982e-01 3.545651156095739123e-03 -6.518355918980718111e-04
-3.247059791526040184e-01 9.578830083561086228e-01 5.179047132115492946e-01 -1.539909313190017393e-01 3.560525016780733201e-03 -6.513361128330075580e-04
-3.239193056115391434e-01 9.556902679080904184e-01 5.198431384560588953e-01 -1.545387289120128127e-01 3.575394126542487828e-03 -6.507659671398860609e-04
-3.231302915175494617e-01 9.534828000799933090e-01 5.218005967696576208e-01 -1.550932459081398318e-01 3.590356005442325252e-03 -6.502154294039565055e-04
-3.223435092775553956e-01 9.512733839687440573e-01 5.237615041913243896e-01 -1.556471643616950673e-01 3.605546542576765039e-03 -6.497610633946548702e-04
-3.215576475034869208e-01 9.490592090682669069e-01 5.257308032160841194e-01 -1.562038203961536309e-01 3.620620445780908456e-03 -6.491648304913693939e-04
-3.207703273576693603e-01 9.468349062552811057e-01 5.277123631122074832e-01 -1.567641971369512222e-01 3.635926947791923766e-03 -6.486718206599193307e-04
-3.199852284443137629e-01 9.446076307655513205e-01 5.297015394134870769e-01 -1.573270625450207960e-01 3.651266669967770297e-03 -6.481458596716045554e-04
-3.191999920851296690e-01 9.423752626084977990e-01 5.316950535400938316e-01 -1.578894133745100681e-01 3.666751722820052722e-03 -6.476624117720102816e-04
-3.184157394023035548e-01 9.401357710368389853e-01 5.337010742216693471e-01 -1.584562157611459909e-01 3.682213301688056200e-03 -6.471033967468350391e-04
-3.176305811625030340e-01 9.378878600377483776e-01 5.357178170818036600e-01 -1.590263242473672345e-01 3.697819787343737275e-03 -6.465914970254640426e-04
-3.168460717581031427e-01 9.356367095044032522e-01 5.377384276804435537e-01 -1.595964888543535132e-01 3.713466362744385647e-03 -6.460429351345916074e-04
-3.160619966344740961e-01 9.333729505188664843e-01 5.397801075962279649e-01 -1.601747287877303139e-01 3.729135914265482073e-03 -6.454686071555798890e-04
-3.152791572481488114e-01 9.311117027645794408e-01 5.418166455413305771e-01 -1.607492336221867657e-01 3.744995675148545672e-03 -6.449531107230462674e-04
-3.144944175592820912e-01 9.288379639323200987e-01 5.438690620754749183e-01 -1.613290891733084598e-01 3.760884037865405618e-03 -6.444033130697450311e-04
-3.137119417250743281e-01 9.265604308725590155e-01 5.459300767071263438e-01 -1.619115700469847541e-01 3.776891509120065219e-03 -6.438873167463107089e-04
-3.129311784595287249e-01 9.242833179233039820e-01 5.479901559809828848e-01 -1.624919194212443296e-01 3.792995206609983423e-03 -6.433712301237917708e-04
-3.121487139584581683e-01 9.219928643849293337e-01 5.500686607751281709e-01 -1.630791209584089019e-01 3.809162186260841871e-03 -6.428524294514050648e-04
-3.113652884191283055e-01 9.196971499853016097e-01 5.521525519861670839e-01 -1.636674839255675695e-01 3.825355284911774196e-03 -6.422849116845902534e-04
-3.105851285229255798e-01 9.173991810679604786e-01 5.542430388066867941e-01 -1.642569988757978106e-01 3.841634906524719895e-03 -6.417273824485351117e-04
-3.098060568742725951e-01 9.151022234934145239e-01 5.563319372640588290e-01 -1.648449690273437462e-01 3.858081381287686070e-03 -6.412162371447019957e-04
-3.090219160381748043e-01 9.127821278899986845e-01 5.584491769590677057e-01 -1.654432376348816403e-01 3.874494323669936367e-03 -6.406454996800459460e-04
-3.082447140078652947e-01 9.104738266235493649e-01 5.605567552608671233e-01 -1.660368242719801601e-01 3.891090422650561511e-03 -6.401340272216615506e-04
-3.074638506746550370e-01 9.081510735076894214e-01 5.626807236512880728e-01 -1.666360566078788907e-01 3.907653326944374866e-03 -6.395432033879280397e-04
-3.066819346555694770e-01 9.058182244035573039e-01 5.648172377448369419e-01 -1.672388823298430471e-01 3.924365685654618123e-03 -6.390108486364937286e-04
-3.059055076283581642e-01 9.034949910926806105e-01 5.669449841940730206e-01 -1.678371413389054267e-01 3.941104133115986945e-03 -6.384304526060354933e-04
-3.051245512195389087e-01 9.011533883633974229e-01 5.690944284040687640e-01 -1.684433301163858199e-01 3.957904839235250674e-03 -6.378402707767669806e-04
-3.043442175834834007e-01 8.988068800270367920e-01 5.712517803020726870e-01 -1.690519766751899799e-01 3.974812170990078310e-03 -6.372782414264112176e-04
-3.035677195992638744e-01 8.964644799797044650e-01 5.734052121047106265e-01 -1.696570824074500050e-01 3.991859158757769463e-03 -6.367492364589385145e-04
-3.027871915075796005e-01 8.941049324787401220e-01 5.755808527102281857e-01 -1.702713276779919960e-01 4.008910640235537406e-03 -6.361766436321764345e-04
-3.020099726370960025e-01 8.917495946682038044e-01 5.777517088294462644e-01 -1.708817875538064524e-01 4.026041692439087140e-03 -6.355849991865996891e-04
-3.012323801233600107e-01 8.893880657269035428e-01 5.799308648808791933e-01 -1.714947794153421357e-01 4.043212158109462176e-03 -6.349832271900320750e-04
-3.004547541552431422e-01 8.870208578021264723e-01 5.821180169673944027e-01 -1.721102404365795480e-01 4.060553856773407161e-03 -6.344340344714046983e-04
-2.996772432880001613e-01 8.846455236388951482e-01 5.843166187396552358e-01 -1.727289259748433226e-01 4.077826369490672107e-03 -6.337994851974682433e-04
-2.988988334302269401e-01 8.822653552376261699e-01 5.865211650731774196e-01 -1.733497435650334928e-01 4.095309829756555234e-03 -6.332531452998477455e-04
-2.981240324084502014e-01 8.798887322061439420e-01 5.887231255803516694e-01 -1.739680192247579638e-01 4.112928054777074439e-03 -6.327342080644872196e-04
-2.973474875528612782e-01 8.774998628578827287e-01 5.909410406010565664e-01 -1.745917679820281065e-01 4.130480286072784994e-03 -6.321282101226325398e-04
-2.965694097983425648e-01 8.751017221093954079e-01 5.931715756728698219e-01 -1.752204197967801302e-01 4.147914468786716852e-03 -6.313826559293917416e-04
-2.957940168026526040e-01 8.727086110885797776e-01 5.953945700357458071e-01 -1.758440622784053498e-01 4.165769070479073688e-03 -6.308711137467205637e-04
-2.950175728412474108e-01 8.703031938993968097e-01 5.976363188802421567e-01 -1.764752017735587986e-01 4.183471492607196592e-03 -6.302096574399675480e-04
-2.942426317814163528e-01 8.679015261776114043e-01 5.998707433665557698e-01 -1.771013816844564381e-01 4.201374854614142382e-03 -6.296309329085366096e-04
-2.934660936014333310e-01 8.654854824798381419e-01 6.021274852690086110e-01 -1.777371043838888998e-01 4.219124644452501224e-03 -6.288944079769205435e-04
-2.926920824098201979e-01 8.630752080772680079e-01 6.043754180615596994e-01 -1.783674367725618659e-01 4.237248427470337656e-03 -6.283553839159951694e-04
-2.919154599638493219e-01 8.606501296359747588e-01 6.066415909651602378e-01 -1.790038440795317654e-01 4.255366413934282693e-03 -6.277829716880464457e-04
-2.911442853269965436e-01 8.582365300007102071e-01 6.088969857901380678e-01 -1.796355475273105351e-01 4.273369844524719206e-03 -6.270527810660520181e-04
-2.903676535412317850e-01 8.558017257438477188e-01 6.111770506339428977e-01 -1.802762489857195893e-01 4.291518292440305721e-03 -6.263921432794603743e-04
-2.895923302044749459e-01 8.533652635499028305e-01 6.134615913606547011e-01 -1.809185469474277330e-01 4.309762702255890560e-03 -6.257404609106929222e-04
-2.888231640404210210e-01 8.509442125090496134e-01 6.157270487668773384e-01 -1.815511429919655084e-01 4.328199704354012203e-03 -6.251539478944697671e-04
-2.880482484862269543e-01 8.485006589501583596e-01 6.180206206926064372e-01 -1.821951014993236362e-01 4.346523118480054466e-03 -6.244527756943403073e-04
-2.872761830765123148e-01 8.460612993245912872e-01 6.203092148046073229e-01 -1.828355396880195216e-01 4.365025828007744642e-03 -6.238171926746324683e-04
-2.865005117204255103e-01 8.436022431301319902e-01 6.226249292629881804e-01 -1.834869955282708021e-01 4.383410063820879048e-03 -6.230752082447484378e-04
-2.857280564470530138e-01 8.411503204388347532e-01 6.249323975350778992e-01 -1.841342113327620600e-01 4.401855575799152806e-03 -6.223057698966693923e-04
-2.849564633708581152e-01 8.386997542144959406e-01 6.272357184311390110e-01 -1.847778919563379252e-01 4.420498990203557306e-03 -6.216163086424018576e-04
-2.841859368495976423e-01 8.362433339363600782e-01 6.295502950554894284e-01 -1.854259879545461787e-01 4.439271669609352183e-03 -6.209758573150945225e-04
-2.834128864023183758e-01 8.337783033161610957e-01 6.318735515477125197e-01 -1.860767442529309978e-01 4.458095357048095543e-03 -6.203195656723568645e-04
-2.826434158624073767e-01 8.313184187855645613e-01 6.341931478514363230e-01 -1.867254325328240039e-01 4.476813543004387608e-03 -6.195317847740413122e-04
-2.818722615276220145e-01 8.288507090258014909e-01 6.365210996904184793e-01 -1.873764815182284160e-01 4.495883133464069654e-03 -6.189488038335760065e-04
-2.811007757346633551e-01 8.263743779041206050e-01 6.388624122242518855e-01 -1.880325618033396040e-01 4.514648614792711109e-03 -6.181012051623173886e-04
-2.803324364110312272e-01 8.239047657315783368e-01 6.411952016628998940e-01 -1.886838092945580247e-01 4.533682292396325718e-03 -6.174039812854263806e-04
-2.795620730440244173e-01 8.214255368816983927e-01 6.435406116205821814e-01 -1.893401786445756407e-01 4.552795667380229311e-03 -6.166924810608720832e-04
-2.787915626386644474e-01 8.189404852098385312e-01 6.458938656249481047e-01 -1.899986709047958577e-01 4.571636474875902072e-03 -6.157537662023660104e-04
-2.780218416052649966e-01 8.164544907786203121e-01 6.482473713466765375e-01 -1.906558658815395990e-01 4.590918981498669921e-03 -6.150736199910536656e-04
-2.772541163577201817e-01 8.139712177950150229e-01 6.505981960541671327e-01 -1.913111498924019438e-01 4.610175180725240539e-03 -6.143227797854584719e-04
-2.764846574250988120e-01 8.114769296128555576e-01 6.529660667065229074e-01 -1.919742426082332865e-01 4.629462971257088631e-03 -6.135592573034194140e-04
-2.757178579779956951e-01 8.089873960283172627e-01 6.553269295750514534e-01 -1.926324495952430049e-01 4.648620288189405508e-03 -6.126383183193997951e-04
-2.749531364576824899e-01 8.065026152237927404e-01 6.576822230123451352e-01 -1.932879072717153535e-01 4.668093104496348969e-03 -6.118876112364457671e-04
-2.741850070593145339e-01 8.040004016756304717e-01 6.600609089523659101e-01 -1.939527398284108528e-01 4.687472888592173620e-03 -6.110366288630698223e-04
-2.734182946374182355e-01 8.015001931112325506e-01 6.624368007493783850e-01 -1.946154614679837525e-01 4.707022680991040410e-03 -6.102604361999694298e-04
-2.726495335739252401e-01 7.989870764286582938e-01 6.648295064260429932e-01 -1.952842014182339936e-01 4.726687955374160241e-03 -6.095358179164550756e-04
-2.718870559899077555e-01 7.964940814464546159e-01 6.671973287036239153e-01 -1.959419128789275932e-01 4.746110576606833893e-03 -6.085518578499232939e-04
-2.711208464397431017e-01 7.939825226789938295e-01 6.695895217645679853e-01 -1.966092568528890749e-01 4.765801439054040585e-03 -6.077425899836006937e-04
-2.703542003371983138e-01 7.914669531650174727e-01 6.719868571408993407e-01 -1.972782272397521353e-01 4.785504272084094290e-03 -6.068870010504419247e-04
-2.695888475495818448e-01 7.889548990346301194e-01 6.743791440299686801e-01 -1.979444523992362759e-01 4.805289218114401455e-03 -6.060323338949546003e-04
-2.688257590047124501e-01 7.864427483800816576e-01 6.767744891036585608e-01 -1.986114218933794640e-01 4.825075103536042437e-03 -6.051316891842968343e-04
-2.680640882058590857e-01 7.839320069435643523e-01 6.791676041420614540e-01 -1.992762055739596971e-01 4.844906546493993674e-03 -6.042238523012315220e-04
-2.673006881871561879e-01 7.814108449785014399e-01 6.815749040920622281e-01 -1.999465063394975095e-01 4.864725690511702803e-03 -6.032802344217948936e-04
-2.665392200623474261e-01 7.788969447879866559e-01 6.839712739261377683e-01 -2.006113920543393658e-01 4.884898590525860347e-03 -6.025051879634533199e-04
-2.657771634431327912e-01 7.763751760033381633e-01 6.863800791537835178e-01 -2.012813336191797697e-01 4.904661968838030899e-03 -6.014200636470475644e-04
-2.650169850575737063e-01 7.738561985059873027e-01 6.887861405456829900e-01 -2.019496141187284155e-01 4.924754717756565058e-03 -6.004945931247844494e-04
-2.642565043793658197e-01 7.713342434058629848e-01 6.911948080344403333e-01 -2.026178552255297749e-01 4.944883885763725999e-03 -5.995757211714828607e-04
-2.634948411466775942e-01 7.688018739517571420e-01 6.936190552634281525e-01 -2.032924256467753543e-01 4.964825035587738453e-03 -5.984874573201902663e-04
-2.627374845559122263e-01 7.662830679197651929e-01 6.960263273475136847e-01 -2.039594455668815032e-01 4.985158511817790357e-03 -5.976236563029065866e-04
-2.619777144919807066e-01 7.637529827738024357e-01 6.984470612317791316e-01 -2.046310799410512027e-01 5.005358975293393471e-03 -5.966085478430791606e-04
-2.612221263962868356e-01 7.612320719398706359e-01 7.008590342145564200e-01 -2.052989794241431853e-01 5.025514611842479482e-03 -5.955149458394745632e-04
-2.604647429874641928e-01 7.587034938418010244e-01 7.032793962402389409e-01 -2.059695030975928209e-01 5.045941485618464679e-03 -5.945854826013574363e-04
-2.597063508466668225e-01 7.561671438711028426e-01 7.057111203844246283e-01 -2.066446374385043083e-01 5.066268613368443349e-03 -5.935445837247114650e-04
-2.589468070535931865e-01 7.536249832602862631e-01 7.081484909851889498e-01 -2.073208108443066189e-01 5.086691089591042006e-03 -5.925474371663814544e-04
-2.581939846926724624e-01 7.511022154848675525e-01 7.105650172599902170e-01 -2.079889444778446339e-01 5.107209765779497680e-03 -5.915133401201787657e-04
-2.574355397801830203e-01 7.485570278975477443e-01 7.130081643692721682e-01 -2.086667953194886738e-01 5.127447307035301084e-03 -5.903044741834349678e-04
-2.566831060236326456e-01 7.460313467472705629e-01 7.154268212291893247e-01 -2.093338883170524078e-01 5.148184799751623526e-03 -5.893584355265301007e-04
-2.559307495465623083e-01 7.434984079359270304e-01 7.178593451127537328e-01 -2.100074552978780651e-01 5.168640618594023614e-03 -5.881888228343962275e-04
-2.551768411503359535e-01 7.409610872774644585e-01 7.202938965263980808e-01 -2.106803046193823914e-01 5.189267864109719554e-03 -5.871058982539818132e-04
-2.544260229690851194e-01 7.384292776491608867e-01 7.227245757372430246e-01 -2.113517659804676485e-01 5.209940678576907916e-03 -5.860051154278857937e-04
-2.536738678173442452e-01 7.358921383178383957e-01 7.251606509915070609e-01 -2.120246679765186437e-01 5.230591074575349081e-03 -5.848445900577960805e-04
-2.529247955881182008e-01 7.333609699675742721e-01 7.275909093182013621e-01 -2.126947182774640566e-01 5.251404488625504088e-03 -5.837699088188467176e-04
-2.521747083700768832e-01 7.308246748086596467e-01 7.300278892067334491e-01 -2.133674213711348744e-01 5.272275754059905541e-03 -5.827100282411474402e-04
-2.514248792090468809e-01 7.282849938621361874e-01 7.324696619450042911e-01 -2.140412907865532066e-01 5.293079554768101262e-03 -5.815653663085980710e-04
-2.506781313571782022e-01 7.257540986867379029e-01 7.349013037255487379e-01 -2.147108022888936929e-01 5.313887422886320357e-03 -5.803561891011038872e-04
-2.499294204395577090e-01 7.232116117585339898e-01 7.373494913287583774e-01 -2.153872600559257333e-01 5.334819232391120429e-03 -5.792418242000703680e-04
-2.491826125297926797e-01 7.206768331321576904e-01 7.397854321891679241e-01 -2.160573405124361079e-01 5.355677560229789302e-03 -5.779898393266803130e-04
-2.484388702888198630e-01 7.181487332855120975e-01 7.422165855782731914e-01 -2.167263375674430836e-01 5.376673262604171263e-03 -5.767842701264802108e-04
-2.476924060297838737e-01 7.156090503534340286e-01 7.446598978803449231e-01 -2.173986284394635315e-01 5.397652262853232415e-03 -5.755660273847109385e-04
-2.469511928240332999e-01 7.130847393166369619e-01 7.470869544504128434e-01 -2.180649353885755204e-01 5.418941175984280136e-03 -5.745067304253695124e-04
-2.462040210650860428e-01 7.105366013461127395e-01 7.495432953609607596e-01 -2.187425412893153065e-01 5.439772497976265095e-03 -5.731068506484582326e-04
-2.454634004640382228e-01 7.080070969595794184e-01 7.519791535439696029e-01 -2.194118880135043637e-01 5.460926180838463623e-03 -5.718882068448907134e-04
-2.447247732614804550e-01 7.054840877977375246e-01 7.544054127094601547e-01 -2.200762376611128390e-01 5.482222881956953786e-03 -5.707124665612872379e-04
-2.439814140490400574e-01 7.029424627344977861e-01 7.568549774950099618e-01 -2.207499809693094228e-01 5.503436319302863235e-03 -5.694815304610802717e-04
-2.432417687648124882e-01 7.004100155967760699e-01 7.592949908071956466e-01 -2.214196703831655677e-01 5.524547145887430920e-03 -5.681144018811032544e-04
-2.425043088271047198e-01 6.978830746825220865e-01 7.617290484449995569e-01 -2.220868273162063811e-01 5.545867850214954327e-03 -5.668548344253722133e-04
-2.417657406634279305e-01 6.953516600034751471e-01 7.641682283352870808e-01 -2.227557536941573435e-01 5.567095211138283276e-03 -5.654891923152015982e-04
-2.410286002949286743e-01 6.928211180529655344e-01 7.666079083681466289e-01 -2.234246266536637493e-01 5.588215879008968587e-03 -5.640153515286930493e-04
-2.402954168128921264e-01 6.903031632120061323e-01 7.690329610140180794e-01 -2.240876702285076183e-01 5.609727693912193447e-03 -5.627648785367112558e-04
-2.395598432096807118e-01 6.877740311000992701e-01 7.714717936821554600e-01 -2.247556750880066734e-01 5.631076333456404466e-03 -5.613828180237282091e-04
-2.388295140019573715e-01 6.852607719825593025e-01 7.738915592574211466e-01 -2.254153401555087366e-01 5.652558908531322458e-03 -5.600359910456915438e-04
-2.380931530555505660e-01 6.827234217913080716e-01 7.763430796592831751e-01 -2.260886240535598668e-01 5.673820945412738972e-03 -5.585452868933873287e-04
-2.373637511933898159e-01 6.802098148788199294e-01 7.787641653430915634e-01 -2.267484129757307565e-01 5.695338974682638729e-03 -5.571550274734450017e-04
-2.366352128113150544e-01 6.776949768424460618e-01 7.811884451548855024e-01 -2.274093126273335763e-01 5.716818702460675812e-03 -5.557152611435036598e-04
-2.359036153098210964e-01 6.751693543678199960e-01 7.836261962270298920e-01 -2.280759806133417222e-01 5.738305833212565751e-03 -5.542605048996647162e-04
-2.351752076847398731e-01 6.726514894825327273e-01 7.860551060265206225e-01 -2.287384199185901745e-01 5.759803830276490760e-03 -5.527717359997394225e-04
-2.344483616459421271e-01 6.701362363264816713e-01 7.884824179721585669e-01 -2.294003598529440746e-01 5.781342902926126306e-03 -5.512757026800477710e-04
-2.337216474341266281e-01 6.676218723921032439e-01 7.909085616716426959e-01 -2.300619351621154551e-01 5.802904911040704036e-03 -5.497563785446577369e-04
-2.329983111499443482e-01 6.651183684314918576e-01 7.933212018889846950e-01 -2.307175942242263300e-01 5.824612512945094231e-03 -5.482774592510489828e-04
-2.322737046816100437e-01 6.626040285484627868e-01 7.957503748841467939e-01 -2.313801613466486273e-01 5.846164034947158930e-03 -5.467014392980173651e-04
-2.315504145412762282e-01 6.600939434720018983e-01 7.981737220444221625e-01 -2.320399099756887684e-01 5.867803545682369511e-03 -5.451445451415776145e-04
-2.308295779816066096e-01 6.575906404184297394e-01 8.005897326587831930e-01 -2.326967018843939805e-01 5.889458826809266211e-03 -5.435520380216352001e-04
-2.301091156153183548e-01 6.550885405246370530e-01 8.030031651295671535e-01 -2.333518084470019016e-01 5.911192572099487584e-03 -5.419741639835143473e-04
-2.293908859906464703e-01 6.525906273690603721e-01 8.054135593362758971e-01 -2.340058582760260741e-01 5.932944289476133927e-03 -5.403867281399170807e-04
-2.286744513401343659e-01 6.500985751617851527e-01 8.078155685974613975e-01 -2.346556625445474220e-01 5.954756609889514177e-03 -5.387864844543788223e-04
-2.279578593957261035e-01 6.476022681543022186e-01 8.102263828835820636e-01 -2.353101473376634223e-01 5.976444980276553534e-03 -5.370892847714920119e-04
-2.272425109986609126e-01 6.451097058632402348e-01 8.126316554906255485e-01 -2.359616725436156914e-01 5.998285718952282158e-03 -5.354635305413386372e-04
-2.265276177896016763e-01 6.426162334908290807e-01 8.150398895091482965e-01 -2.366147902543213333e-01 6.020028426041950168e-03 -5.337433820963342164e-04
-2.258145315485458327e-01 6.401283425500658986e-01 8.174409578650694286e-01 -2.372646064892274531e-01 6.041920903846983472e-03 -5.320832812092024435e-04
-2.251042509932287827e-01 6.376484734847841507e-01 8.198323023685302191e-01 -2.379099456983747862e-01 6.063785279911719159e-03 -5.303644416224110236e-04
-2.243925524556764639e-01 6.351604457605216636e-01 8.222365372825208851e-01 -2.385614103283005549e-01 6.085553526791349747e-03 -5.285737858568911266e-04
-2.236843374049040656e-01 6.326842421594439658e-01 8.246255016101473601e-01 -2.392060481155193763e-01 6.107500365670918106e-03 -5.268586148388554498e-04
-2.229753912197150190e-01 6.302031622763449858e-01 8.270221654241873832e-01 -2.398542354124457432e-01 6.129365222313799648e-03 -5.250662906854035132e-04
-2.222688682547626360e-01 6.277298276442574432e-01 8.294088758595457023e-01 -2.404978525702411163e-01 6.151278815165671550e-03 -5.232614939651956953e-04
-2.215636287115890779e-01 6.252583265987955441e-01 8.317949531358904691e-01 -2.411414315825354815e-01 6.173285259330646077e-03 -5.215046998919573235e-04
-2.208627493781826767e-01 6.228018549037973584e-01 8.341614085796421607e-01 -2.417761264192934967e-01 6.195295417764337849e-03 -5.196831037277612484e-04
-2.201578697584010702e-01 6.203288870579980463e-01 8.365512362017825110e-01 -2.424216520120439089e-01 6.217211162351454594e-03 -5.178126516869904859e-04
-2.194593912125151203e-01 6.178775174345285670e-01 8.389132076980617692e-01 -2.430546354213424798e-01 6.239280097373420785e-03 -5.159785961063943337e-04
-2.187587423203842529e-01 6.154162153415765335e-01 8.412898713576404397e-01 -2.436945340762025070e-01 6.261292537704502351e-03 -5.141028403346262167e-04
-2.180597821022569049e-01 6.129592370204044460e-01 8.436620695906817957e-01 -2.443326275433929107e-01 6.283286663072346068e-03 -5.121836285087057314e-04
-2.173641786272008936e-01 6.105123166023368464e-01 8.460222008161272234e-01 -2.449654162254186751e-01 6.305355271971551517e-03 -5.102778378160610553e-04
-2.166683925440898439e-01 6.080640971104698256e-01 8.483845854634843864e-01 -2.455993572303214467e-01 6.327385696157506248e-03 -5.083184957003032949e-04
-2.159743427642364100e-01 6.056201546750108466e-01 8.507425764819552816e-01 -2.462314917918645429e-01 6.349479761406219211e-03 -5.063763622714303071e-04
-2.152818811620357264e-01 6.031810364416773096e-01 8.530948390632471234e-01 -2.468611742793248853e-01 6.371588415982058773e-03 -5.044084795458566098e-04
-2.145909936545086494e-01 6.007455693599585977e-01 8.554437867790072314e-01 -2.474896394955587720e-01 6.393675314360498275e-03 -5.023983032591331204e-04
-2.139029264719705392e-01 5.983192321601776831e-01 8.577810855867182838e-01 -2.481128502296802429e-01 6.415894564887547440e-03 -5.004356101327138038e-04
-2.132148641251171428e-01 5.958915183312418762e-01 8.601214773759118248e-01 -2.487377689565487549e-01 6.438051876026414794e-03 -4.984145015143700468e-04
-2.125294725787747196e-01 5.934714751547610634e-01 8.624535886135328289e-01 -2.493594402925362885e-01 6.460210517594561913e-03 -4.963614145773702227e-04
-2.118424495863184542e-01 5.910433403211612369e-01 8.647983992873654602e-01 -2.499873241137356428e-01 6.482296929828962329e-03 -4.942628383015802577e-04
-2.111599234739603981e-01 5.886306880455478563e-01 8.671229617413108715e-01 -2.506060564956381076e-01 6.504535765037587625e-03 -4.922055822978289950e-04
-2.104770848079662859e-01 5.862151625373238639e-01 8.694528178037984611e-01 -2.512274991764236742e-01 6.526668091132367504e-03 -4.900644478646565098e-04
-2.097974393850731700e-01 5.838111517944076789e-01 8.717669523593737368e-01 -2.518416375696829190e-01 6.548949077658895029e-03 -4.879762766844843972e-04
-2.091168352504731154e-01 5.814013162538376189e-01 8.740919861860501072e-01 -2.524617729820425316e-01 6.571120709727579397e-03 -4.858149170994593025e-04
-2.084429825366659328e-01 5.790152344363520553e-01 8.763845617425367607e-01 -2.530665855367547068e-01 6.593491501437721142e-03 -4.837196069059772102e-04
-2.077662653122967773e-01 5.766166397269318900e-01 8.786969067689418544e-01 -2.536814749132732527e-01 6.615736395228088637e-03 -4.815426655317680475e-04
-2.070906767163875339e-01 5.742203086205132090e-01 8.810078525767720548e-01 -2.542960897328138681e-01 6.637911381461214858e-03 -4.793061295451085083e-04
-2.064190839293322810e-01 5.718373471846408540e-01 8.833014554936780005e-01 -2.549028225501944189e-01 6.660191543635143180e-03 -4.770877424271541050e-04
-2.057459311923617307e-01 5.694484234959221736e-01 8.856041661174606228e-01 -2.555142737407861686e-01 6.682429540107817992e-03 -4.748142203425978979e-04
-2.050790941630530051e-01 5.670807053101187822e-01 8.878706480680654822e-01 -2.561051880251384305e-01 6.705088079169220332e-03 -4.721592691620445851e-04
-2.044114093552739375e-01 5.647070669620497529e-01 8.901490159386952206e-01 -2.567028808362902814e-01 6.727645743412414940e-03 -4.694384525930730186e-04
-2.037447181751353420e-01 5.623371692401222255e-01 8.924219491107154845e-01 -2.572979186917973005e-01 6.750187885575042492e-03 -4.666693694799640534e-04
-2.030783060260866468e-01 5.599662084451635380e-01 8.946986609383394962e-01 -2.578953832649086286e-01 6.772659197549958481e-03 -4.638392900577082822e-04
-2.024130514692684124e-01 5.575978404749818429e-01 8.969743415445275980e-01 -2.584932762086328273e-01 6.795122621711014062e-03 -4.609769633191981050e-04
-2.017498574748807783e-01 5.552374825399168934e-01 8.992382136839776052e-01 -2.590854066861054128e-01 6.817757156034602584e-03 -4.581892189428596242e-04
-2.010909658282066526e-01 5.528896366446308663e-01 9.014883697753248715e-01 -2.596720441603277418e-01 6.840328407935069958e-03 -4.553248393564866109e-04
-2.004304001325037110e-01 5.505356716288309915e-01 9.037473509669157190e-01 -2.602630624196746734e-01 6.862856496582444947e-03 -4.524165401508163003e-04
-1.997756174620445024e-01 5.482018008030077327e-01 9.059797127223518931e-01 -2.608419056265467995e-01 6.885609674874421972e-03 -4.496001116427454278e-04
-1.991182633020205650e-01 5.458562985795744060e-01 9.082312075305712940e-01 -2.614307308093302695e-01 6.908128683276812225e-03 -4.466406820716777222e-04
-1.984650801982439650e-01 5.435256356372641928e-01 9.104622289782414724e-01 -2.620098514414854196e-01 6.930785345042667252e-03 -4.437183208188677378e-04
-1.978127215723109178e-01 5.411963106762328612e-01 9.126941336913232394e-01 -2.625903693491788427e-01 6.953387310551290522e-03 -4.407407566175200594e-04
-1.971630261060291212e-01 5.388768694525514213e-01 9.149122268989958728e-01 -2.631643802464396220e-01 6.976101300497676398e-03 -4.377912995762313179e-04
-1.965125785649115275e-01 5.365527417526807508e-01 9.171400090153292162e-01 -2.637440984741168393e-01 6.998673313155261665e-03 -4.347470421368783270e-04
-1.958661163553194473e-01 5.342419199599961477e-01 9.193509946349686102e-01 -2.643164214594088679e-01 7.021355921756998811e-03 -4.317327019933702185e-04
-1.952210431576537897e-01 5.319353597100158204e-01 9.215568102247915228e-01 -2.648864573781643528e-01 7.043996603678002837e-03 -4.286660026672042042e-04
-1.945803357383574239e-01 5.296444412984308014e-01 9.237417490085000349e-01 -2.654470421719896112e-01 7.066908568104350238e-03 -4.257209646881860874e-04
-1.939381537365433839e-01 5.273457121854364660e-01 9.259410956259990222e-01 -2.660155982810623043e-01 7.089565752587310109e-03 -4.226215464170441304e-04
-1.932953104917758125e-01 5.250439852504807936e-01 9.281461594076155786e-01 -2.665875177651560457e-01 7.112121313683129713e-03 -4.194377148476621732e-04
-1.926570359155781176e-01 5.227577993820690105e-01 9.303304578921203216e-01 -2.671497600982454812e-01 7.134872540729134648e-03 -4.163338010948383736e-04
-1.920231584919390444e-01 5.204873852070920348e-01 9.324942703135681299e-01 -2.677029698850021955e-01 7.157725602374451733e-03 -4.132527460934511468e-04
-1.913870018818292773e-01 5.182075005713966398e-01 9.346733202270581797e-01 -2.682641839367690406e-01 7.180465362508591312e-03 -4.101003423650207672e-04
-1.907531377946627971e-01 5.159344748293694938e-01 9.368447827938395367e-01 -2.688223908591079181e-01 7.203152035267986440e-03 -4.068810047060849103e-04
-1.901218822879567616e-01 5.136701079881984544e-01 9.390059563276480503e-01 -2.693764057807362389e-01 7.225879931665171382e-03 -4.036561788187071416e-04
-1.894963195135362655e-01 5.114273786527038235e-01 9.411363069784827173e-01 -2.699156877310798786e-01 7.248852963335323044e-03 -4.005313499055351877e-04
-1.888682116451650128e-01 5.091729933899908911e-01 9.432869764591054196e-01 -2.704660963897403958e-01 7.271609886854335687e-03 -3.972717010452876695e-04
-1.882402001662347168e-01 5.069174503260137632e-01 9.454410984863943490e-01 -2.710186775423860661e-01 7.294282655876166768e-03 -3.939537596634660305e-04
-1.876173391682439962e-01 5.046797921502753637e-01 9.475725299471828844e-01 -2.715614362443082297e-01 7.317205168443245700e-03 -3.907518533491922529e-04
-1.869941647276778252e-01 5.024403285799450281e-01 9.497078370191562868e-01 -2.721065280052409885e-01 7.339931747111214100e-03 -3.874046132937582188e-04
-1.863733991442713678e-01 5.002092503955760661e-01 9.518328976951770937e-01 -2.726473863870075842e-01 7.362665524875206674e-03 -3.840280843495083520e-04
-1.857556309398155636e-01 4.979887681803708555e-01 9.539436919702065643e-01 -2.731816898287575679e-01 7.385618846082517459e-03 -3.807582280868029466e-04
-1.851411518165952674e-01 4.957802704960905249e-01 9.560386488986551967e-01 -2.737089184182080470e-01 7.408647846915064096e-03 -3.774970068572063389e-04
-1.845246478835234905e-01 4.935611733631853904e-01 9.581538004861521740e-01 -2.742476342860798999e-01 7.431355995792454303e-03 -3.740476755266432685e-04
-1.839131022411306104e-01 4.913614161995752405e-01 9.602403531112100321e-01 -2.747723150601633080e-01 7.454399483531380308e-03 -3.707514930227851966e-04
-1.833007556405411576e-01 4.891552988161033122e-01 9.623413724865985674e-01 -2.753057615498428201e-01 7.477083881425492309e-03 -3.672379937434182501e-04
-1.826911120548455336e-01 4.869600757754255493e-01 9.644265380912654395e-01 -2.758316675368860382e-01 7.499986711027683065e-03 -3.638209859871139457e-04
-1.820831178913886461e-01 4.847702421982180154e-01 9.665058958824959134e-01 -2.763555273561457692e-01 7.522885602936194016e-03 -3.603784361156597100e-04
-1.814796510794006446e-01 4.825962028717546426e-01 9.685649802728939495e-01 -2.768704568579665182e-01 7.545850641618131668e-03 -3.569258488995402504e-04
-1.808749402719644073e-01 4.804162938687353002e-01 9.706349148315212005e-01 -2.773915747552418432e-01 7.568736826526809187e-03 -3.534304995771194282e-04
-1.802741768544839085e-01 4.782498980107955933e-01 9.726876665048271864e-01 -2.779051217418522790e-01 7.591646978533847338e-03 -3.499128978204959204e-04
-1.796717369513349816e-01 4.760768225056529190e-01 9.747519403524825821e-01 -2.784251671112383253e-01 7.614505027023548041e-03 -3.463638225857927524e-04
-1.790734791771393664e-01 4.739179553696269975e-01 9.767983758827638585e-01 -2.789374603955355192e-01 7.637415388158009903e-03 -3.428070678739100373e-04
-1.784798268923291076e-01 4.717772952700458600e-01 9.788184568801978624e-01 -2.794371559321382481e-01 7.660595986462724952e-03 -3.393653122389939385e-04
-1.778843821484676624e-01 4.696273638692680663e-01 9.808551931919168299e-01 -2.799458881683575817e-01 7.683450382824728170e-03 -3.357371271843314947e-04
-1.772909180791827355e-01 4.674838256521163249e-01 9.828863165216338293e-01 -2.804534462303306386e-01 7.706273641500568407e-03 -3.320515057372569055e-04
-1.766993145737941195e-01 4.653461021497816152e-01 9.849113541246627967e-01 -2.809589196628103913e-01 7.729207549856513711e-03 -3.284295876965923284e-04
-1.761112474806109662e-01 4.632221028930770257e-01 9.869162051469975161e-01 -2.814544950867862716e-01 7.752287061838759007e-03 -3.248525345160906087e-04
-1.755246836577528113e-01 4.611021256849037186e-01 9.889189047941767674e-01 -2.819504309973917544e-01 7.775290522929498120e-03 -3.212063468655350883e-04
-1.749419321888231738e-01 4.589968590198792442e-01 9.909014767739671159e-01 -2.824372403868350978e-01 7.798438757351778931e-03 -3.176019755399251375e-04
-1.743580672565887280e-01 4.568860852261352190e-01 9.928939249369531650e-01 -2.829294748048650221e-01 7.821471259371302193e-03 -3.139393610058940193e-04
-1.737752645504629101e-01 4.547775458894277034e-01 9.948870624693130216e-01 -2.834235066968284200e-01 7.844287994246166434e-03 -3.101251056955401731e-04
-1.731948363189626250e-01 4.526769645116014984e-01 9.968709626509159039e-01 -2.839139901358032625e-01 7.867337104236437478e-03 -3.064378119879330076e-04
-1.726165865657290910e-01 4.505852133731383380e-01 9.988423223570385145e-01 -2.843985944152845891e-01 7.890285642491933274e-03 -3.026403916550905911e-04
-1.720423522083661116e-01 4.485068407255938250e-01 1.000798307968622236e+00 -2.848772965256376466e-01 7.913430264132352218e-03 -2.989302243444070780e-04
-1.714695554024678326e-01 4.464334576094653451e-01 1.002747551212847643e+00 -2.853527985699700342e-01 7.936543172355866455e-03 -2.951980222309807163e-04
-1.708989884235236345e-01 4.443681161260970014e-01 1.004687238545149075e+00 -2.858246299627656417e-01 7.959751026077108507e-03 -2.914873110338889075e-04
-1.703299753765480651e-01 4.423070684129620234e-01 1.006624626432418790e+00 -2.862968716183625362e-01 7.982816440097980845e-03 -2.876642905680977156e-04
-1.697625379996707262e-01 4.402515726353987691e-01 1.008554624169134550e+00 -2.867657418876117248e-01 8.005991287954036112e-03 -2.839082052049304470e-04
-1.691955834964970484e-01 4.381965840472891727e-01 1.010488326432165129e+00 -2.872383096466001873e-01 8.029009798920501081e-03 -2.800271352776882695e-04
-1.686288999312769155e-01 4.361417517558082158e-01 1.012423484946563645e+00 -2.877121678989263409e-01 8.051866492403116082e-03 -2.760353645718067127e-04
-1.680677131511175704e-01 4.341075271747562581e-01 1.014330001279070359e+00 -2.881726747298236635e-01 8.075101550782056575e-03 -2.722421236674353552e-04
-1.675107765031926543e-01 4.320893457545057492e-01 1.016213395407614906e+00 -2.886219366411274523e-01 8.098396379243184492e-03 -2.684243970438609139e-04
-1.669493150278201776e-01 4.300512721020315343e-01 1.018133099070288816e+00 -2.890919616264602254e-01 8.121337908616219764e-03 -2.644324266561805920e-04
-1.663951277060350398e-01 4.280421358634808882e-01 1.020007402870421354e+00 -2.895384608311842300e-01 8.144669830954520684e-03 -2.606200276374766528e-04
-1.658410629553306037e-01 4.260320313460900787e-01 1.021888034707085557e+00 -2.899901621287171993e-01 8.167845172070661505e-03 -2.566861411983036479e-04
-1.652897904496875292e-01 4.240315918740269474e-01 1.023756168902367536e+00 -2.904363125570683657e-01 8.191216288392425687e-03 -2.528740580310507679e-04
-1.647360148549851244e-01 4.220202846679329545e-01 1.025645177578651479e+00 -2.908947810110151244e-01 8.214042878028246855e-03 -2.487092586125225712e-04
-1.641906317965154682e-01 4.200420556516465398e-01 1.027483057741272798e+00 -2.913271618391110596e-01 8.237624511457370194e-03 -2.449442687501561132e-04
-1.636423993206660710e-01 4.180501503872278146e-01 1.029348443063674789e+00 -2.917760064070443748e-01 8.260717471378298260e-03 -2.409051945704262295e-04
-1.630954217939099282e-01 4.160627310434460435e-01 1.031207549693729852e+00 -2.922218095407899119e-01 8.283791285301881496e-03 -2.368406877779469157e-04
-1.625562893283146459e-01 4.141055301921549581e-01 1.033023048156316070e+00 -2.926466390835337217e-01 8.307329184437597588e-03 -2.329791210603383692e-04
-1.620137231558936020e-01 4.121330382363526668e-01 1.034866502464993898e+00 -2.930873352771650731e-01 8.330370561951030983e-03 -2.288528302388463242e-04
-1.614746838434758802e-01 4.101746026646783672e-01 1.036689113977380172e+00 -2.935178623333172254e-01 8.353646512057394044e-03 -2.248169773226083371e-04
-1.609364959253133387e-01 4.082179764084459817e-01 1.038512020924930557e+00 -2.939496066638029315e-01 8.376817273231472114e-03 -2.207120174917018773e-04
-1.604023299495667965e-01 4.062766945476961045e-01 1.040314101475841024e+00 -2.943719970116785989e-01 8.400293149799106796e-03 -2.167622120907019168e-04
-1.598684763183468027e-01 4.043345605050282510e-01 1.042121772269919422e+00 -2.947987027612466449e-01 8.423470589562127159e-03 -2.126242849163057880e-04
-1.593374256857664761e-01 4.024034619180611450e-01 1.043913957377833768e+00 -2.952182521157467598e-01 8.446805052786708970e-03 -2.085465471683699311e-04
-1.588083500353795197e-01 4.004799325827431145e-01 1.045696541755857689e+00 -2.956338714058169836e-01 8.470246667102335897e-03 -2.044995645066908173e-04
-1.582807299145377322e-01 3.985600583855640755e-01 1.047477860674135508e+00 -2.960503450865394903e-01 8.493464362243446225e-03 -2.003084208657811977e-04
-1.577560897000662987e-01 3.966510754286606266e-01 1.049245171480698957e+00 -2.964608286883448351e-01 8.516918696179759732e-03 -1.962472171282619914e-04
-1.572320401948890667e-01 3.947433663181263985e-01 1.051013148867031788e+00 -2.968726411571864787e-01 8.540310332455535933e-03 -1.921441655382155904e-04
-1.567105077771239474e-01 3.928457806801686214e-01 1.052767883181720654e+00 -2.972788576439687191e-01 8.563642900156862026e-03 -1.879413409534306449e-04
-1.561900905275945273e-01 3.909507824407895127e-01 1.054522223917607082e+00 -2.976861393566098135e-01 8.586996659505172214e-03 -1.837731336974124656e-04
-1.556728684540870655e-01 3.890675581567481500e-01 1.056261611328493499e+00 -2.980871517407669424e-01 8.610530840661344276e-03 -1.796801310491246372e-04
-1.551565932008647231e-01 3.871875872700908938e-01 1.057997003895170707e+00 -2.984864563348949562e-01 8.633972162542757206e-03 -1.755137920447936821e-04
-1.546435743922002781e-01 3.853194322343819200e-01 1.059717532536384343e+00 -2.988795091586217700e-01 8.657451570391402548e-03 -1.713327903355747956e-04
-1.541314005837231271e-01 3.834535677813154519e-01 1.061437804024099263e+00 -2.992737361730637424e-01 8.680893470643508830e-03 -1.671285192714682213e-04
-1.536204874925959363e-01 3.815928923313042787e-01 1.063152177831255818e+00 -2.996660337510277383e-01 8.704333860831142342e-03 -1.628827797674756769e-04
-1.531130206940385097e-01 3.797432533742871597e-01 1.064854033338890282e+00 -3.000534435142951928e-01 8.727863026777301497e-03 -1.586855316209400486e-04
-1.526060694474102586e-01 3.778959743072638489e-01 1.066554011917321354e+00 -3.004408114949687070e-01 8.751309708316784217e-03 -1.544149905230673113e-04
-1.521023067557517039e-01 3.760604659953604156e-01 1.068237408819937562e+00 -3.008202593926319057e-01 8.774937874407980065e-03 -1.502465413224862776e-04
-1.515988741261325712e-01 3.742247393110899600e-01 1.069926256272117238e+00 -3.012045552118183256e-01 8.798381207355251976e-03 -1.459474526115794044e-04
-1.510991835760398805e-01 3.724031271140679777e-01 1.071594677459943856e+00 -3.015789302620699996e-01 8.822105369595269544e-03 -1.417961054973575360e-04
-1.505994820432791370e-01 3.705812916095148624e-01 1.073267006928610323e+00 -3.019569213056693679e-01 8.845548542412338955e-03 -1.374437315889760910e-04
-1.501033300683061733e-01 3.687726427671174645e-01 1.074919739202075286e+00 -3.023250410102273356e-01 8.869139947831573487e-03 -1.331508384908674342e-04
-1.496086026463111229e-01 3.669683769263285544e-01 1.076570471081248481e+00 -3.026941778112190451e-01 8.892902847534673791e-03 -1.289703975813622893e-04
-1.491152654589289472e-01 3.651683046984948167e-01 1.078218012511769963e+00 -3.030628402493131257e-01 8.916408565161024549e-03 -1.246200671837783798e-04
-1.486246450037409794e-01 3.633787758145045066e-01 1.079851417086122423e+00 -3.034252962023727407e-01 8.940061708283738098e-03 -1.203134027969392607e-04
-1.481354062803777738e-01 3.615942715571082711e-01 1.081478990545050145e+00 -3.037856161003263944e-01 8.963842560146133981e-03 -1.160822816005138534e-04
-1.476471162520020253e-01 3.598125644326462536e-01 1.083106292283875893e+00 -3.041474444872182548e-01 8.987382704655438523e-03 -1.116786819572286268e-04
-1.471626426736222237e-01 3.580447412402037455e-01 1.084714734170331152e+00 -3.045005739980953807e-01 9.011078947767115280e-03 -1.073376865843846345e-04
-1.466789325315847048e-01 3.562800238787970364e-01 1.086318971059683891e+00 -3.048519051677723302e-01 9.034933106272433762e-03 -1.030903453965025679e-04
-1.461972972791132364e-01 3.545213751899124466e-01 1.087920176333492028e+00 -3.052041506095229950e-01 9.058658622813069161e-03 -9.876225758112247490e-05
-1.457170845298662865e-01 3.527693893466993802e-01 1.089510520126705462e+00 -3.055508104739552144e-01 9.082371261007969251e-03 -9.438573059118103006e-05
-1.452397547406710510e-01 3.510265445291829156e-01 1.091091410286237018e+00 -3.058943066156780133e-01 9.106115284802407048e-03 -9.000874387318639255e-05
-1.447637091453448377e-01 3.492886477664862710e-01 1.092666512208993135e+00 -3.062357492289573546e-01 9.130036590421377815e-03 -8.573819159878048619e-05
-1.442895173848532941e-01 3.475576363445008754e-01 1.094234242824394521e+00 -3.065748519573442410e-01 9.153861401888143540e-03 -8.137122858583640704e-05
-1.438166552692831668e-01 3.458306671280675926e-01 1.095798810056687111e+00 -3.069134861698603611e-01 9.177638282684908583e-03 -7.697402829609444291e-05
-1.433469894011281942e-01 3.441161953467972712e-01 1.097345438193612743e+00 -3.072436050836275800e-01 9.201641316534276208e-03 -7.268037218847521843e-05
-1.428786125689552877e-01 3.424053081362123385e-01 1.098891203525798499e+00 -3.075750994374146230e-01 9.225438021499493893e-03 -6.823767714035939972e-05
-1.424117112608971059e-01 3.406999245925383946e-01 1.100430803998863283e+00 -3.079044864629131850e-01 9.249277443640008603e-03 -6.380831123126371189e-05
-1.419464922390217265e-01 3.390007342335437657e-01 1.101961573730842359e+00 -3.082296270843152275e-01 9.273338717868674988e-03 -5.952735891787011655e-05
-1.414839495548761428e-01 3.373113061582994621e-01 1.103482339196753426e+00 -3.085518882388392226e-01 9.297371534954716396e-03 -5.517909629233795562e-05
-1.410226581556170977e-01 3.356261381576364777e-01 1.104998037154235613e+00 -3.088720423071960042e-01 9.321255047490447851e-03 -5.072989654943220315e-05
-1.405627648008252462e-01 3.339455760162552411e-01 1.106510110937578562e+00 -3.091918664753111612e-01 9.345352110273538043e-03 -4.640778797094351080e-05
-1.401053264799503595e-01 3.322739305739252358e-01 1.108011017772106532e+00 -3.095069512250247512e-01 9.369250706038417809e-03 -4.192134709514110200e-05
-1.396500648911903897e-01 3.306106936838693611e-01 1.109501143651061117e+00 -3.098175981002989077e-01 9.393439268119767663e-03 -3.761361156096754431e-05
-1.391960161580731159e-01 3.289516522854933900e-01 1.110986215238115582e+00 -3.101261502726171404e-01 9.417525978628965566e-03 -3.322707154762071180e-05
-1.387448508760960597e-01 3.273035476444223213e-01 1.112458215455783606e+00 -3.104297589294530146e-01 9.441669742918606598e-03 -2.882303757567391427e-05
-1.382941891228944287e-01 3.256561173089471128e-01 1.113932234914490893e+00 -3.107354557793039485e-01 9.465559091937220115e-03 -2.426641317705104911e-05
-1.378450513043228132e-01 3.240138081420324001e-01 1.115402286727859904e+00 -3.110408568015595177e-01 9.489661886985328865e-03 -1.984865099536082885e-05
-1.373996370726778549e-01 3.223864700431338104e-01 1.116849589004995424e+00 -3.113349183114063057e-01 9.514021384983787147e-03 -1.552504902888716959e-05
-1.369543745940309531e-01 3.207588579608202095e-01 1.118299824819200872e+00 -3.116314065045652226e-01 9.538258405012727328e-03 -1.116008643776411003e-05
-1.365114939424964535e-01 3.191400413658969093e-01 1.119740999119597236e+00 -3.119252477354257369e-01 9.562337192451610818e-03 -6.636000023640299576e-06
-1.360703804987572763e-01 3.175276159777207230e-01 1.121172867754632652e+00 -3.122145078022033893e-01 9.586728352732293984e-03 -2.323784125072298922e-06
-1.356317414267431409e-01 3.159243047765816770e-01 1.122595386972619291e+00 -3.125010544062475915e-01 9.610956737800253544e-03 2.147345989558654681e-06
-1.351934523611384997e-01 3.143216498865840647e-01 1.124017993871644139e+00 -3.127879987701974729e-01 9.635223364888140588e-03 6.584008219744720940e-06
-1.347576630813703547e-01 3.127283907552020348e-01 1.125428680099189283e+00 -3.130699896146121874e-01 9.659664546262405199e-03 1.091729532887867943e-05
-1.343245024712991231e-01 3.111451280985778056e-01 1.126827203860964355e+00 -3.133471534603525233e-01 9.683826030227908263e-03 1.549794188160318918e-05
-1.338914582505698336e-01 3.095615354630753546e-01 1.128228670106893317e+00 -3.136268987453496027e-01 9.708334513298944035e-03 1.981691265169225482e-05
-1.334616513081277600e-01 3.079902219374679451e-01 1.129613638442686474e+00 -3.138992332568025789e-01 9.732806987781304764e-03 2.421719699462757591e-05
-1.330325140003441597e-01 3.064209967355072117e-01 1.130997534672425475e+00 -3.141718788364319948e-01 9.757266828771919698e-03 2.859460007156497917e-05
-1.326054523628854842e-01 3.048591437548304195e-01 1.132373508299506115e+00 -3.144419130369069393e-01 9.781607928658151568e-03 3.310541679768875861e-05
-1.321805874509806855e-01 3.033058236593512702e-01 1.133738302981364798e+00 -3.147072111142187323e-01 9.806195818645124102e-03 3.747610583807077511e-05
-1.317585909527480559e-01 3.017634423616153416e-01 1.135087623553242997e+00 -3.149651405162383067e-01 9.830844200263890581e-03 4.182135386426517919e-05
-1.313361844703521408e-01 3.002184220204242582e-01 1.136444466301840261e+00 -3.152283132141751598e-01 9.855326693996488072e-03 4.628266826619817836e-05
-1.309162307992654817e-01 2.986823355739167685e-01 1.137792043758594884e+00 -3.154887058139556055e-01 9.879777841873332508e-03 5.077943883603390019e-05
-1.304983444582492880e-01 2.971545220482843530e-01 1.139126353068468323e+00 -3.157421699935037962e-01 9.904558807302007301e-03 5.508052769855909263e-05
-1.300818776187507297e-01 2.956315399726474613e-01 1.140457227834543508e+00 -3.159955709879277985e-01 9.929122664452562710e-03 5.955813503487360406e-05
-1.296677491554812101e-01 2.941171825369504611e-01 1.141776765303335495e+00 -3.162439812915906479e-01 9.953884498890473720e-03 6.389810789549866458e-05
-1.292553033984269184e-01 2.926092091804228246e-01 1.143089197943521595e+00 -3.164900643964920213e-01 9.978741004790615127e-03 6.821966618415873252e-05
-1.288441635584556266e-01 2.911057361142328492e-01 1.144396308132105577e+00 -3.167339518529136977e-01 1.000337048134762423e-02 7.270068368323719912e-05
-1.284343684006961639e-01 2.896064907742583183e-01 1.145702742411191188e+00 -3.169800918193291794e-01 1.002811156804565319e-02 7.711546653018564086e-05
-1.280273622247985188e-01 2.881189133883323428e-01 1.146988155087401040e+00 -3.172142587571037398e-01 1.005330665322222254e-02 8.124585294666490242e-05
-1.276207444872380359e-01 2.866315947444894041e-01 1.148279008273054513e+00 -3.174535663794129103e-01 1.007793720017833260e-02 8.577064892866636387e-05
-1.272163084542596023e-01 2.851521509658314635e-01 1.149561440908670518e+00 -3.176902365279815066e-01 1.010280304652819670e-02 9.015006121100360096e-05
-1.268137191463566682e-01 2.836800937196762851e-01 1.150833589469593132e+00 -3.179222327778372104e-01 1.012779229063781247e-02 9.447644428682179106e-05
-1.264126783211986238e-01 2.822137062769863314e-01 1.152096988040081316e+00 -3.181495760199252176e-01 1.015265747092659876e-02 9.890255312961616181e-05
-1.260140154735279738e-01 2.807563795740406487e-01 1.153350858644947685e+00 -3.183741562561930860e-01 1.017763697691129003e-02 1.032965338214200597e-04
-1.256168022367361026e-01 2.793039530882154842e-01 1.154598946645405633e+00 -3.185964207111576796e-01 1.020275938885817704e-02 1.075638254144321436e-04
-1.252205504210228415e-01 2.778543502864843084e-01 1.155847917020513593e+00 -3.188214234253013424e-01 1.022770839031560824e-02 1.119981490107645639e-04
-1.248264925723470559e-01 2.764141157366321599e-01 1.157079948200399055e+00 -3.190367418105718444e-01 1.025286355850657007e-02 1.163068873809858114e-04
-1.244344586529559094e-01 2.749805708368530111e-01 1.158307037677616780e+00 -3.192517783834709078e-01 1.027798593806779869e-02 1.206425838892167629e-04
-1.240446598113238846e-01 2.735554138620406861e-01 1.159535421288329982e+00 -3.194732169537123356e-01 1.030278170115722300e-02 1.242599135082034527e-04
-1.236563217461446873e-01 2.721354606695907119e-01 1.160758733251845420e+00 -3.196932519565742759e-01 1.032760089648296700e-02 1.277788847999521322e-04
-1.232691012564646194e-01 2.707192339655751234e-01 1.161979896532574275e+00 -3.199136999234750700e-01 1.035233849542166289e-02 1.313321863686223124e-04
-1.228845960000412713e-01 2.693135123701762002e-01 1.163187920878395065e+00 -3.201288960624700808e-01 1.037714611192323139e-02 1.349127020168260712e-04
-1.225016408713009153e-01 2.679135649843207845e-01 1.164387090344850328e+00 -3.203393953502082225e-01 1.040178170790752657e-02 1.385991844304764711e-04
-1.221203834800046462e-01 2.665199390773477228e-01 1.165579021285896744e+00 -3.205474560066985945e-01 1.042696110552934589e-02 1.419180179294633260e-04
-1.217402879622468265e-01 2.651302568947745408e-01 1.166768868410343662e+00 -3.207560586217244047e-01 1.045152543729602028e-02 1.456958415569267588e-04
-1.213621396014320231e-01 2.637479293914697931e-01 1.167948073143373344e+00 -3.209596048120531009e-01 1.047667530883244179e-02 1.490665698096630212e-04
-1.209857237979253264e-01 2.623720935560350798e-01 1.169120189244565511e+00 -3.211608320355185953e-01 1.050174633667360496e-02 1.525266961698431504e-04
-1.206100230999007095e-01 2.609984937805953642e-01 1.170291676743487219e+00 -3.213628142004780197e-01 1.052648698828985430e-02 1.561797880061414825e-04
-1.202366270598103082e-01 2.596333859250083420e-01 1.171451560396803426e+00 -3.215594826757482982e-01 1.055145260825678284e-02 1.597108054899211286e-04
-1.198644967125807037e-01 2.582729145176996255e-01 1.172608517479084123e+00 -3.217567203438352896e-01 1.057674580167148465e-02 1.630392579608370127e-04
-1.194950298976860947e-01 2.569234314094995808e-01 1.173746552528787124e+00 -3.219434270021074296e-01 1.060214308635921109e-02 1.663298751475356021e-04
-1.191261700503301046e-01 2.555753981500282213e-01 1.174887283638700763e+00 -3.221335738250681868e-01 1.062724584805853183e-02 1.698162386108523919e-04
-1.187588837037921730e-01 2.542324849739636683e-01 1.176024836393874784e+00 -3.223240249983287398e-01 1.065213433252029836e-02 1.734530017620587955e-04
-1.183936813082892420e-01 2.528984814040027285e-01 1.177147613474740284e+00 -3.225067797502872979e-01 1.067765366968069160e-02 1.767125101527910623e-04
-1.180292365606420146e-01 2.515664096092435909e-01 1.178270057421747286e+00 -3.226902382837855687e-01 1.070285753376123104e-02 1.801502796753873563e-04
-1.176670552563884170e-01 2.502433341992866822e-01 1.179380615454893144e+00 -3.228685331760982602e-01 1.072785634612895105e-02 1.837824321779073765e-04
-1.173061606487486586e-01 2.489245623204343061e-01 1.180488483434143809e+00 -3.230473288391225162e-01 1.075341573323772108e-02 1.870280000553836480e-04
-1.169475324338611066e-01 2.476144843960187414e-01 1.181584689183529324e+00 -3.232208409735701227e-01 1.077871817169601468e-02 1.904816561872506894e-04
-1.165889538828549926e-01 2.463041322056266913e-01 1.182682563392290387e+00 -3.233956509765216758e-01 1.080398839743224211e-02 1.939208640273598454e-04
-1.162329937302569866e-01 2.450039347553845670e-01 1.183767047211538470e+00 -3.235648339608914736e-01 1.082983956315868371e-02 1.970061610668581784e-04
-1.158796013931290975e-01 2.437141849433110685e-01 1.184835643700944852e+00 -3.237259665591859514e-01 1.085533263875581265e-02 2.004066693032375396e-04
-1.155252377284595178e-01 2.424190474774512161e-01 1.185918706039960080e+00 -3.238970165727156347e-01 1.088071247139030251e-02 2.037883123734815407e-04
-1.151743544896981913e-01 2.411379615917438601e-01 1.186979488750827372e+00 -3.240565717575725202e-01 1.090644502593534487e-02 2.070308787639564064e-04
-1.148243186771019664e-01 2.398599623621997523e-01 1.188039198385394402e+00 -3.242171979577849195e-01 1.093192750298366961e-02 2.104283843090605662e-04
-1.144768030953507570e-01 2.385918272004927121e-01 1.189082999537281804e+00 -3.243694182727220321e-01 1.095779988595758925e-02 2.135947443406724334e-04
-1.141290924074704199e-01 2.373216098669931329e-01 1.190135619626540242e+00 -3.245285096622959609e-01 1.098356831244523199e-02 2.168042637878164259e-04
-1.137825835267084335e-01 2.360559643729866486e-01 1.191183170456551643e+00 -3.246858104783004184e-01 1.100912933606649699e-02 2.201298394040627029e-04
-1.134387961208283557e-01 2.348013793435785590e-01 1.192213521461023884e+00 -3.248345179581060838e-01 1.103525992426132758e-02 2.231533500707954002e-04
-1.130973607513645063e-01 2.335557429538185348e-01 1.193231923635821090e+00 -3.249777806725597795e-01 1.106106790278083528e-02 2.264069315039129722e-04
-1.127556204370945836e-01 2.323075607819517496e-01 1.194259990362181334e+00 -3.251283571557827545e-01 1.108654970577326558e-02 2.298767429709771464e-04
-1.124163674594916562e-01 2.310697803199180389e-01 1.195271476598458449e+00 -3.252704978281595327e-01 1.111269687713080205e-02 2.329114921438892873e-04
-1.120786762293663058e-01 2.298381871586150094e-01 1.196273184319717409e+00 -3.254075397384136314e-01 1.113890970238141410e-02 2.359347870660816150e-04
-1.117425252612327807e-01 2.286118995436516310e-01 1.197271854354556408e+00 -3.255452584389156856e-01 1.116495506164666765e-02 2.390747402935624081e-04
-1.114079549372348349e-01 2.273918918689641910e-01 1.198260580076036863e+00 -3.256778215778483587e-01 1.119127480768846924e-02 2.420297623935486521e-04
-1.110744666183429985e-01 2.261753665039364924e-01 1.199247874928933033e+00 -3.258112921548946272e-01 1.121726636077896057e-02 2.452509795892000377e-04
-1.107417317638963311e-01 2.249613677697115122e-01 1.200234461008112152e+00 -3.259458860167500638e-01 1.124357333672052622e-02 2.482156661024091594e-04
-1.104109126493515586e-01 2.237546897140799962e-01 1.201210302581479317e+00 -3.260751404588542179e-01 1.126971914699389371e-02 2.513416656524251392e-04
-1.100814545845645032e-01 2.225532501137400254e-01 1.202180302037481052e+00 -3.262023727304165233e-01 1.129572668459262637e-02 2.545484791673746183e-04
-1.097536203831094709e-01 2.213583040303489513e-01 1.203139952307927141e+00 -3.263243312341351232e-01 1.132236611095871308e-02 2.573291680098951559e-04
-1.094272260986954848e-01 2.201683729991057437e-01 1.204096920373239010e+00 -3.264471426550064059e-01 1.134870110101180579e-02 2.603742803454818663e-04
-1.091027816672655304e-01 2.189859365539905678e-01 1.205042869185134702e+00 -3.265645134152093676e-01 1.137509176765707369e-02 2.633975756926324667e-04
-1.087786528997664731e-01 2.178043064822984820e-01 1.205989809553994929e+00 -3.266833220286119999e-01 1.140149858089191393e-02 2.663603111931223144e-04
-1.084565777563935990e-01 2.166308484354025066e-01 1.206924962247964750e+00 -3.267966604491572835e-01 1.142838243340319783e-02 2.690450887802844850e-04
-1.081361548251770915e-01 2.154636564462088510e-01 1.207853505635607005e+00 -3.269078402869961542e-01 1.145464273010501043e-02 2.721903002524073091e-04
-1.078164529902847918e-01 2.142984022472245453e-01 1.208781793478701738e+00 -3.270201447223774482e-01 1.148142520775857246e-02 2.749767789773203291e-04
-1.074987491738692985e-01 2.131413139993493522e-01 1.209698652073826874e+00 -3.271271215860485082e-01 1.150794203827320943e-02 2.779626484683911597e-04
-1.071822954861622601e-01 2.119887385656488432e-01 1.210609998996478698e+00 -3.272319328259003512e-01 1.153472551079284814e-02 2.807652391421708955e-04
-1.068660238832972870e-01 2.108360904498093047e-01 1.211526561043856143e+00 -3.273415837847423737e-01 1.156121510136944378e-02 2.837410730049161919e-04
-1.065534629691507751e-01 2.096990422544620924e-01 1.212415107953366933e+00 -3.274353844414858994e-01 1.158826601338746286e-02 2.864311894202110930e-04
-1.062404938942358712e-01 2.085592842786760104e-01 1.213314281713134823e+00 -3.275374634089980308e-01 1.161526979179586250e-02 2.891215196272598257e-04
-1.059293982366103642e-01 2.074268516633968051e-01 1.214202559812213922e+00 -3.276340530590260425e-01 1.164205124134470339e-02 2.919885786809545787e-04
-1.056195237104160661e-01 2.062989725154807941e-01 1.215085324212957785e+00 -3.277285375180195581e-01 1.166910200866678321e-02 2.946624913300345517e-04
-1.053112968278273470e-01 2.051777168012830499e-01 1.215957640724708133e+00 -3.278176424328275163e-01 1.169632784179938136e-02 2.972538928643802853e-04
-1.050041662863770014e-01 2.040600633599385649e-01 1.216828806166681431e+00 -3.279080174538733239e-01 1.172335737717355650e-02 2.999568364568465893e-04
-1.046985918620691319e-01 2.029489147212079070e-01 1.217689573078465815e+00 -3.279930298733502725e-01 1.175054804867832654e-02 3.025858870673639174e-04
